{"ft.weight": [[0.03275497257709503, 0.01116383820772171, 4.57044443464838e-05, 0.008051234297454357, 0.02366064116358757, -0.0008152252994477749, -0.017056308686733246, -0.03382251411676407, -0.016344085335731506, -0.0068024927750229836, -0.1564922332763672, 0.05737759545445442, 0.009630921296775341, 0.02008879743516445, -0.018750496208667755, -0.005947003606706858, -0.011009538546204567, -0.011528987437486649, -0.08013241738080978, -0.03006892092525959, -0.009078909642994404, 0.00448848819360137, 0.008200803771615028, -0.023790473118424416, 0.0025863132905215025, 0.146498441696167, -0.2537684738636017, 0.10178731381893158, -0.01155110727995634, 0.011469302698969841, -0.010020319372415543, -0.005532912909984589, 0.12435992062091827, 0.1152612566947937, -1.97297203540802, 0.054554734379053116, -0.00011866656132042408, 0.002425741171464324, -0.0059274970553815365, 0.008465846069157124, 0.027797041460871696, 0.21557092666625977, 0.06619787216186523, 0.05095614492893219, 0.03614754229784012, 0.012264659628272057, -0.0559464730322361, 0.03920911252498627, 0.05889208987355232, 0.25004464387893677, 0.04535839706659317, 0.1584222912788391, -0.05818624794483185, 0.1177712231874466, -0.19947141408920288, -0.23292066156864166, -0.03432707116007805, -0.01252952590584755, -0.027118727564811707, -0.01199446339160204, -0.02294079214334488, 0.02493295446038246, 0.020117083564400673, 0.022054873406887054, 0.00826093927025795, -0.1850464940071106, -0.007359874900430441, -0.12025424838066101, -0.05235869064927101, -0.10683802515268326, -0.17634963989257812, -0.14500531554222107, -0.10504686087369919, 0.09408378601074219, -0.17579522728919983, -0.03914059326052666, -0.1371881514787674, -0.08495517820119858, -0.13248667120933533, -0.11855515092611313, -0.09191097319126129, 0.5241883397102356, -0.0678028017282486, 0.348099023103714, -0.12416727840900421, -0.08563397079706192, -0.11214574426412582, -0.16141556203365326, 0.6535626649856567, 0.0710420310497284, -0.06733515858650208, -0.026781441643834114, 0.28297513723373413, -0.05474838614463806, -0.10524062067270279, -0.14088678359985352, 0.12752191722393036, -0.06822750717401505, 0.7627723217010498, -0.07394140958786011, 0.0014959443360567093, -0.056549884378910065, -0.056511733680963516, -0.13184821605682373, 0.7260884642601013, -0.022077184170484543, 0.03918946534395218, -0.06617137789726257, 0.3249710202217102, -0.02324415184557438, -0.042948927730321884, -0.13717074692249298, -0.12600265443325043, 0.7329599261283875, -0.028631161898374557, 0.5155185461044312, -0.19743208587169647, -0.021644290536642075, -0.13706885278224945, 0.07617729902267456, -0.05312538146972656, 0.24944818019866943, -0.20331236720085144, 0.10706225037574768, -0.03771642968058586, 0.08438139408826828, -0.26439064741134644, -0.13034850358963013, -0.015937283635139465, -0.09044738113880157, -0.04893060028553009, -0.16774581372737885, -0.041113726794719696, -0.08974971622228622, 0.18421462178230286, -0.04941491037607193, -0.04083441570401192, -0.037935614585876465, -0.22314976155757904, -0.004026895388960838, -0.12090449780225754, 0.12985578179359436, -0.11677087843418121, -0.09830591082572937, 0.3067181706428528, -0.08880026638507843, -0.02558201551437378, -0.15335172414779663, 0.15551118552684784, -0.09631294757127762, 0.006109507754445076, -0.10264644026756287, -0.11992089450359344, 0.30202457308769226, -0.06175241991877556, 0.1706646829843521, -0.13063524663448334, 0.022688107565045357, -0.07584349066019058, 0.0370367094874382, 0.03588350489735603, -0.047680534422397614, 0.8841182589530945, -0.1096091940999031, -0.042728491127491, -0.14682985842227936, -0.05555976182222366, -0.07025480270385742, -0.20880447328090668, 0.23014694452285767, -0.12033988535404205, 0.15809261798858643, -0.08898193389177322, 0.008810260333120823, -0.07153087109327316, -0.02763340435922146, 1.965604305267334, -0.058463942259550095, -0.018491316586732864, -0.0835486575961113, 0.10781653970479965, -0.11382608860731125, -0.10664526373147964, -0.06669966131448746, -0.26332005858421326, -0.02918163500726223, -0.12602905929088593, -0.08821045607328415, -0.09367362409830093, 0.22660353779792786, -0.22223001718521118, -0.14990948140621185, -0.13540735840797424, -0.09872066229581833, 0.0141134699806571, -0.11259645968675613, -0.09222090989351273, -0.11949512362480164, -0.12433461844921112, -0.17353154718875885, -0.14017829298973083, -0.056618839502334595, -0.005712293088436127, -0.11050574481487274, -0.09914513677358627, -0.0838068425655365, -0.16970525681972504, -0.09836617112159729, -0.158676877617836, -0.10540789365768433, 0.026132285594940186, -0.17079666256904602, -0.16758942604064941, -0.10128314793109894, -0.1397583782672882, -0.0877714455127716, -0.10543261468410492, -0.10888224840164185, 0.1067148819565773, -0.1746497005224228, -0.1295764297246933, -0.19317825138568878, -0.14159783720970154, -0.1763445883989334, -0.042701203376054764, 0.2327151745557785, 0.7073270082473755, 0.18235918879508972, 0.010434427298605442, 0.030675554648041725, -0.028774918988347054, -0.022434325888752937, -0.028996597975492477, -0.0620824471116066, 0.09159822762012482, -0.15751487016677856, -0.01441333070397377, -0.04199645668268204, -0.10293886065483093, -0.05677006021142006, -0.006973297335207462, -0.0411556139588356, 0.04684201627969742, -0.03128587454557419, -0.03854357823729515, 0.013489303179085255, -0.06231484189629555, -0.08441819250583649, 0.11313305050134659, -0.09923595190048218, 0.07478725910186768, -0.05901563540101051, -0.12170376628637314, -0.07034477591514587, -0.05791684240102768, -0.030904341489076614, -0.09925412386655807, -0.13868184387683868, 0.015950333327054977, -0.14635847508907318, -0.10884290933609009, -0.0673263743519783, -0.09564430266618729, -0.05024738982319832, -0.06057199090719223, -0.1233476996421814, -0.09198595583438873, -0.095536008477211, -0.08800862729549408, -0.04889221489429474, -0.14013315737247467, -0.16218113899230957, 0.10973342508077621, -0.10512596368789673, 0.09882424026727676, -0.07705125212669373, -0.041609589010477066, -0.10289650410413742, -0.06218346208333969, -0.08636627346277237, 0.03456030786037445, 0.07861679792404175, 0.0803980827331543, -0.0452546700835228, -0.12851451337337494, -0.032273970544338226, -0.11514682322740555, -0.11319924145936966, 0.032118577510118484, 0.1174616664648056, 0.8215721249580383, 0.044668007642030716, 0.10596149414777756, -0.0021404374856501818, 0.02673151157796383, -0.01365297194570303, 0.02983490377664566, 0.11961512267589569, 0.062958724796772, 0.09116075187921524, 0.005189075134694576, -0.023915421217679977, -0.10401042550802231, -0.10120034962892532, 0.1683647483587265, -0.0645245760679245, 0.014278080314397812, 0.10662553459405899, 0.06869854032993317, 0.012706511653959751, 0.12894941866397858, 0.031034767627716064, 0.1604653298854828, -0.1055532917380333, 0.08629057556390762, -0.0008330050623044372, -0.05014316737651825, 0.07099336385726929, 0.0197676382958889, 0.07493100315332413, 1.5623778104782104, 1.5703835487365723, 1.6196506023406982, 1.581426978111267, 1.5620383024215698, 1.5578651428222656, 1.5830549001693726, 1.5629756450653076, 1.5612581968307495, 1.5762954950332642, 1.54539954662323, 1.570600152015686, 1.5636603832244873, 1.5411832332611084, 1.5589264631271362, 1.5720596313476562, 1.5220412015914917, 1.559733510017395, 1.5796782970428467, 1.5543609857559204, 1.5298031568527222, 1.5517553091049194, 1.5344940423965454, 1.5589956045150757, 1.678900122642517, 1.715609073638916, 1.740971326828003, 1.5851942300796509, 1.500525712966919, 1.5421228408813477, 1.490150809288025, 1.536017656326294, 1.448110580444336, 1.692488670349121, 1.2775832414627075, 1.5595958232879639, 1.4832913875579834, 1.4796205759048462, 1.4491122961044312, 1.4544947147369385, 1.5639013051986694, 1.6170817613601685, 1.6295461654663086, 1.510877251625061, 1.472267508506775, 1.4692652225494385, 1.4987350702285767, 1.4429244995117188, 1.271682858467102, 1.4766126871109009, 1.5067884922027588, 1.6044563055038452, 1.4655574560165405, 1.5444402694702148, 1.445731520652771, 1.3856115341186523, 1.3431940078735352, 0.6982396245002747, 1.3493181467056274, 1.2816625833511353, 1.4695159196853638, 1.4084320068359375, 1.306447148323059, 1.574388027191162, 0.015373572707176208, -0.004070749506354332, 0.015201753936707973, -0.027614112943410873, 0.03341558575630188, 0.001699039596132934, -0.01513915229588747, 0.01889031007885933, -0.45187821984291077, 0.021776651963591576, 0.06780585646629333, -0.10270828753709793, -0.3265235424041748, -0.001604017335921526, -0.039000529795885086, -0.13620416820049286, -0.11653167009353638, 0.05010264739394188, 0.03144065663218498, 0.0772051215171814, 0.055784549564123154, 0.05920786038041115, -0.1263332962989807, -0.08064426481723785, 0.04695069417357445, 0.11016233265399933, -0.012386501766741276, 0.09479429572820663, 0.09563695639371872, 0.07479730993509293, 0.009817005135118961, 0.005028952844440937, 0.0856541246175766, 0.04874094948172569, 0.5648607015609741, 0.03957070782780647, 0.07532644271850586, 0.044281817972660065, 0.0621333047747612, 0.0253737885504961, 0.043262191116809845, -1.9745172262191772, 0.3339886963367462, -1.9598052501678467, 0.05766623839735985, 0.039684075862169266, 0.056038014590740204, 0.04169493913650513, 0.059039052575826645, -0.13635924458503723, 0.25363689661026, -0.22687123715877533, 0.05628224462270737, 0.025091631338000298, 0.054275959730148315, 0.03617682307958603, -0.0259600467979908, -0.034090280532836914, 0.022686097770929337, -0.021985944360494614, 0.0012792468769475818, -0.030147282406687737, -0.017580600455403328, 0.0035193325020372868, -0.060340702533721924, 0.1216060221195221, -0.0065353503450751305, 0.12814660370349884, -0.01803392544388771, 0.19430917501449585, 0.16911859810352325, 0.12959715723991394, 0.031730182468891144, -0.0242342259734869, 0.05335883051156998, -0.03274606913328171, 0.10992295295000076, 0.024107424542307854, 0.1684548407793045, 0.11815222352743149, 0.08153606206178665, -0.6403346657752991, -0.016004711389541626, -0.3470039963722229, 0.12378869205713272, 0.0705689862370491, 0.02135753072798252, 0.22960776090621948, -0.452656090259552, 0.0180128775537014, 0.07374334335327148, 0.03557107597589493, -0.1276153326034546, 0.03490621969103813, 0.08522011339664459, 0.132538303732872, 0.12698209285736084, 0.059148550033569336, 0.38429147005081177, 0.12049325555562973, 0.04670425131917, 0.08686939626932144, 0.07314787060022354, 0.14632616937160492, -0.3059091866016388, 0.06759646534919739, 0.17225845158100128, 0.10236585885286331, -0.1948276311159134, 0.03715606778860092, 0.0636509358882904, 0.15980291366577148, 0.04973215609788895, -0.5269516110420227, 0.07448244839906693, -0.43556636571884155, 0.15948180854320526, 0.07455014437437057, 0.00662436755374074, 0.05828580632805824, 0.026614796370267868, -0.13833031058311462, 0.057835374027490616, -0.05232774838805199, 0.13917602598667145, -0.03140174597501755, 0.17589512467384338, 0.13589216768741608, -0.04935497045516968, 0.07177121192216873, 0.08139228075742722, 0.15871019661426544, -0.11032622307538986, 0.032847810536623, -0.18030060827732086, 0.07135340571403503, 0.15392647683620453, -0.01950034499168396, 0.10501479357481003, -0.09903322160243988, 0.07342985272407532, -0.15899159014225006, 0.08541680872440338, -0.05357911437749863, -0.29317665100097656, 0.25054895877838135, 0.013919557444751263, 0.1504220813512802, -0.26862454414367676, 0.09917166829109192, -0.006612455006688833, 0.09091935306787491, 0.24558959901332855, -0.3775393068790436, 0.08944795280694962, -0.39239251613616943, 0.15705588459968567, 0.03890489041805267, 0.140595480799675, -0.06760895997285843, 0.003734312718734145, 0.037722911685705185, 0.13054639101028442, 0.05893399938941002, -0.0014881874667480588, 0.1226472333073616, 0.07015623152256012, 0.1494145393371582, 0.1345318853855133, -0.14139814674854279, 0.16699782013893127, -0.3749087452888489, 0.16173692047595978, -0.008201371878385544, 0.1133599728345871, 0.05086596682667732, -0.6290552616119385, 0.18649980425834656, -0.038336820900440216, 0.15290798246860504, -0.3770838975906372, 0.09867610037326813, -0.0020822349470108747, 0.12712109088897705, 0.06537633389234543, -0.047735366970300674, 0.034884512424468994, -0.0489300861954689, 0.14098697900772095, -0.34616437554359436, 0.11935411393642426, 0.07755160331726074, 0.11103295534849167, 0.1328658163547516, 0.07737602293491364, 0.07498900592327118, 0.11447279155254364, 0.1730094701051712, 0.14379490911960602, 0.09173658490180969, 0.15058596432209015, 0.09961831569671631, 0.0580684132874012, 0.10610218346118927, 0.12912431359291077, 0.24651284515857697, 0.11367855966091156, 0.11669311672449112, 0.07477038353681564, 0.1566733866930008, -0.010443877428770065, 0.1641293317079544, 0.14453497529029846, 0.20348146557807922, 0.10572122037410736, 0.1075105369091034, 0.04613148421049118, 0.0718904584646225, -0.046838052570819855, 0.04104835167527199, 0.11550010740756989, 0.13512884080410004, 0.14838382601737976, 0.042722541838884354, 0.041034258902072906, -0.09697451442480087, 0.27846354246139526, -0.019669266417622566, -0.0033459539990872145, 0.07227811962366104, 0.12461172789335251, 0.10590574890375137, 0.13609258830547333, 0.12027871608734131, 0.07318244874477386, 0.12120930850505829, 0.07914749532938004, 0.15090714395046234, 0.14049403369426727, 0.1432681530714035, 0.12781532108783722, 0.12446839362382889, 0.12560753524303436, 0.09749232232570648, 0.12083382159471512, 0.13235467672348022, 0.18250523507595062, 0.17839178442955017, 0.06737813353538513, 0.05958934128284454, 0.066121906042099, 0.06775718182325363, 0.06418713182210922, 0.18172140419483185, 0.124019555747509, 0.12297865748405457, -0.10970129817724228, 0.10188976675271988, 0.10182561725378036, 0.07834884524345398, 0.05082797259092331, 0.09385699033737183, 0.018782785162329674, 0.20054376125335693, 0.07262305915355682, 0.05303162336349487, 0.0956767126917839, 0.06745932251214981, 0.02022973820567131, 0.015264916233718395, -0.0025186920538544655, -0.0033052426297217607, -0.005662166979163885, 0.057875052094459534, 0.025931233540177345, 0.07626988738775253, -0.04206453636288643, 0.09176163375377655, 0.07460387796163559, 0.03556476905941963, 0.07995385676622391, -0.08317484706640244, 0.06512243300676346, -0.10105276852846146, 0.05932207405567169, 0.09999161213636398, -0.017657369375228882, 0.03563590720295906, 0.00972027238458395, -0.0014474770287051797, 0.07329128682613373, -0.010014060884714127, -0.010245668701827526, 0.029633555561304092, 0.09152765572071075, 0.06617170572280884, 0.05146506056189537, 0.04599300026893616, 0.011704693548381329, -0.0004875425947830081, 0.09317538142204285, 0.04492070525884628, 0.02160356193780899, 0.08774634450674057, 0.05255941301584244, 0.06866835802793503, 0.027065835893154144, 0.05704100430011749, -0.029314298182725906, 0.0793662741780281, 0.008773787878453732, 0.12348498404026031, 0.047129061073064804, 0.03690539672970772, 0.07494323700666428, 0.006953073665499687, 0.01824592426419258, 0.12270990759134293, 0.026170101016759872, 0.11863275617361069, 1.347937822341919, 1.5132899284362793, 1.5410138368606567, 1.5509482622146606, 1.7016236782073975, 1.6822227239608765, 1.58311128616333, 1.5573186874389648, 1.7572695016860962, 1.6877983808517456, 1.6481001377105713, 1.6248074769973755, 1.6942449808120728, 1.6093635559082031, 1.5593065023422241, 1.6447501182556152, 1.5699058771133423, 1.637555718421936, 1.5608474016189575, 1.606721043586731, 1.6363632678985596, 1.6476328372955322, 1.644527792930603, 1.5992095470428467, 1.5999739170074463, 1.2617669105529785, 1.4775443077087402, 1.4609655141830444, 1.5822323560714722, 1.6300348043441772, 1.5755194425582886, 1.571292757987976, 1.581170678138733, 1.3152309656143188, 1.4779807329177856, 1.3888756036758423, 1.62983238697052, 1.654671549797058, 1.6379907131195068, 1.584035873413086, 1.5585452318191528, 1.3576173782348633, 1.3544584512710571, 1.4225966930389404, 1.6509958505630493, 1.6336675882339478, 1.5480704307556152, 1.5754671096801758, 1.587348461151123, 1.5632295608520508, 1.5359083414077759, 1.5924971103668213, 1.6543145179748535, 1.6274300813674927, 1.6275426149368286, 1.5640865564346313, 1.5884089469909668, 1.631507396697998, 1.5881441831588745, 1.7043818235397339, 1.6248759031295776, 1.7224247455596924, 1.573609471321106, 1.5263601541519165], [-0.019609102979302406, -0.005689611658453941, -0.03430512547492981, -0.01167234219610691, -0.0359748899936676, 0.034770358353853226, 2.157249764422886e-05, -0.030503541231155396, 0.03786734119057655, -0.027279287576675415, -0.0740569457411766, -0.14428941905498505, -0.09609203040599823, -0.016687726601958275, 0.1645524650812149, 0.6323752403259277, -0.029600590467453003, -0.017609501257538795, -0.10227565467357635, -0.09140010923147202, -0.19115616381168365, -0.09952297061681747, 0.08972779661417007, 0.6306125521659851, 0.012737790122628212, -0.03856586664915085, -0.029715681448578835, -0.1334805190563202, -0.13607469201087952, -0.10196059942245483, -0.03033454902470112, 0.49119484424591064, -0.00212292093783617, -0.050312336534261703, -0.048887766897678375, -0.077278271317482, -0.09917791932821274, -0.03864589333534241, -0.07990922033786774, 0.11768228560686111, -0.05826181545853615, -0.009137867018580437, 0.01677381433546543, -0.028860697522759438, -0.010828198865056038, 0.0914561003446579, 0.20193986594676971, -0.008453122340142727, 0.10213936120271683, -0.0006542516639456153, 0.12999732792377472, 0.0368976891040802, 0.10648192465305328, -0.0527002289891243, 0.050884705036878586, -0.0032881374936550856, -0.01881108060479164, -0.029034623876214027, 0.006227809935808182, -0.011537346057593822, 0.006253335624933243, 0.02175302989780903, -0.02366374246776104, 0.013832478784024715, 0.18678651750087738, 0.17192547023296356, 0.08922946453094482, 0.106205515563488, 0.035794299095869064, 0.33879354596138, 0.32896265387535095, -0.11232299357652664, 0.15872015058994293, 0.11097744107246399, 0.10631081461906433, 0.14376623928546906, 0.20527313649654388, 0.1515234410762787, 0.09648149460554123, 0.26330506801605225, 0.15903690457344055, 0.13329054415225983, 0.11131875216960907, 0.10571959614753723, 0.04665904864668846, 0.17749446630477905, 0.10134868323802948, 0.18304146826267242, 0.14329780638217926, 0.1800154745578766, 0.1464335024356842, 0.14395233988761902, 0.15991777181625366, 0.05975950509309769, 0.18977731466293335, 0.1993427574634552, 0.1279241293668747, 0.10748615860939026, 0.10282653570175171, 0.17063835263252258, 0.2123718112707138, 0.0895046666264534, 0.09390839189291, 0.18415020406246185, 0.020727260038256645, 0.14578145742416382, 0.2181951254606247, 0.19284744560718536, 0.1661265790462494, 0.20048727095127106, 0.23516254127025604, 0.29921263456344604, 0.11017707735300064, 0.2009424865245819, 0.10444208979606628, 0.46756505966186523, 0.39462584257125854, 0.11318389326334, 0.3588641583919525, 0.19661429524421692, 0.13665248453617096, 0.35877442359924316, 0.6442693471908569, 0.6940484046936035, 0.39791765809059143, 0.30570176243782043, 0.4741305112838745, 0.3267380893230438, 0.11210253089666367, 0.04194323718547821, 0.13948342204093933, 0.07381854951381683, -0.002180109964683652, 0.334225058555603, 0.6244458556175232, 0.6329534649848938, 0.11885116994380951, 0.09603583067655563, 0.13844922184944153, 0.08694399148225784, 0.1474991738796234, 0.151260107755661, 0.18542422354221344, 0.17586149275302887, 0.10387229174375534, 0.15214616060256958, 0.15065696835517883, 0.14790159463882446, 0.11820956319570541, 0.07844032347202301, 0.16643337905406952, 0.16239531338214874, 0.07217179238796234, 0.13196100294589996, 0.1672949343919754, 0.20120258629322052, 0.19430895149707794, 0.10696990042924881, 0.20893053710460663, 0.010351929813623428, 0.06724470853805542, 0.08123011142015457, 0.17667020857334137, 0.23754575848579407, 0.21943782269954681, 0.24741367995738983, 0.12126849591732025, 0.22372306883335114, 0.14696310460567474, 0.030458252876996994, 0.12568660080432892, 0.11424975842237473, 0.36028197407722473, 0.2637571394443512, 0.2590739130973816, 0.1977490931749344, 0.1538642942905426, 0.18659096956253052, 0.15950441360473633, 0.27060002088546753, 0.26931360363960266, 0.24201853573322296, 0.3078068792819977, 0.27489185333251953, 0.13642451167106628, 0.26827478408813477, 0.49385666847229004, 0.6176308393478394, 0.5156459808349609, 0.6413344740867615, 0.5519439578056335, 0.3231436014175415, 0.16068798303604126, 0.1533862054347992, 0.13727155327796936, 0.14825201034545898, 0.1830289661884308, 0.25660234689712524, 0.35366517305374146, 1.976122498512268, 0.12208262830972672, 0.10526089370250702, 0.06228107586503029, 0.03367650881409645, -0.0016278406837955117, -0.0705033540725708, -0.1826663464307785, 0.5639431476593018, 0.1094164252281189, 0.14454063773155212, 0.045064814388751984, 0.13427013158798218, 0.033639222383499146, 0.004141455516219139, 0.033529412001371384, 0.2781391441822052, 0.14405442774295807, 0.2903073728084564, 0.17197909951210022, 0.11623326689004898, 0.28923216462135315, 0.09080199152231216, 0.08104676753282547, 0.05904274433851242, 0.12166750431060791, 0.18957290053367615, 0.047376591712236404, 0.19958412647247314, 0.114228256046772, 0.08939147740602493, 0.051726602017879486, 0.2769928574562073, 0.14136798679828644, 0.26804089546203613, 0.24035926163196564, 0.11650220304727554, 0.127182736992836, 0.1597619354724884, 0.20620205998420715, 0.0628562718629837, 0.10349033027887344, 0.22783415019512177, 0.2592366933822632, 0.10894615203142166, 0.22602665424346924, 0.20012113451957703, 0.33943644165992737, 0.21700358390808105, 0.06727568805217743, 0.28209877014160156, 0.21002063155174255, 0.22518451511859894, 0.17542791366577148, 0.26678961515426636, 0.057565685361623764, 0.27291691303253174, 0.48433423042297363, 0.41317465901374817, 0.400959849357605, 0.432400643825531, 0.4970407485961914, 0.6350191831588745, 0.7307652235031128, 1.689140796661377, 0.417610228061676, 0.3640957772731781, 0.38101956248283386, 0.3451397120952606, 0.45681363344192505, 0.43042388558387756, 0.5768232941627502, 0.6896911859512329, 0.3724094033241272, 0.4273265600204468, 0.3991021513938904, 0.4531877934932709, 0.413795530796051, 0.46926602721214294, 0.48721933364868164, 0.4451817572116852, 0.42474642395973206, 0.46908634901046753, 0.4370565414428711, 0.5233875513076782, 0.4692363440990448, 0.39396682381629944, 0.4480392336845398, 0.45698004961013794, 0.3830004930496216, 0.40771910548210144, 0.3775773346424103, 0.572001039981842, 0.49315449595451355, 0.4945234954357147, 0.3969271779060364, 0.4707688093185425, 0.43568500876426697, 0.41616055369377136, 0.4625505805015564, 0.3430730700492859, 0.4268716275691986, 0.5141651630401611, 0.5126863121986389, 0.44755586981773376, 0.36930355429649353, 0.44071048498153687, 0.4476049542427063, 0.6014174818992615, 0.6083609461784363, 0.5530566573143005, 0.6370978355407715, 0.5877896547317505, 0.7014245986938477, 0.6122801303863525, 0.672380268573761, 0.6064068675041199, 0.5866904258728027, 0.6673000454902649, 0.7630119323730469, 0.7849870920181274, 0.7136934399604797, 0.7617325186729431, 0.913543164730072, 1.1025279760360718, 1.1893336772918701, 1.3295440673828125, 1.6168334484100342, 1.4011746644973755, 0.9858200550079346, 0.9903812408447266, 1.059644341468811, 1.1597355604171753, 1.2193125486373901, 1.1035572290420532, 0.868150532245636, 0.526178777217865, 1.2564888000488281, 1.1665737628936768, 1.2295238971710205, 1.3661314249038696, 1.224387526512146, 1.198727011680603, 1.1082355976104736, 0.9334819316864014, 1.4412668943405151, 1.2216284275054932, 1.2506930828094482, 1.193424940109253, 1.3403897285461426, 1.1818739175796509, 1.2213456630706787, 1.4599696397781372, 1.4215563535690308, 1.2347633838653564, 1.3427802324295044, 1.3719466924667358, 1.3606480360031128, 1.2639682292938232, 1.2419668436050415, 1.3931869268417358, 1.2549502849578857, 1.461419939994812, 1.3038169145584106, 1.22916579246521, 1.2421718835830688, 1.354861855506897, 1.2756274938583374, 1.1612766981124878, 1.321275234222412, 1.235248327255249, 1.275009036064148, 1.1518348455429077, 1.2040245532989502, 0.9737110733985901, 1.2629040479660034, 1.414574146270752, 0.8375943303108215, 1.05356764793396, 0.7764845490455627, 1.219990849494934, 1.2709720134735107, 1.2968965768814087, 0.22576577961444855, 1.3886120319366455, 0.035936903208494186, 0.0010670664487406611, -0.008018921129405499, 0.004997519310563803, -0.010991408489644527, -0.006507495418190956, -0.018668288365006447, 0.013984698802232742, 0.19713515043258667, -0.02953970618546009, 0.07369600236415863, -0.11263840645551682, -0.06294548511505127, -0.047029536217451096, 0.35111677646636963, 0.4197837710380554, 0.03491610661149025, 0.0884166806936264, -0.006201609969139099, 0.13835763931274414, -0.05162836238741875, 0.10957036912441254, 0.1640585958957672, 0.18107984960079193, 0.035863880068063736, -0.014681276865303516, 0.061480600386857986, -0.0054903291165828705, -0.0641496479511261, -0.043344009667634964, 0.07471267879009247, 0.10042567551136017, -0.04039977118372917, 0.013465671800076962, -0.02708771452307701, -0.022305142134428024, -0.037971269339323044, -0.023510770872235298, -0.14960619807243347, 0.03066289611160755, -0.044135984033346176, -0.07037435472011566, -0.02464609034359455, -0.08133763074874878, -0.04997023940086365, -0.04967408627271652, -0.08053947985172272, -0.010016104206442833, -0.06246279925107956, -0.07639852166175842, -0.06866466999053955, -0.18267416954040527, -0.09465587139129639, -0.08340180665254593, -0.08112110197544098, -0.042521242052316666, 0.03276023641228676, -0.018759284168481827, 0.02595849335193634, -0.007895013317465782, -0.029660165309906006, -0.011008920148015022, -0.026211315765976906, 0.025675160810351372, 0.026890771463513374, 0.20542317628860474, 0.052310552448034286, 0.05794990062713623, -0.1376795470714569, -0.06402047723531723, -0.22044627368450165, -0.6969121098518372, -0.06467233598232269, -0.1539304107427597, -0.17149589955806732, -0.2518085837364197, -0.1850191056728363, 1.0280218124389648, -0.43901878595352173, -1.5703258514404297, -0.07910516858100891, -0.026404572650790215, -0.3053196370601654, -0.03439456224441528, -0.19613610208034515, -0.42350879311561584, 0.9271297454833984, -0.008141457103192806, -0.03464430943131447, -0.08155366033315659, -0.14183633029460907, -0.12410224229097366, -0.06701045483350754, -0.1435585469007492, -0.18605774641036987, 0.041848380118608475, -0.12699063122272491, -0.1967107355594635, -0.08753711730241776, -0.10329326242208481, -0.18408596515655518, -0.15252313017845154, -0.26233798265457153, -0.06330432742834091, -0.13781023025512695, -0.16634084284305573, -0.0975494384765625, -0.12438985705375671, -0.11610903590917587, -0.12486987560987473, -0.2181822955608368, -0.25516819953918457, -0.21461527049541473, -0.14704099297523499, -0.16802604496479034, -0.13528530299663544, -0.17411327362060547, -0.15478456020355225, -0.1505042314529419, -0.2980940043926239, -0.23415574431419373, -0.2460663616657257, -0.26690518856048584, -0.15102618932724, -0.13292241096496582, -0.1430145502090454, -0.2307499796152115, -0.21619482338428497, -0.061388470232486725, 0.08908706158399582, -0.008249606937170029, -0.020566588267683983, -0.13449321687221527, 0.3076266944408417, 0.34132570028305054, -0.8529775142669678, -0.08439674228429794, -0.08703049272298813, -0.14501501619815826, -0.10783067345619202, -0.3125230371952057, -0.11775627732276917, 0.6039698719978333, -0.6116223931312561, -0.131228506565094, -0.143597811460495, -0.19071565568447113, -0.10539132356643677, 0.01946842111647129, 0.4841677248477936, -0.10143184661865234, 0.05784272402524948, -0.0727144405245781, -0.15810950100421906, -0.05860241502523422, -0.1159912645816803, 0.032481320202350616, -0.10238982737064362, -0.2644006609916687, 0.005029320251196623, -0.0019243749557062984, -0.11779510229825974, -0.08428984135389328, -0.011400013230741024, -0.11846041679382324, -0.11612093448638916, -0.12154027819633484, -0.1432064324617386, -0.07082952558994293, -0.007637005764991045, -0.07963960617780685, -0.14078766107559204, -0.1439131498336792, -0.1085021048784256, -0.10950953513383865, -0.1363029032945633, 0.0514119528234005, -0.044424936175346375, -0.10233330726623535, -0.12301607429981232, -0.1188574954867363, -0.10216187685728073, -0.0671117752790451, -0.0007190732867456973, -0.08708906918764114, -0.1437583863735199, -0.19713321328163147, -0.10055956989526749, -0.1290733367204666, -0.2011614739894867, -0.08046050369739532, -0.11786920577287674, 0.3526875078678131, 0.4322732985019684, 0.3987869620323181, 0.5635266304016113, 0.4499977231025696, 0.6219101548194885, -0.39235344529151917, -1.2810392379760742, 0.01938503235578537, -0.04814738780260086, -0.02081216685473919, 0.02179441787302494, -0.25463590025901794, -0.2933462858200073, -0.6118826270103455, -0.7440114617347717, -0.15410764515399933, -0.20781338214874268, -0.23093357682228088, -0.20668719708919525, -0.22556822001934052, -0.32755857706069946, -0.44879016280174255, -0.5056172609329224, -0.15563549101352692, -0.11998648196458817, -0.18211877346038818, -0.23079803586006165, -0.19609510898590088, -0.2774414122104645, -0.41089603304862976, -0.472701758146286, -0.2037402093410492, -0.22923432290554047, -0.11020687222480774, -0.11589953303337097, -0.18867972493171692, -0.26908645033836365, -0.23025937378406525, -0.36099210381507874, -0.24091345071792603, -0.176161527633667, -0.0971364825963974, -0.10798407346010208, -0.08880007266998291, -0.1587117612361908, -0.2764064073562622, -0.27178090810775757, -0.2850888669490814, -0.16712403297424316, -0.15104441344738007, -0.1418628692626953, -0.09113772213459015, -0.29472658038139343, -0.3541812300682068, -0.2668956518173218, -0.26233983039855957, -0.20041273534297943, -0.1981269270181656, -0.21190650761127472, -0.11877065896987915, -0.3123234212398529, -0.3035893142223358, -0.3380142152309418, -0.14768965542316437, 0.06293796747922897, -0.004254688508808613, -0.0765225738286972, 0.06539326161146164, 0.31504642963409424, -1.6847121715545654, -1.8797203302383423, -0.09553532302379608, -0.13838355243206024, -0.1279734969139099, -0.07911073416471481, -0.14350691437721252, -0.13129720091819763, 0.0036885093431919813, -1.9800000190734863, -0.15554523468017578, -0.15642808377742767, -0.18301723897457123, -0.2793773412704468, -0.11132220923900604, 0.09425345063209534, -0.09483905136585236, -0.23932187259197235, -0.13327330350875854, -0.2712385952472687, -0.12724870443344116, -0.3051728308200836, 0.01230985950678587, -0.22384265065193176, -0.14463376998901367, -0.25001880526542664, -0.16246002912521362, -0.17516164481639862, -0.18452131748199463, -0.19590246677398682, -0.2255895733833313, -0.1251441240310669, -0.14943726360797882, -0.23906159400939941, -0.16050569713115692, -0.18868029117584229, -0.10352925956249237, -0.18443343043327332, -0.18743635714054108, -0.1987088918685913, -0.13272468745708466, -0.21818527579307556, -0.14493830502033234, -0.14791248738765717, -0.20533986389636993, -0.19825220108032227, -0.12092588096857071, -0.15334123373031616, -0.14388960599899292, -0.22192233800888062, -0.2074812650680542, -0.3003237545490265, -0.29835399985313416, -0.235353022813797, -0.1655505746603012, -0.22772330045700073, -0.20579123497009277, -0.3332935869693756, 0.1643747091293335, 0.8416366577148438, 0.44938790798187256, 1.0967822074890137, 0.90131676197052, 0.2963769733905792, 0.81434565782547, 0.9508603811264038, -0.3792848289012909, 0.45134416222572327, 0.2913725674152374, 0.06852588057518005, -0.1594480723142624, 1.3047181367874146, 1.7975423336029053, 1.3440508842468262, 1.2051559686660767, 0.38134223222732544, 0.22348707914352417, -0.055556248873472214, 0.581979513168335, 1.1960855722427368, 1.5412403345108032, 1.524750828742981, 0.681042492389679, 0.38399454951286316, 0.3363725543022156, 0.494787335395813, 0.5406298041343689, 0.8108459115028381, 1.177059531211853, 1.5411041975021362, 0.8336330652236938, 0.6432546973228455, 0.9372861981391907, 0.9221010804176331, 0.950785219669342, 0.8443385362625122, 0.9935542941093445, 1.2435024976730347, 1.0656605958938599, 1.0222429037094116, 1.0705605745315552, 1.1270170211791992, 1.1030486822128296, 1.0504344701766968, 1.0603727102279663, 1.1462105512619019, 1.1240659952163696, 1.2081226110458374, 1.1042240858078003, 1.0686858892440796, 1.1415082216262817, 1.1274410486221313, 1.1642199754714966, 1.1836146116256714, 1.1043111085891724, 1.1671453714370728, 1.1695224046707153, 1.1562148332595825, 1.1007781028747559, 1.1014928817749023, 1.2119375467300415, 1.2665410041809082], [-0.029298191890120506, -0.02118493989109993, -0.024651359766721725, -0.032849036157131195, -0.019545817747712135, 0.007906920276582241, 0.03377806395292282, -0.029736850410699844, -0.0029121364932507277, -0.024363966658711433, 0.04825533926486969, -0.0031547402031719685, -0.03651995584368706, 0.11238064616918564, 0.19341064989566803, 0.21361558139324188, 0.08098416030406952, 0.07864878326654434, 0.048009440302848816, 0.04984251782298088, -0.027193870395421982, 0.05652012303471565, 0.2816724479198456, 0.19010192155838013, -0.06280558556318283, 0.02015601098537445, 0.1431683748960495, 0.0592825673520565, 0.05710495263338089, 0.014812428504228592, 0.16426154971122742, 0.15459536015987396, -0.030259372666478157, 0.04585519805550575, 0.15431031584739685, 0.09540585428476334, -0.06327047199010849, 0.19320978224277496, 0.04779622703790665, 0.07668399065732956, -0.12589406967163086, 0.020823124796152115, -0.07088097929954529, 0.08149401843547821, -0.09504062682390213, -1.9727498292922974, 0.5355955362319946, -0.7123925089836121, 0.37439703941345215, 0.24139924347400665, 0.32408368587493896, 0.40443411469459534, 0.3118125796318054, 1.97477388381958, 0.5352748036384583, -1.8956080675125122, 0.012416656129062176, -0.01800326630473137, -0.005114217288792133, -0.006130568217486143, 0.017307396978139877, 0.0360698327422142, 0.01427905261516571, 0.0023889292497187853, 0.09248562157154083, 0.27886396646499634, 0.24060289561748505, 0.3252606689929962, 0.30707982182502747, 0.31419214606285095, 0.17181265354156494, 0.22128766775131226, 0.23965056240558624, 0.33453720808029175, 0.29686200618743896, 0.30520865321159363, 0.192664235830307, 0.3630227744579315, 0.33794355392456055, 0.24301385879516602, 0.23090095818042755, 0.22194629907608032, 0.30466389656066895, 0.2880427837371826, 0.2556469142436981, 0.25553953647613525, 0.08968259394168854, 0.23302355408668518, 0.19972200691699982, 0.1847398728132248, 0.29785025119781494, 0.20561328530311584, 0.309623122215271, 0.18955665826797485, 0.767043948173523, 0.07849250733852386, 0.19101835787296295, 0.16382630169391632, 0.22038379311561584, 0.414043664932251, 0.4293278157711029, -0.0574062243103981, 0.05120464041829109, -1.3698740005493164, 0.18785205483436584, 0.21850477159023285, 0.11506495624780655, 0.14322462677955627, 0.23095005750656128, 0.20991960167884827, 0.2019469290971756, -1.9064972400665283, 0.4611336886882782, 0.18830512464046478, 0.18774230778217316, 0.7717627882957458, 0.3257353901863098, 0.7941333055496216, -0.038765985518693924, 0.8238056302070618, 0.1877857744693756, 0.11883320659399033, 0.042008060961961746, 0.3116593062877655, 0.3660794198513031, 0.5049125552177429, 0.3877788782119751, 1.9773612022399902, 0.14469212293624878, 0.12619081139564514, 0.22468072175979614, 0.29914283752441406, 0.29206913709640503, 0.22149144113063812, 0.17053191363811493, 0.1633216142654419, 0.09041319787502289, 0.21548113226890564, 0.2502801716327667, 0.24722537398338318, 0.17892585694789886, 0.2123287320137024, 0.2822663187980652, 0.5161534547805786, 0.12316767126321793, 0.12618209421634674, 0.13312727212905884, 0.19187825918197632, 0.25579124689102173, 0.22248171269893646, 0.5113620758056641, 0.17321409285068512, 0.27673155069351196, 0.03758447989821434, 0.08119797706604004, 0.09925629198551178, 0.21390168368816376, 0.3402213752269745, 0.2048385739326477, 0.3244413435459137, 0.21454709768295288, 0.3070245087146759, 0.15790611505508423, 0.09019018709659576, -0.041899506002664566, 0.2695430517196655, 0.39695513248443604, 0.08835294842720032, 0.24644699692726135, 0.1439168006181717, 0.24730658531188965, 0.20272935926914215, 0.20217764377593994, 0.12469764053821564, 0.2866226136684418, 0.09028542041778564, 0.17637576162815094, 0.32138320803642273, 0.2574847340583801, 0.26976099610328674, 0.35314080119132996, 0.5293319225311279, 0.04369547590613365, -0.31801462173461914, 0.32121750712394714, 0.3914391100406647, 0.3086964190006256, 0.2325742542743683, 0.31978291273117065, 0.3159809708595276, 0.021755093708634377, 0.09210554510354996, 0.10314203053712845, 0.11004051566123962, 0.16006439924240112, 0.0839686244726181, 0.13485562801361084, 0.0997529998421669, -0.01859680935740471, 0.05511743575334549, 0.11819770932197571, 0.0786823034286499, 0.12474818527698517, 0.051633309572935104, 0.13335877656936646, 0.13413922488689423, 0.08085843920707703, -0.0688919648528099, -0.02805514447391033, 0.0685071349143982, 0.08669394999742508, 0.025787902995944023, 0.06984176486730576, 0.10655055195093155, -0.01824513077735901, 0.05166031792759895, 0.10042992979288101, 0.08678947389125824, 0.15647372603416443, 0.15370823442935944, 0.05484211444854736, 0.07783965766429901, -0.10298417508602142, -0.12777285277843475, 0.15939320623874664, 0.06249076873064041, -0.038380738347768784, 0.10417769104242325, 0.0648694634437561, 0.2093033343553543, -0.5264087319374084, 0.1349320262670517, 0.1760815978050232, 0.18642136454582214, 0.2014317512512207, 0.19593945145606995, 0.2017175406217575, 0.1086454913020134, -0.05816115438938141, -0.036771539598703384, -0.012247939594089985, -0.18421252071857452, -0.22730956971645355, -0.1926508992910385, -0.1309221088886261, -0.012489104643464088, -0.3854839503765106, -0.29432493448257446, 0.1170651763677597, 0.18393325805664062, 0.21530935168266296, 0.22227977216243744, 0.1677665263414383, 0.25772178173065186, 0.04369724169373512, -0.33833473920822144, 0.07393711060285568, 0.16989172995090485, 0.028058437630534172, 0.09454808384180069, 0.07546847313642502, 0.20408770442008972, 0.059144165366888046, 0.12923020124435425, 0.16877096891403198, 0.14023898541927338, 0.18490365147590637, 0.1182805597782135, 0.20758236944675446, 0.0778450295329094, 0.07417872548103333, -0.023584842681884766, -0.1419169306755066, 0.14242804050445557, 0.12098517268896103, 0.1325523555278778, 0.14128699898719788, 0.09814994782209396, 0.10249170660972595, 0.17521250247955322, 0.18448710441589355, -0.07409901916980743, 0.08999554067850113, 0.061210885643959045, 0.14576902985572815, -0.0396164245903492, -0.16203004121780396, 0.04260177165269852, 0.02222071774303913, 0.12209206819534302, -0.08405496925115585, -0.10176091641187668, 0.013140765950083733, 0.18089833855628967, -0.8015159368515015, 0.06303075700998306, 0.262268602848053, 0.08450506627559662, 0.11412914097309113, -0.0598590113222599, 0.02018822357058525, -0.024890955537557602, -0.43995535373687744, -0.6509153246879578, 0.22488780319690704, 0.2047952115535736, -0.008203955367207527, 0.2121427357196808, 0.13298815488815308, 0.1501099020242691, 0.05649244785308838, -1.5671709775924683, 0.5655194520950317, 0.48601198196411133, 0.412313848733902, 0.5095841884613037, 0.40041834115982056, 0.5066103935241699, -1.945008397102356, 0.34856414794921875, 1.1145325899124146, 1.1909219026565552, 1.1546156406402588, 1.2032347917556763, 1.1114392280578613, 1.0972305536270142, 1.0183650255203247, 1.1771223545074463, 1.166110634803772, 1.2617731094360352, 1.2443583011627197, 1.124865174293518, 1.0746439695358276, 1.0612605810165405, 1.0059534311294556, 1.126318335533142, 1.0921096801757812, 1.1818833351135254, 1.1979644298553467, 1.1358633041381836, 1.08100426197052, 0.8959824442863464, 1.0190461874008179, 0.9616195559501648, 0.9219363331794739, 0.9774907827377319, 1.145815134048462, 1.1256060600280762, 0.8795223832130432, 0.6873757839202881, 0.8461735844612122, 0.3424186110496521, 0.871799111366272, 0.9257595539093018, 1.0081379413604736, 1.1194233894348145, 0.8656597137451172, 1.1205731630325317, 1.1002930402755737, 1.2632120847702026, 0.9920216202735901, 0.8991932272911072, 0.9553899765014648, 0.9213336110115051, 0.9642106890678406, 0.9709657430648804, 1.0468236207962036, 1.0514119863510132, 1.2075505256652832, 1.1102873086929321, 0.9648411273956299, 0.9048287868499756, 1.1750982999801636, 1.1014904975891113, 1.0402761697769165, 0.9585550427436829, -1.9800000190734863, 1.2067978382110596, 1.081986665725708, 1.132359266281128, 1.4219563007354736, 1.2352219820022583, -1.0530372858047485, 0.9433079361915588, 0.02238098531961441, 0.020940523594617844, -0.004274636507034302, 0.015111162327229977, 0.033324211835861206, 0.014223971404135227, 0.03254106268286705, -0.03467408940196037, 0.2241639643907547, 0.1748090535402298, 0.07470322400331497, 0.1370396763086319, -0.2147410362958908, 0.19383622705936432, -0.2162138670682907, 0.2891424596309662, 0.04010734707117081, 0.07947973161935806, -0.0058397031389176846, 0.02474895305931568, -0.0643119290471077, 0.055712662637233734, -0.020980997011065483, 0.12328363955020905, -0.02415209822356701, -0.010370315983891487, -0.09310110658407211, -0.09494760632514954, -0.0841931626200676, -0.0005167010822333395, 0.1662680208683014, 0.10714174807071686, -0.05684762820601463, -0.11351118236780167, 0.02178499475121498, -0.09944360703229904, -0.09502565860748291, -0.024764206260442734, 0.18866170942783356, 0.027020808309316635, -0.12099920958280563, -0.04989595711231232, -0.1729743927717209, 0.052913546562194824, -0.12643401324748993, -0.07748153060674667, 0.4159792959690094, 0.246229887008667, -0.016261668875813484, -0.07993163913488388, -0.03908303380012512, -0.015977047383785248, 0.0961357057094574, -0.004869468510150909, -0.3960971236228943, 0.16203631460666656, -0.010598854161798954, 0.029137196019291878, -0.02159752883017063, 0.022731192409992218, 0.03198092430830002, -0.017659757286310196, -0.03419774770736694, 0.035424016416072845, 0.07763323187828064, 0.13996624946594238, 0.07000650465488434, 0.06595628708600998, -0.08019784837961197, -0.27046462893486023, -0.19166803359985352, -0.4957211911678314, -0.11695821583271027, -0.0067778523080050945, -0.10979708284139633, -0.058184657245874405, -0.06574992835521698, -0.2991901636123657, -0.259013831615448, -0.09939659386873245, -0.1494482010602951, -0.14473944902420044, -0.05647537112236023, -0.1773325651884079, -0.2414781153202057, -0.12269767373800278, -0.17831188440322876, -0.06545686721801758, -0.16397882997989655, -0.18439333140850067, -0.14085015654563904, -0.10143661499023438, -0.10410317778587341, 0.05109987407922745, -0.1133059710264206, -0.12069529294967651, -0.13879835605621338, -0.15912410616874695, -0.2036558836698532, -0.05431438609957695, -0.12788352370262146, -0.09201426804065704, 0.13707885146141052, -0.2732175886631012, -0.11889048665761948, -0.21341650187969208, -0.1450285166501999, -0.20432285964488983, -0.034445032477378845, -0.11901267617940903, 0.1539130061864853, 0.06185514107346535, -0.20358143746852875, -0.13164816796779633, -0.12983578443527222, -0.16306333243846893, 0.041226908564567566, -0.06405969709157944, -0.4194759428501129, 0.23662130534648895, -0.12357175350189209, -0.1379808485507965, -0.1000218540430069, -0.027710169553756714, -0.15209627151489258, 0.3534003794193268, -0.015705518424510956, 0.25596749782562256, -0.13406561315059662, -0.12219186872243881, 0.17913225293159485, -0.0065443431958556175, 0.021447554230690002, -0.13769693672657013, -0.2404717355966568, -0.16936145722866058, -0.06746146082878113, -0.1447392851114273, -0.10196930170059204, 0.10880665481090546, -0.18696221709251404, 0.062307000160217285, -0.41379794478416443, 0.04547755792737007, -0.06927028298377991, -0.15709662437438965, -0.12847945094108582, -0.31026068329811096, -0.06333758682012558, -0.15764494240283966, -0.05995874106884003, -0.27317744493484497, -0.14952971041202545, -0.18655052781105042, -0.14203767478466034, -0.1615658700466156, -0.16846440732479095, 0.14493592083454132, -0.03427840396761894, -0.008324741385877132, -0.25518253445625305, -0.09544704109430313, -0.11050212383270264, -0.1199256032705307, -0.18163073062896729, -0.14568449556827545, 0.10008137673139572, -0.04367761313915253, -0.2454700917005539, -0.11690490692853928, -0.19287091493606567, -0.2040230929851532, -0.06365547329187393, -0.01495872251689434, 0.2059677243232727, -0.031858962029218674, -0.22338032722473145, -0.2951844334602356, -0.187482550740242, -0.2133471965789795, -0.12378742545843124, 0.017565380781888962, -1.9512690305709839, -0.0025411017704755068, -0.24045419692993164, -0.26018649339675903, -0.12358226627111435, -0.1134963184595108, 0.1085081547498703, 0.17622774839401245, -0.06437481939792633, -0.8590370416641235, 0.20227135717868805, 0.10452818870544434, 0.18223290145397186, 0.09576147794723511, 0.04354289546608925, 0.1406576782464981, 0.06991054862737656, 0.14058412611484528, 0.020776715129613876, 0.07730042934417725, 0.10794462263584137, 0.0725618451833725, -0.03236132487654686, -0.020214589312672615, 0.11794092506170273, 0.2887822389602661, 0.1058257594704628, -0.03513751178979874, 0.08160188049077988, 0.10823071748018265, 0.020844431594014168, 0.1658901870250702, 0.10863295942544937, 0.2147904932498932, 0.207303985953331, 0.21278278529644012, 0.17632298171520233, 0.20291505753993988, 0.21395765244960785, 0.220398411154747, 0.3309062719345093, 0.32174187898635864, 0.16321825981140137, 0.24725309014320374, 0.14529475569725037, 0.19305719435214996, 0.288584440946579, 0.401751846075058, 0.402683824300766, 0.29089608788490295, 0.06630298495292664, 0.13335087895393372, 0.1032538115978241, 0.06102150306105614, 0.12326683849096298, 0.35639190673828125, 0.6675010323524475, 0.4820486903190613, 0.02338845282793045, -0.008874590508639812, -0.02849993295967579, 0.10963248461484909, -0.04015514999628067, -0.0016275878297165036, 0.13570500910282135, 0.17773470282554626, 0.08684276789426804, 0.16890369355678558, 0.12060516327619553, 0.1569051742553711, 0.19598299264907837, 0.35651981830596924, 0.15463733673095703, 0.1538698822259903, 0.25398436188697815, 0.24934756755828857, 0.16255217790603638, 0.13320355117321014, -0.02368205040693283, 0.17706835269927979, 0.32610833644866943, 0.10294967889785767, 0.04710937663912773, 0.0014027333818376064, 0.13581816852092743, 0.17831282317638397, 0.07379420101642609, 0.27158278226852417, 0.243355855345726, 0.3501259982585907, 0.19678199291229248, 0.16222864389419556, 0.07559695839881897, 0.05224386230111122, 0.2965753376483917, 0.058851245790719986, 0.04600825905799866, 0.16941285133361816, 0.021999428048729897, 0.18867774307727814, 0.053549062460660934, 0.04608648642897606, 0.12088421732187271, 0.22583408653736115, 0.19647671282291412, 0.23760037124156952, -0.003196196397766471, 0.042694248259067535, 0.10591955482959747, 0.07092152535915375, 0.27987176179885864, 0.1414005011320114, 0.32517489790916443, 0.10278525203466415, 0.08928776532411575, 0.025732196867465973, 0.023569660261273384, 0.19668249785900116, 0.09308724105358124, 0.19340169429779053, 0.4409613311290741, 0.2386097013950348, 0.025623347610235214, -0.12408106029033661, 0.00046540077892132103, 0.09390454739332199, 0.230684295296669, 0.11675895750522614, -0.5963534712791443, 0.1528436690568924, 0.019483117386698723, 0.11547882854938507, 0.10491131991147995, 0.1329270303249359, 0.2256724089384079, 0.3371179401874542, -0.03719532862305641, -0.06601225584745407, 1.5716890096664429, 1.5521963834762573, 1.3649331331253052, 1.7095874547958374, 1.3340855836868286, 1.6994736194610596, 0.48896899819374084, 0.274383544921875, 1.6204999685287476, 1.440134882926941, 1.5167018175125122, 1.4968708753585815, 1.568299651145935, 1.3973184823989868, 0.42507389187812805, 0.6243709921836853, 1.5698041915893555, 1.4558690786361694, 1.5251466035842896, 1.5747555494308472, 1.610857605934143, 1.6480401754379272, 1.8577516078948975, 0.7700620889663696, 1.6246823072433472, 1.5732920169830322, 1.6761664152145386, 1.6299105882644653, 1.626781702041626, 1.6845859289169312, 1.8586106300354004, 1.8095502853393555, 1.665468692779541, 1.6378291845321655, 1.6094123125076294, 1.6875196695327759, 1.6279288530349731, 1.7523447275161743, 1.8381999731063843, 1.8036726713180542, 1.6549899578094482, 1.5641584396362305, 1.6239672899246216, 1.6446386575698853, 1.406651258468628, 1.253922939300537, 1.8722773790359497, 1.9604911804199219, 1.4260958433151245, 1.23036789894104, 1.2480714321136475, 1.3524054288864136, 1.2645117044448853, 1.207755208015442, -1.9330658912658691, 1.1119691133499146, 1.1481908559799194, 1.2033356428146362, 1.0936205387115479, 1.162177324295044, 1.233637809753418, -1.5298302173614502, 0.696884036064148, 0.787517786026001], [0.021533068269491196, 0.004879522603005171, 0.03026995062828064, -0.029450273141264915, 0.01431383565068245, -0.018693702295422554, -0.011633632704615593, -0.004786853212863207, -0.05171157419681549, -0.039065439254045486, -0.011474791914224625, -0.18890564143657684, -0.032557375729084015, -0.01629081927239895, -0.0551900714635849, -0.040211278945207596, -0.03942842036485672, -0.06810857355594635, -0.044575829058885574, -0.19494345784187317, -0.046986404806375504, -0.11375284940004349, -0.02711375430226326, -0.037443239241838455, -0.039265938103199005, -0.08450748771429062, 0.25404420495033264, -0.2609260082244873, 0.20908232033252716, -0.0872395783662796, -0.01611870713531971, -0.049125511199235916, -0.026402799412608147, -0.01274165976792574, 0.10563141107559204, 1.46405029296875, 0.04145186394453049, -0.10605370253324509, -0.03181178495287895, -0.0309903584420681, 0.0409354642033577, 0.036795563995838165, 0.17495062947273254, 0.09690781682729721, 0.04469864070415497, 0.04516292363405228, 0.11554373055696487, 0.011180530302226543, 0.4460468292236328, -0.047779496759176254, 0.39132118225097656, -0.14975498616695404, 0.3075915277004242, -0.06162054091691971, 0.14159032702445984, -0.09048862755298615, 0.03606086224317551, 0.0356716625392437, 0.006717507727444172, 0.00046836191904731095, 0.027397939935326576, -0.0017928057350218296, -0.02281799353659153, 0.0029196729883551598, -0.3841654062271118, -0.04851353541016579, -0.30469822883605957, -0.004374399781227112, -0.25048890709877014, -0.20032456517219543, -0.2485456019639969, -0.2998576760292053, -0.07493061572313309, -0.3147224485874176, -0.16882196068763733, -0.3478792905807495, -0.16418088972568512, -0.30536365509033203, -0.17580389976501465, -0.2839764654636383, -0.21934953331947327, -0.29314494132995605, 0.29009220004081726, -0.28546589612960815, 0.2542692720890045, -0.2712015211582184, -0.18190288543701172, -0.262477308511734, -0.015353372320532799, 0.5220975875854492, -0.08044539391994476, -0.26594454050064087, -0.1637314260005951, 0.23609469830989838, -0.13558299839496613, -0.2529906630516052, -0.27429431676864624, 0.011626919731497765, -0.11512606590986252, 1.3214476108551025, -0.16903714835643768, -0.19376054406166077, -0.1738486886024475, -0.051353540271520615, -0.08300026506185532, 0.5520815253257751, -0.12530294060707092, -0.15878717601299286, -0.2891868054866791, 0.286068320274353, -0.05034351348876953, -0.08466555178165436, -0.07992132753133774, -0.2445407509803772, 0.7068999409675598, -0.035711999982595444, 0.5749568343162537, -0.2194748967885971, -0.24531158804893494, -0.2674511671066284, -0.0463847890496254, -0.2998371422290802, -0.009862644597887993, -0.19655971229076385, -0.04635137692093849, -0.26001742482185364, -0.12696579098701477, -0.23730674386024475, -0.26996859908103943, -0.07147198170423508, -0.35580921173095703, -0.08456774801015854, -0.32164478302001953, -0.10734505951404572, -0.23438908159732819, 0.2703647017478943, 0.24526284635066986, -0.28307029604911804, -0.14392657577991486, -0.3506830632686615, -0.09829670190811157, -0.2699621915817261, 0.17558060586452484, -0.2859894633293152, -0.36626115441322327, 0.3026614487171173, -0.2989880442619324, -0.19059890508651733, -0.29343482851982117, 0.2155967503786087, -0.2631811797618866, -0.043637849390506744, 0.015169944614171982, -0.32088327407836914, 0.3089800179004669, -0.29911646246910095, 0.2040363997220993, -0.321457177400589, -0.06590380519628525, -0.2588978707790375, -0.34012073278427124, -0.08803035318851471, -0.1944761872291565, 1.5383350849151611, -0.2879791259765625, -0.1670898050069809, -0.17656688392162323, -0.13179080188274384, -0.07531403005123138, -0.20691677927970886, 0.24232758581638336, -0.26293134689331055, 0.17941223084926605, -0.2899101674556732, -0.13644607365131378, -0.34148091077804565, -0.31528934836387634, 0.2691262662410736, -0.36390841007232666, -0.04481632634997368, -0.24293556809425354, 0.20605291426181793, -0.41341131925582886, -0.1937757283449173, 0.5905641913414001, -0.3966619074344635, -0.08076091855764389, -0.3484863340854645, -0.049329400062561035, -0.23840034008026123, 0.2205599695444107, -0.28025954961776733, -0.33568626642227173, -0.29857349395751953, -0.3140081465244293, -0.14863833785057068, -0.3005857765674591, -0.3017139732837677, -0.3021183907985687, -0.306951642036438, -0.3443826735019684, -0.3110659122467041, -0.33370423316955566, -0.1292862743139267, -0.2882913053035736, -0.24338357150554657, -0.3588181436061859, -0.25803616642951965, -0.3061370551586151, -0.35212966799736023, -0.4111137092113495, -0.1271679699420929, -0.3049376308917999, -0.32540956139564514, -0.32816579937934875, -0.3379257917404175, -0.4426270127296448, -0.3770383298397064, -0.4138522148132324, -0.15190155804157257, -0.42598390579223633, -0.3084913492202759, -0.4041493535041809, -0.37238016724586487, -0.23238316178321838, -0.23780980706214905, 0.028599705547094345, 0.032497588545084, 0.01716809906065464, -0.17703624069690704, -0.1644100844860077, -0.24985355138778687, -0.29625099897384644, -0.1976977288722992, -0.2828868329524994, -0.10832487791776657, -0.3332543969154358, -0.22754473984241486, -0.3009142279624939, -0.22364690899848938, -0.248602494597435, -0.3020699620246887, -0.23374713957309723, -0.10118144005537033, -0.23231031000614166, -0.2801415026187897, -0.26359206438064575, -0.2803342640399933, -0.2953430414199829, -0.17563612759113312, -0.2563176155090332, 0.021535415202379227, -0.239334836602211, -0.18514983355998993, -0.22409260272979736, -0.22457893192768097, -0.45390549302101135, -0.41765642166137695, -0.5178597569465637, -0.35729217529296875, -0.4272898733615875, -0.4700588583946228, -0.4610713720321655, -0.30077502131462097, -0.2519797384738922, -0.4345341920852661, -0.39585331082344055, -0.39668580889701843, -0.39533862471580505, -0.3905275762081146, -0.3046956956386566, -0.584076464176178, -0.4044753611087799, -0.2566892206668854, -0.5034549236297607, -0.3161199390888214, -0.4371223449707031, -0.29531145095825195, -0.43717455863952637, -0.41415831446647644, -0.4669089615345001, -0.45968857407569885, -0.14608316123485565, -0.41908958554267883, -0.17666713893413544, -0.4112565517425537, -0.36685049533843994, -0.5047823786735535, -0.38730812072753906, -0.302376925945282, -0.1905038207769394, 0.5442630052566528, -0.23549926280975342, -0.2949770987033844, -0.37116697430610657, -0.32788702845573425, -0.38419631123542786, -0.4091680347919464, -0.19022898375988007, -0.22650542855262756, -0.27782487869262695, -0.3784979581832886, -0.3377724289894104, -0.34992778301239014, -0.3208991587162018, -0.2568669319152832, -0.45903655886650085, -0.3763594925403595, -0.3697861135005951, -0.3237467110157013, -0.2988232672214508, -0.24130472540855408, -0.34771084785461426, -0.4029834270477295, -0.3020930588245392, -0.3124528229236603, -0.3260917663574219, -0.33086419105529785, -0.2618192136287689, -0.47927549481391907, 1.192811131477356, 1.1480482816696167, 1.1271355152130127, 1.1343663930892944, 1.1333599090576172, 1.1016007661819458, 1.1437381505966187, 1.1411868333816528, 1.1963647603988647, 1.157694697380066, 1.1098461151123047, 1.0515804290771484, 1.0756230354309082, 1.13688063621521, 1.1081644296646118, 1.1714346408843994, 1.0724878311157227, 1.1025183200836182, 1.0934581756591797, 1.1187516450881958, 1.0748094320297241, 1.057340145111084, 1.09319269657135, 1.049775242805481, 1.1070077419281006, 1.113675594329834, 1.2631479501724243, -1.5384607315063477, 1.2254493236541748, 1.0627700090408325, 1.0869258642196655, 0.9581027626991272, 0.8849740028381348, 1.0067722797393799, 1.0748695135116577, 0.4211135804653168, 1.0747096538543701, 1.0244526863098145, 0.8441101908683777, 0.9171397089958191, 0.986440896987915, 0.8229162096977234, 0.9290890097618103, 1.0584025382995605, 1.0633527040481567, 0.9812421202659607, 1.059743881225586, 1.121116042137146, 0.8251485228538513, 1.0171481370925903, 0.9784337878227234, 0.9267177581787109, 1.1297060251235962, 0.9268832206726074, 1.0113073587417603, 0.7712074518203735, 0.43614816665649414, 0.6550872325897217, 0.8361424207687378, 0.9978470206260681, 0.9808036684989929, 1.0747736692428589, 1.0069546699523926, 1.0360053777694702, -0.012709843926131725, -0.020869087427854538, -0.03027774579823017, -0.01975821703672409, 0.0046459888108074665, 0.014978505671024323, -0.008220571093261242, -0.0034897031728178263, 0.15846610069274902, 0.06670962274074554, -0.12408873438835144, -0.2488749772310257, -0.03838621452450752, -0.10390103608369827, 0.19883349537849426, 0.06254340708255768, 0.06916385889053345, 0.06560376286506653, 0.016524584963917732, -0.10264921933412552, 0.016040731221437454, -0.0039755189791321754, 0.14065991342067719, -0.06532113999128342, 0.023794440552592278, 0.046581510454416275, 0.1439107209444046, -0.17598918080329895, 0.05835789442062378, 0.039423517882823944, 0.0788261815905571, 0.0348062664270401, 0.059069082140922546, 0.1075017973780632, 0.10025036334991455, 0.6291100382804871, 0.04100410267710686, 0.09189315140247345, 0.05410473793745041, 0.0678127259016037, 0.08404484391212463, 0.11629800498485565, -1.615539312362671, 0.45346125960350037, -1.1677563190460205, 0.07142768800258636, 0.035782694816589355, 0.021484512835741043, 0.05061572417616844, 0.0765841081738472, -0.1475571244955063, 0.5682408213615417, -0.24634960293769836, 0.0403144396841526, 0.039917510002851486, 0.07170803099870682, 0.008077955804765224, 0.01198555063456297, 0.007853257469832897, -0.008571912534534931, -0.02828299254179001, 0.02755669876933098, -0.016492357477545738, -0.0019980778452008963, 0.18960313498973846, 0.2973204255104065, 0.1818174570798874, 0.21488390862941742, 0.18008370697498322, 0.1967393010854721, 0.18311965465545654, 0.1927851438522339, 0.18099232017993927, 0.3558900058269501, 0.23369039595127106, 0.21526312828063965, 0.1771298050880432, 0.23954996466636658, 0.20148468017578125, 0.18903788924217224, 0.34524810314178467, 0.2871159315109253, -0.11541689187288284, 0.1629793643951416, -0.1017797514796257, 0.2951573133468628, 0.29048842191696167, -1.9621434211730957, 0.20838455855846405, -0.08159960806369781, 0.28241243958473206, 0.18598324060440063, 0.1048409566283226, -0.05887056142091751, 0.10221514850854874, 0.18337087333202362, 0.21701185405254364, 0.1710280478000641, 0.23330087959766388, 0.6730654239654541, 0.24235038459300995, 0.2126229852437973, 0.23824869096279144, 0.17307984828948975, 0.052880365401506424, -0.09272990375757217, 0.207789346575737, 0.45332545042037964, 0.17012694478034973, -0.0896575078368187, 0.13674071431159973, 0.21378828585147858, 0.2772113084793091, 0.310020387172699, -0.19001826643943787, 0.1916489601135254, -0.16676661372184753, 0.25769302248954773, 0.18377473950386047, 0.1822398453950882, 0.0725012719631195, 0.1853771209716797, 0.18551312386989594, 0.16283763945102692, 0.1207408681511879, 0.1991286724805832, 0.05209601670503616, 0.40215983986854553, 0.20053932070732117, 0.17581525444984436, 0.27571794390678406, 0.1845899224281311, 0.29708561301231384, 0.18756729364395142, 0.2668723165988922, -0.2619841396808624, 0.05195067450404167, 0.28556790947914124, 0.16813544929027557, 0.30707672238349915, 0.2123556286096573, 0.2903493046760559, -0.20571625232696533, 0.2801678478717804, 0.33409541845321655, -0.03966734930872917, 0.39331769943237305, 0.0994967594742775, 0.33185312151908875, -0.06083051860332489, 0.31022223830223083, 0.11081099510192871, 0.035164885222911835, 0.2284027338027954, -0.26287680864334106, 0.17121995985507965, -0.27545055747032166, 0.31976646184921265, 0.10775605589151382, 0.2752511203289032, 0.22299838066101074, 0.1418127566576004, 0.19241748750209808, 0.5463301539421082, 0.23249568045139313, 0.10390768945217133, 0.32569119334220886, 0.09313175827264786, 0.025246020406484604, 0.3300820589065552, -0.15857253968715668, 0.3844139575958252, -0.1725468784570694, 0.31994399428367615, 0.12849614024162292, 0.31706440448760986, 0.2281838357448578, -0.23610466718673706, 0.38656869530677795, 0.1430995613336563, 0.38638806343078613, -0.2311173677444458, 0.23846781253814697, 0.26410067081451416, -0.33484742045402527, 0.3411169648170471, 0.06706340610980988, 0.31322601437568665, 0.04093893617391586, 0.37096238136291504, -0.18812063336372375, 0.25248852372169495, 0.3762439489364624, -1.9273329973220825, 0.26853230595588684, 0.34154486656188965, 0.30385127663612366, 0.3229265809059143, 0.4345753788948059, 0.33549872040748596, 0.3736274838447571, 0.379492849111557, 0.30364561080932617, 0.24898327887058258, 0.3291681110858917, 0.3578732907772064, 0.3670096695423126, 0.36260753870010376, 0.3623504042625427, 0.3278215527534485, 0.3109219968318939, 0.15829573571681976, 0.3483947217464447, 0.3708445727825165, 0.340772807598114, 0.3516928255558014, 0.3728724718093872, 0.39216935634613037, 0.2619430720806122, 0.13731098175048828, 0.2598636746406555, 0.37585610151290894, 0.36682969331741333, 0.3627149760723114, 0.2669646143913269, 0.2704259753227234, 0.11871644854545593, 0.686064600944519, 0.09601239860057831, 0.2654584050178528, 0.3077809810638428, 0.3058145046234131, 0.28871282935142517, 0.290836900472641, 0.31783634424209595, 0.1446995884180069, 0.28115496039390564, 0.32233092188835144, 0.2842450439929962, 0.32245150208473206, 0.31490641832351685, 0.33570098876953125, 0.26207709312438965, 0.20442400872707367, 0.3099949359893799, 0.3086529076099396, 0.3395722210407257, 0.3246045708656311, 0.39102402329444885, 0.33689162135124207, 0.2796112596988678, 0.2061409056186676, 0.2807079553604126, 0.2855547070503235, 0.38662922382354736, 0.39096465706825256, 0.5563145875930786, 0.4622752070426941, 0.520551323890686, 0.5127356052398682, 0.4699549674987793, 0.5028205513954163, 0.46894019842147827, 0.5270023345947266, 0.5370095372200012, 0.5931802988052368, 0.4543180465698242, 0.5168856978416443, 0.5531522631645203, 0.5191867351531982, 0.5857579708099365, 0.5252841711044312, 0.5268575549125671, 0.48883336782455444, 0.5073217749595642, 0.5769035816192627, 0.49228397011756897, 0.4880721867084503, 0.4715603291988373, 0.41580066084861755, 0.46371492743492126, 0.539577305316925, 0.35041093826293945, 0.4132406711578369, 0.394955039024353, 0.5042296648025513, 0.45851820707321167, 0.4233510494232178, 0.4817107319831848, 0.519554615020752, 0.42422181367874146, 0.7211676836013794, 0.3361722230911255, 0.40045881271362305, 0.5547077655792236, 0.48995620012283325, 0.43007487058639526, 0.4926268458366394, 0.4980069398880005, 0.3935246467590332, 0.4167574942111969, 0.47183117270469666, 0.4238356053829193, 0.46904876828193665, 0.5454779863357544, 0.4211505055427551, 0.49811074137687683, 0.35471874475479126, 0.44319021701812744, 0.37546011805534363, 0.48163437843322754, 0.5473504662513733, 0.5511401295661926, 0.5591453909873962, 0.40731143951416016, 0.3917982578277588, 0.4127431809902191, 0.4843446612358093, 0.4957923889160156, 0.566365659236908, 0.21953009068965912, -0.51427161693573, 0.8133842945098877, 0.6366510987281799, -1.1752164363861084, 1.082870364189148, 1.3215471506118774, 1.328848958015442, 1.2887717485427856, 1.1810461282730103, 1.1839953660964966, -1.6487696170806885, 1.2120174169540405, 1.1604180335998535, 1.1732925176620483, 1.2956572771072388, 1.0318734645843506, 1.2168526649475098, 1.2031853199005127, 1.1789467334747314, 1.2029473781585693, 1.2287479639053345, 1.1451588869094849, 1.1718095541000366, 1.192755103111267, 1.2319185733795166, 0.9763759970664978, 1.048515796661377, 1.029150128364563, 1.1609904766082764, 1.2299730777740479, 1.1759543418884277, 1.2362061738967896, 1.1971453428268433, -0.8319007754325867, 1.2552785873413086, 1.0074657201766968, 1.1605639457702637, 1.2139580249786377, 1.2530213594436646, 1.2602620124816895, 1.2840254306793213, 1.1044448614120483, 1.0514663457870483, 1.0503615140914917, 1.2377991676330566, 1.2515865564346313, 1.0943788290023804, 1.2328579425811768, 1.3200500011444092, 1.262073278427124, 1.1491706371307373, 1.244107961654663, 1.2144434452056885, 1.1889652013778687, 1.2347712516784668, 1.4047894477844238, 1.1837637424468994, 1.2098910808563232, 1.2454748153686523, 1.1820416450500488, 1.167565107345581, 1.2684391736984253, 1.0768928527832031], [-0.0202378761023283, -0.0018857846735045314, -0.0043310862965881824, -0.03159312158823013, -0.0076483855955302715, 0.03564705327153206, -0.009310956113040447, 0.02828037366271019, 0.02076704055070877, 0.012285103090107441, 0.029922014102339745, -0.02651119790971279, 0.05679400637745857, -0.13603751361370087, 0.08096364140510559, -0.11010727286338806, 0.02218533493578434, 0.04381583631038666, -0.005483676679432392, 0.032826218754053116, -0.031116880476474762, -1.9756141901016235, -0.03374374285340309, 0.06960084289312363, -0.0014673486584797502, -0.05750921741127968, 0.025635844096541405, 0.004764576908200979, 0.03413473069667816, 0.12649871408939362, -0.016099778935313225, -0.02236196957528591, -0.026496535167098045, 0.014233010821044445, -0.015948385000228882, 0.0836968943476677, 0.10610640794038773, 0.14202705025672913, 0.026025522500276566, 0.027745241299271584, -0.022669188678264618, -0.14263826608657837, -0.11775766313076019, 0.013449065387248993, 0.014985189773142338, 0.3598235845565796, -0.00171201815828681, -0.13432569801807404, -0.056674595922231674, -0.07932735979557037, -0.20749150216579437, 0.018737688660621643, -0.021578075364232063, 0.1949751377105713, 0.2297215610742569, 0.10901450365781784, 0.00404640706256032, 0.009665347635746002, 0.007540032733231783, -0.035293929278850555, 0.030264420434832573, -0.00018097668362315744, 0.013311861082911491, -0.027454596012830734, -0.301531046628952, -0.04733170568943024, -0.08138538151979446, -0.05768585577607155, 0.07301711291074753, 0.053871750831604004, 0.06206147000193596, -0.05134347453713417, -0.023302126675844193, -0.026783769950270653, -0.05101509764790535, 0.11355316638946533, -0.01016693189740181, 0.023605430498719215, 0.18311481177806854, 0.22387157380580902, -0.07860133051872253, -0.015268873423337936, -0.0707826167345047, -0.010082870721817017, 0.04990925267338753, 0.2839527428150177, -0.10202053934335709, 0.21124833822250366, -0.17499996721744537, -0.036510344594717026, 0.07579698413610458, 0.10265713930130005, 0.07299596816301346, 0.09032035619020462, 0.1187133640050888, 0.08467177301645279, 0.0679556354880333, 0.017570126801729202, 0.05734701082110405, 0.01381711196154356, 0.15659260749816895, 0.04906010255217552, 0.23092620074748993, 0.13277316093444824, -0.15456219017505646, 0.05430004000663757, 0.09475352615118027, 0.13819453120231628, 0.0058859712444245815, 0.014127598144114017, 0.12483114004135132, 0.0714254304766655, -0.11801627278327942, 0.017533980309963226, -0.051571689546108246, 0.028158633038401604, 0.06247578561306, 0.17080768942832947, 0.005399459507316351, 0.18167366087436676, 0.18813568353652954, 0.04480820521712303, -0.18653160333633423, 0.1652890294790268, -0.061823997646570206, -0.07117608189582825, 0.04003565385937691, 0.22742420434951782, -0.10090350359678268, 0.1701737940311432, -0.10263098776340485, 0.31530657410621643, -0.03737010806798935, 0.19903934001922607, -0.1744002103805542, 0.4513700306415558, 0.03603079169988632, -0.045686379075050354, 0.1748449206352234, 0.039786770939826965, 0.22801128029823303, 0.0844876766204834, 0.3278588354587555, -0.08061724901199341, -0.1858620047569275, 0.1231885477900505, 0.03371952474117279, 0.2429824024438858, -0.15225538611412048, 0.487251341342926, -0.2335556000471115, 0.3177489638328552, 0.14977501332759857, -0.06381181627511978, 0.2386031448841095, -0.08465706557035446, 0.21367575228214264, -0.13617847859859467, 0.28373944759368896, -0.10926129668951035, -0.1164737269282341, 0.1729690283536911, 0.01622425764799118, 0.19195033609867096, 0.009496093727648258, -0.023463908582925797, 0.020518746227025986, 0.42423659563064575, 0.1739395260810852, 0.01997368596494198, 0.22471795976161957, -0.004655109252780676, 0.1873987764120102, 0.013980021700263023, 0.06485436111688614, -0.19019658863544464, -0.12699022889137268, 0.22644095122814178, -0.14463138580322266, 0.2462785840034485, -0.08519779145717621, 0.2571916878223419, 0.0289365965873003, 0.3005741834640503, 0.004993182606995106, -0.030413342639803886, 0.2611110508441925, -0.12736019492149353, 0.2753070294857025, -0.03251292183995247, 0.3820759057998657, -0.03084602765738964, -0.06364016234874725, 0.0023134746588766575, -0.07052864134311676, 0.045227065682411194, 0.0048265280202031136, -0.00022960369824431837, 0.1081119030714035, 0.06467996537685394, -0.05047747492790222, -0.10234688967466354, -0.10473134368658066, 0.07215987145900726, -0.06237179413437843, 0.23172980546951294, 0.05592271313071251, 0.04152610898017883, 0.0770689845085144, 0.0008352937875315547, 0.036803871393203735, 0.17601467669010162, 0.11857570707798004, 0.46276572346687317, 0.3559190630912781, 0.2509285509586334, -0.07976187020540237, -0.08751481771469116, -0.07123607397079468, -0.05903685465455055, -0.025557484477758408, -0.016300853341817856, -0.023287439718842506, 0.012049472890794277, -0.10080768913030624, -0.05700985714793205, 0.042734745889902115, -0.004513774532824755, -0.03264685720205307, -0.05927356705069542, 0.04650384932756424, 0.09127955138683319, -0.08691120892763138, 0.035860881209373474, -0.09489484876394272, 0.005778510123491287, -0.08025151491165161, 0.07154875248670578, -0.025283847004175186, 0.1676061749458313, -0.027402563020586967, 0.01965421438217163, -0.0706884041428566, 0.07472816854715347, 0.03190832957625389, 0.05979613587260246, 0.012599289417266846, 0.1434752196073532, -0.08249114453792572, 0.10259900242090225, 0.06081370264291763, 0.11642669886350632, 0.059969209134578705, 0.08053134381771088, -0.06484697759151459, 0.12064037472009659, 0.3656039237976074, 0.46076634526252747, 0.3851993978023529, 0.5425342917442322, 0.4173034727573395, 0.353297621011734, 0.39985573291778564, 0.7478519678115845, 0.3580552637577057, 0.3069479465484619, 0.4209567904472351, 0.4401811361312866, 0.5073524713516235, 0.5383334159851074, 0.581257164478302, 0.4711567163467407, 0.3813789486885071, 0.3739403188228607, 0.46534398198127747, 0.5300021767616272, 0.41820982098579407, 0.8147960305213928, 0.5396513938903809, 0.6939419507980347, 0.3360596001148224, 0.2957696318626404, 0.3238983750343323, 0.3397543728351593, 0.5073518753051758, 0.364657461643219, 0.5534506440162659, 0.4678904116153717, 0.25571176409721375, 0.3739900290966034, 0.3026474416255951, 0.47638797760009766, 0.4656786024570465, 0.416586309671402, 0.4469558894634247, 0.6420365571975708, 0.33194684982299805, 0.39185264706611633, 0.49356940388679504, 0.45899924635887146, 0.46901097893714905, 0.4734574556350708, 0.44258004426956177, 0.4748441278934479, 0.33587875962257385, 0.3883262276649475, 0.4193556308746338, 0.37792742252349854, 0.40968137979507446, 0.7331368923187256, 0.46433278918266296, 0.4996049106121063, 0.3962486684322357, 0.3363704979419708, 0.4496707022190094, 0.36441442370414734, 0.3386516571044922, 0.41636431217193604, 0.6383979320526123, 0.5538917183876038, 0.672221839427948, 0.8187223076820374, 0.8881629705429077, 1.0320466756820679, 0.9994460344314575, 1.0587828159332275, 1.0543253421783447, 1.1139930486679077, 0.8352596163749695, 0.786565899848938, 0.784148097038269, 0.9937566518783569, 1.0078827142715454, 1.1100869178771973, 1.1789805889129639, 1.079237699508667, 0.688189685344696, 0.7565816044807434, 0.6597743630409241, 0.803198516368866, 0.9613505005836487, 1.1330511569976807, 1.092297911643982, 1.066188931465149, 0.7740842700004578, 0.6937278509140015, 0.7063207030296326, 0.7778564691543579, 0.9599807858467102, 0.9881187081336975, 1.1449042558670044, 1.030225157737732, 0.6852064728736877, 0.6878594160079956, 0.8020995259284973, 0.7280317544937134, 0.9027866125106812, 0.773207426071167, 0.879062831401825, 1.0241104364395142, 0.7999268174171448, 0.7107055187225342, 0.6082619428634644, 0.636921763420105, 0.6753771901130676, 0.8085930347442627, 0.5401598215103149, 0.6382893919944763, 0.6467318534851074, 0.834812581539154, 0.5944729447364807, 0.6334410905838013, 0.76329106092453, 0.7796437740325928, -0.06982002407312393, 0.6298069357872009, 0.874220073223114, 0.3401201665401459, 0.5260965824127197, 0.21910671889781952, 0.9685304164886475, 0.8882533311843872, 0.5722525119781494, 0.2458764910697937, 0.03182122856378555, 0.035580798983573914, 0.0003141411580145359, 0.017950614914298058, 0.02265038713812828, -0.01549052819609642, 0.03430536016821861, -0.007940218783915043, -1.9616787433624268, -0.017279691994190216, -0.9028975367546082, 0.31523916125297546, -1.9663403034210205, 0.5070891976356506, -0.33700326085090637, 0.39067354798316956, -0.1020529493689537, 0.05650433525443077, -0.2680811583995819, 0.24274501204490662, 0.1157723143696785, 0.5614754557609558, -0.017129547894001007, 0.4549119472503662, -0.056999754160642624, -0.014160106889903545, 0.07096309214830399, 0.1987999975681305, -1.9148131608963013, 0.37507033348083496, -1.961837649345398, 0.2586607336997986, -0.005692655220627785, 0.04112698510289192, -0.025419337674975395, 0.01260081585496664, -0.23867124319076538, 0.1538955122232437, -0.2052021622657776, 0.2027742713689804, -0.004433077294379473, 0.038094956427812576, 0.03926394507288933, -0.08753585815429688, -0.06482240557670593, -0.028985528275370598, -0.14000304043293, 0.10218411684036255, -0.006355889607220888, 0.03414773568511009, -0.0013714326778426766, 0.03906070068478584, -0.1375044286251068, -0.059341996908187866, -0.05941026657819748, 0.10009479522705078, 0.012859415262937546, 0.030701186507940292, 0.006263474468141794, -0.0334036760032177, -0.02960643544793129, -0.01850903406739235, -0.013175126165151596, -0.03358135372400284, 0.02466452494263649, -0.03570631891489029, 0.11581060290336609, 0.1703297644853592, 0.4066183567047119, 0.3997911810874939, 0.5538598299026489, 0.466042160987854, 0.02163219079375267, 0.037010472267866135, 0.15334676206111908, -1.9800000190734863, 0.2503199279308319, -1.9608930349349976, 0.3365476131439209, -1.9751484394073486, 0.22947299480438232, 0.1728406548500061, -0.18413804471492767, -0.021180778741836548, 0.05141812935471535, 0.46351563930511475, -0.003264680504798889, 0.4798208475112915, -0.011811078526079655, 0.1273815929889679, 0.02727653644979, 0.18794554471969604, -1.9340178966522217, 0.2870181202888489, -1.7875028848648071, 0.14086881279945374, 0.0788247212767601, 0.08696799725294113, -0.16938194632530212, 0.14838513731956482, -0.43735355138778687, 0.27772918343544006, -1.6549016237258911, 0.3138212263584137, 0.03936344012618065, 0.030238931998610497, 0.0643531084060669, -0.1388091742992401, 0.17964079976081848, -0.19323910772800446, 0.09364398568868637, -0.23030105233192444, -0.005727105773985386, 0.03031853213906288, 0.04958709329366684, -0.06517424434423447, 0.09608336538076401, -0.17662180960178375, 0.06820245087146759, -0.22610259056091309, -0.15018732845783234, 0.06795460730791092, -0.01693068817257881, 0.0663561075925827, -0.02408621273934841, 0.05094518885016441, 0.027329491451382637, 0.02029859647154808, -0.030079476535320282, -0.33180010318756104, 0.20801809430122375, -1.9800000190734863, 0.31682682037353516, -0.5218865871429443, 0.23433642089366913, -1.9800000190734863, -0.14910203218460083, 0.15002402663230896, -0.2930895984172821, 0.34427276253700256, -1.9800000190734863, 0.3813360035419464, -1.883914828300476, 0.4107480049133301, 0.1981603503227234, -0.014284765347838402, 0.23466508090496063, -0.2180824875831604, 0.389489084482193, -1.9800000190734863, 0.4558449685573578, -0.2190435379743576, -0.024854768067598343, 0.16045677661895752, -0.01612914726138115, 0.27701660990715027, -0.8930984735488892, 0.3649769127368927, -1.9671679735183716, 0.3516416549682617, 0.20563600957393646, -0.013007931411266327, 0.22308479249477386, -0.5635536313056946, 0.21580816805362701, -0.25575122237205505, 0.37390464544296265, -1.8744670152664185, -0.04158007353544235, 0.17383843660354614, -0.3808595836162567, 0.18388016521930695, -0.11508549004793167, 0.22832761704921722, -0.10614234954118729, 0.15693065524101257, 0.22569987177848816, -0.24247011542320251, 0.08095333725214005, -0.12696900963783264, 0.14488089084625244, -0.13149061799049377, 0.10491078346967697, -0.06227056682109833, -0.35365030169487, 0.0668938010931015, -0.1243680864572525, 0.1761661022901535, -0.2366667091846466, 0.1302129179239273, -0.04390833154320717, 0.1713913381099701, 0.04141940921545029, 0.20078274607658386, 0.1035713329911232, 0.21560737490653992, 0.018904108554124832, 0.15138792991638184, 0.07739461213350296, 0.1907161921262741, 0.07553530484437943, 0.12445046007633209, 0.18076415359973907, 0.20464900135993958, 0.15871725976467133, 0.11021169275045395, 0.20250235497951508, 0.14282585680484772, 0.03726867213845253, 0.07306797802448273, 0.020541390404105186, 0.11112293601036072, -0.007747423369437456, 0.21883299946784973, -0.01967248134315014, 0.2007213681936264, 0.15375591814517975, 0.09689836949110031, 0.05409490317106247, 0.011562321335077286, 0.022638674825429916, -0.23323146998882294, 0.13867372274398804, 0.09697814285755157, 0.1170744076371193, 0.10150628536939621, 0.12061884999275208, 0.11443813145160675, 0.07738721370697021, 0.032630883157253265, -0.0639634057879448, 0.28940731287002563, 0.2119850367307663, 0.14178864657878876, 0.20575681328773499, 0.10367710888385773, 0.020547106862068176, 0.025743162259459496, 0.054410289973020554, 0.10127483308315277, 0.0031619176734238863, 0.17309299111366272, 0.09795358777046204, 0.08580084890127182, -0.003997475374490023, 0.026539888232946396, -0.16936750710010529, -0.028308380395174026, 0.13272182643413544, 0.07449395209550858, 0.09361758828163147, 0.0220782570540905, 0.019778966903686523, -0.03336047753691673, -0.014067785814404488, 0.05247237905859947, -0.5997962951660156, -0.37904319167137146, -0.2949085235595703, -0.2882079482078552, -0.4799351990222931, -0.42173781991004944, -0.05020158365368843, -0.14689095318317413, -0.26010674238204956, -0.28678765892982483, -0.393927663564682, -0.13939708471298218, -0.36344945430755615, 0.0708116814494133, 0.05989803001284599, -0.23280052840709686, -0.31445246934890747, -0.304321825504303, -0.3067947030067444, -0.29773178696632385, -0.22008758783340454, -0.7719609141349792, -0.049290917813777924, -0.2740633487701416, -0.2833862006664276, -0.3119896948337555, -0.3390689790248871, -0.297342449426651, -0.4423593282699585, -0.16904902458190918, -0.3463056683540344, -0.3831421732902527, -0.27476978302001953, -0.26128894090652466, -0.270429402589798, -0.361186146736145, -0.4018285572528839, -0.396781325340271, -0.2553744614124298, -0.3328930139541626, -0.26571863889694214, -0.3010067641735077, -0.3736877739429474, -0.353681743144989, -0.41466087102890015, -0.3129454255104065, -0.4340513050556183, -0.32903721928596497, -0.33590224385261536, -0.33497655391693115, -0.3816795349121094, -0.4356672763824463, -0.4535265862941742, -0.3296754062175751, -0.6261967420578003, -0.4625359773635864, -0.39174720644950867, -0.3302454650402069, -0.4059695601463318, -0.3935612440109253, -0.4477485120296478, -0.3210834562778473, -0.36022913455963135, -0.25989484786987305, -1.8153481483459473, -1.9800000190734863, -1.9786856174468994, 0.3557875454425812, 0.19533982872962952, -1.2417535781860352, 0.5853468775749207, 0.9842749238014221, -1.975386381149292, -1.9800000190734863, 0.4950107932090759, 0.7115577459335327, -0.11070027202367783, 0.7258183360099792, 0.15100041031837463, 0.8094761967658997, 0.820938229560852, 0.8048234581947327, 0.6694465279579163, 0.626556932926178, 0.5382314920425415, 0.42130282521247864, 0.5046988725662231, 0.8940203189849854, 0.6393861174583435, 0.7655110359191895, 0.6618564128875732, 0.7019699811935425, 0.49314814805984497, 0.6453379988670349, 0.5157800912857056, 0.7044803500175476, 0.669165849685669, 0.6972605586051941, 0.6009741425514221, 0.6098560094833374, 0.6412440538406372, 0.6088837385177612, 0.7271661758422852, 0.6225221157073975, 0.5459301471710205, 0.5304896235466003, 0.6600934863090515, 0.6688215136528015, 0.7443975806236267, 0.7297748923301697, 0.7318065762519836, 0.7178327441215515, 0.46921488642692566, 0.6392462253570557, 0.5176712274551392, 0.629938006401062, 0.6650811433792114, 0.7122606039047241, 0.6436119079589844, 0.6769968271255493, 0.49170351028442383, 0.4039611518383026, 0.5607309937477112, 0.5815130472183228, 0.5981378555297852, 0.633899450302124, 0.5689992904663086, 0.49225592613220215], [0.02706783637404442, -0.008276358246803284, 0.027310442179441452, -0.012686409056186676, -0.02036571130156517, 0.0033059604465961456, 0.018277596682310104, -0.030220869928598404, -0.10704448819160461, -0.1390708088874817, -0.020936081185936928, -0.28794723749160767, -0.14994731545448303, -0.21254855394363403, -0.14601683616638184, -0.19341591000556946, -0.12580989301204681, -0.21202398836612701, -0.11915410310029984, -0.21069715917110443, -0.23716218769550323, -0.2724006772041321, -0.18922169506549835, -0.16261044144630432, -0.12697841227054596, -0.17272649705410004, -0.17122581601142883, -0.25169605016708374, -0.2564835846424103, -0.18095985054969788, -0.20863282680511475, -0.20352301001548767, -0.1597391664981842, -0.08851878345012665, -0.031755611300468445, -0.18896427750587463, -0.21707242727279663, -0.17635612189769745, -0.3575233817100525, -0.045302897691726685, 0.21366943418979645, -0.06131812930107117, 1.325703501701355, -0.19417163729667664, 1.3518555164337158, -0.13318920135498047, 1.9569425582885742, -0.17801567912101746, -0.08532537519931793, -0.494024395942688, -1.9785534143447876, -0.6679918169975281, -1.5949060916900635, -0.408664345741272, 0.1718379110097885, -0.3421146273612976, -0.012673263438045979, 0.018172524869441986, -0.03311489149928093, -0.021652204915881157, 0.004683502949774265, 0.031967759132385254, -0.008602135814726353, -0.013331742957234383, -0.7630571126937866, -0.7132479548454285, -0.762192964553833, -0.6731561422348022, -0.6812710762023926, -0.69347083568573, -0.6571316719055176, -0.851265013217926, -0.8991487622261047, -0.6749367117881775, -0.5461216568946838, -0.670897364616394, -0.6004251837730408, -0.6449318528175354, -0.7401293516159058, -0.7690691351890564, -0.7046546339988708, -0.670452356338501, -0.6075676083564758, -0.7478966116905212, -0.6684215068817139, -0.5418608784675598, -0.5962899327278137, -0.6204016208648682, -0.7052088379859924, -0.5034833550453186, -0.7536180019378662, -0.6093319058418274, -0.6761111617088318, -0.5905570983886719, -0.643263041973114, -0.5266926884651184, -0.685776948928833, -0.6600756049156189, -0.721652626991272, -0.5726443529129028, -0.6264072060585022, -0.4638522267341614, -0.5136598348617554, -0.6140303015708923, -0.6608295440673828, -0.664634108543396, -0.566604733467102, -0.5968890190124512, -0.7149283289909363, -0.5548559427261353, -0.6947983503341675, -0.5267453193664551, -0.46474045515060425, -0.6670809388160706, -0.5719148516654968, -0.8486161828041077, -0.46057844161987305, -0.6645995378494263, -0.5212554335594177, -0.43812307715415955, -0.4622616171836853, -0.41718190908432007, -0.6398096680641174, -0.47191286087036133, -0.6970058679580688, -0.5465165376663208, -0.6993839740753174, -0.21348819136619568, -1.0947911739349365, -0.3598572313785553, -1.0207703113555908, -0.3804619014263153, -1.0319592952728271, -0.4308422803878784, -0.9237769842147827, -0.46840107440948486, -0.3504631221294403, -1.0377670526504517, -0.37190166115760803, -1.031019687652588, -0.5043034553527832, -1.1504433155059814, -0.3936476409435272, -1.0264363288879395, -0.8947680592536926, -0.4630975127220154, -0.9507650136947632, -0.45332786440849304, -1.0076568126678467, -0.4018194377422333, -0.9917875528335571, -0.425205796957016, -0.4276637136936188, -0.9915726780891418, -0.46573135256767273, -0.9770429134368896, -0.3954787850379944, -1.0870566368103027, -0.33960169553756714, -1.1179251670837402, -1.0348809957504272, -0.3895866870880127, -0.972156286239624, -0.3098250925540924, -0.8907943964004517, -0.3285137414932251, -1.0229039192199707, -0.3631299138069153, -0.3625267446041107, -1.0762115716934204, -0.3300306499004364, -0.9474665522575378, -0.34623610973358154, -1.0322489738464355, -0.30550870299339294, -1.0023316144943237, -1.008135437965393, -0.4271617829799652, -1.0342597961425781, -0.39045873284339905, -1.1060713529586792, -0.2679990530014038, -1.1064552068710327, -0.2731155455112457, -0.4231594204902649, -1.0510612726211548, -0.42945757508277893, -1.027481198310852, -0.35822349786758423, -1.083540678024292, -0.1418176293373108, -0.9154980778694153, -1.2262037992477417, -1.2078791856765747, -1.1955312490463257, -1.2136379480361938, -1.1605913639068604, -1.1144568920135498, -1.0620005130767822, -1.2933349609375, -1.1278735399246216, -1.098592758178711, -1.0740500688552856, -1.1231322288513184, -1.0464035272598267, -1.1908506155014038, -1.185013771057129, -1.2528892755508423, -1.1263065338134766, -1.1306794881820679, -1.0236902236938477, -1.0439189672470093, -0.9577503204345703, -1.0388333797454834, -1.0213695764541626, -1.2375088930130005, -0.9734275937080383, -1.0463249683380127, -0.987093985080719, -0.9259399771690369, -0.9570136666297913, -0.976544201374054, -0.8573377132415771, -1.0677530765533447, -1.0581687688827515, -1.0494179725646973, -0.9997362494468689, -0.9743092656135559, -0.9096642732620239, -1.0032578706741333, -1.003706932067871, -1.066560983657837, -1.1095590591430664, -1.048742651939392, -1.0239789485931396, -0.9326877593994141, -0.9227895736694336, -0.8708000779151917, -0.9725396037101746, -1.0729165077209473, -1.124214768409729, -1.1279356479644775, -1.0805768966674805, -1.0028634071350098, -1.0098530054092407, -0.9547623991966248, -0.9861927628517151, -0.984990119934082, -1.1707528829574585, -1.1584490537643433, -1.3881889581680298, -1.1525479555130005, -1.1372568607330322, -1.0735061168670654, -1.034531831741333, -1.0239683389663696, -0.7310237884521484, -0.8992266654968262, -1.0589234828948975, -1.0364032983779907, -0.6759493947029114, 1.9513306617736816, 1.7175168991088867, -0.6336597204208374, 1.8238543272018433, -0.8612006902694702, 1.9650758504867554, -0.9770463109016418, 1.8626679182052612, 1.8708051443099976, 1.7683534622192383, -0.5532883405685425, -0.34902432560920715, 1.975583553314209, 1.4270076751708984, 1.96600341796875, 1.7215825319290161, 1.9605655670166016, 1.9256120920181274, 1.6206427812576294, 1.3377386331558228, 0.1938217282295227, 1.956506609916687, 1.9532454013824463, 1.9746098518371582, 1.9464199542999268, 1.9692531824111938, 1.4037353992462158, 1.8548872470855713, 1.3188430070877075, 1.1201962232589722, 1.6565485000610352, 1.8985825777053833, 1.268838882446289, 1.3386070728302002, 1.9800000190734863, 0.9057807922363281, 1.520617961883545, 1.9316414594650269, 1.5137228965759277, 1.8120301961898804, 1.7147771120071411, 1.779427409172058, 1.8727881908416748, 1.9800000190734863, 1.9242374897003174, 1.9699225425720215, -0.35060709714889526, 1.371808648109436, 1.949499487876892, 1.9685840606689453, 1.9608336687088013, 1.312138319015503, 1.8641490936279297, 1.976454257965088, -0.7898509502410889, 1.4343944787979126, 1.92983877658844, 1.267439842224121, 0.5721378922462463, -0.4126283526420593, -0.36061400175094604, -0.31652703881263733, -0.18046835064888, -0.1197735071182251, -0.2501186430454254, -0.12142019718885422, -0.1881961077451706, -0.15103894472122192, -0.3204687833786011, -0.32610002160072327, -0.35575345158576965, -0.29675358533859253, -0.2062283307313919, -0.17356865108013153, -0.12963195145130157, -0.20023378729820251, -0.16036882996559143, -0.3199487328529358, -0.2978056073188782, -0.36868783831596375, -0.19643932580947876, -0.37128645181655884, -0.007979746907949448, -0.07334093749523163, -0.3030644655227661, -0.3146824836730957, -0.44203445315361023, -0.24441878497600555, -0.41668835282325745, -0.2584983706474304, -0.22665061056613922, -0.19280366599559784, -0.27973270416259766, -0.4169829785823822, -0.4529218077659607, -0.4053240120410919, -0.42037153244018555, -0.48286521434783936, -0.21904367208480835, -0.22441411018371582, -0.11186032742261887, -0.39884716272354126, -0.23310129344463348, -0.4943981170654297, -0.3040429651737213, -0.3755183815956116, -0.17491762340068817, -0.07738406211137772, -0.04182744771242142, -0.21289785206317902, -0.27394768595695496, -0.5005339980125427, -0.17017540335655212, -0.39808517694473267, -0.27134600281715393, -0.14320123195648193, -0.008085714653134346, -0.5072599053382874, -0.16134150326251984, -0.32606378197669983, -0.1651608943939209, -0.42338061332702637, -0.5269392728805542, -0.015121730975806713, -0.025778841227293015, -0.012151794508099556, 0.002739831805229187, 0.028254762291908264, 0.010962119325995445, -0.03113512322306633, -0.004041640553623438, 0.8237558603286743, 1.3770263195037842, 0.7375595569610596, 1.3856477737426758, 0.5843462347984314, 1.599072813987732, 1.9622033834457397, 0.8691765666007996, 0.5927629470825195, 0.6341249346733093, 0.6896132230758667, 0.6699515581130981, 0.8086663484573364, 0.5485756993293762, 0.7389301061630249, 0.7898287177085876, 0.3334922790527344, 0.6572203636169434, 0.3491491973400116, 0.7042385339736938, 0.4722384512424469, 0.8049879670143127, 0.3824739158153534, 0.7515210509300232, 0.41086962819099426, 0.4717307984828949, 0.3837943971157074, 0.4531727731227875, 0.4463343918323517, 0.5652543306350708, 0.38193872570991516, 0.7018819451332092, 0.3959667384624481, 0.44556286931037903, 0.4783637821674347, 0.47444799542427063, 0.45279932022094727, 0.606078565120697, 0.3985600769519806, 0.5908563733100891, 0.38657084107398987, 0.39853528141975403, 0.41476359963417053, 0.4330326020717621, 0.3476746678352356, 0.40072232484817505, 0.46112966537475586, 0.5180001854896545, -0.03181083872914314, 0.00549012515693903, 0.03135981038212776, 0.008129020221531391, 0.03590679168701172, 0.021341681480407715, 0.030380859971046448, -0.0050940560176968575, 0.368068665266037, 0.6703066825866699, 0.18476292490959167, 0.39123833179473877, 0.27701401710510254, 0.5486545562744141, 0.4164896011352539, 0.18400561809539795, 0.6581959128379822, 0.5376914143562317, 0.4344217777252197, 0.33322596549987793, 0.29193875193595886, 0.4303659200668335, 0.3625091314315796, 0.46221551299095154, 0.40531018376350403, 0.4968840777873993, 0.36483386158943176, 0.48089057207107544, 0.28299447894096375, 0.3829111158847809, 0.12284146994352341, 0.39415842294692993, 0.5552512407302856, 0.28540679812431335, 0.5203260183334351, 0.14887453615665436, 0.39692312479019165, 0.2784382998943329, 0.4219415485858917, 0.4790785610675812, 0.5162449479103088, 0.47823643684387207, 0.31597650051116943, 0.4489736258983612, 0.3136674165725708, 0.4100555181503296, 0.23453494906425476, 0.40338054299354553, 0.4779290556907654, 0.5307082533836365, 0.33471500873565674, 0.34918412566185, 0.38114655017852783, 0.3197428286075592, 0.37907785177230835, 0.2868219316005707, 0.4592481553554535, 0.4216943681240082, 0.41052624583244324, 0.40801626443862915, 0.3344113528728485, 0.49881643056869507, 0.28365057706832886, 0.39508649706840515, 0.1054883599281311, 0.3811195194721222, 0.3780771791934967, 0.48236799240112305, 0.3286783993244171, 0.40170231461524963, 0.39481332898139954, 0.5124498009681702, 1.034305214881897, 0.1022513285279274, 0.9736006855964661, 0.09009163081645966, 1.136549949645996, 0.1110176295042038, 0.9428373575210571, 0.3021279573440552, 0.11139721423387527, 1.0924588441848755, 0.21315185725688934, 1.030016303062439, 0.07348045706748962, 1.0253533124923706, 0.07458551973104477, 0.9268757700920105, 1.0462971925735474, 0.20615887641906738, 1.0484877824783325, 0.16193024814128876, 0.97443687915802, 0.11699903756380081, 1.115110993385315, 0.23409317433834076, 0.1310870498418808, 1.0567153692245483, 0.2299353927373886, 0.9848433136940002, 0.17551715672016144, 0.9980889558792114, 0.2730035185813904, 0.978692352771759, 0.9622052907943726, 0.12743255496025085, 0.8977174758911133, 0.1606801301240921, 0.8209662437438965, 0.10645859688520432, 0.9383463263511658, 0.31987494230270386, 0.21338948607444763, 0.8314060568809509, 0.22865809500217438, 0.8283408284187317, 0.23456089198589325, 0.8381916880607605, 0.17917947471141815, 0.8203864097595215, 0.9491053223609924, 0.14766336977481842, 0.9396660923957825, 0.16952887177467346, 0.9800506234169006, 0.20636038482189178, 0.8873351216316223, 0.15511015057563782, 0.3706611394882202, 0.9543449282646179, 0.14290495216846466, 0.8979104161262512, 0.1817084401845932, 0.9350858926773071, 0.14026355743408203, 1.0770667791366577, 1.276960849761963, 1.1862761974334717, 1.0194649696350098, 1.1339309215545654, 0.9757635593414307, 0.9841607213020325, 1.0049996376037598, 1.112369418144226, 1.2020231485366821, 1.0470921993255615, 1.0903582572937012, 1.0917527675628662, 1.0997059345245361, 1.0902798175811768, 1.0758863687515259, 1.186214566230774, 1.018090009689331, 1.0284161567687988, 0.8660815954208374, 1.026236653327942, 0.8368528485298157, 1.062353491783142, 1.033084750175476, 1.2106434106826782, 1.0520622730255127, 1.0240262746810913, 0.906080961227417, 0.9783709049224854, 0.962799608707428, 1.0458920001983643, 1.0255346298217773, 1.247097373008728, 0.9835866689682007, 0.9723610281944275, 0.7840062975883484, 0.960464596748352, 0.8835342526435852, 0.9521686434745789, 0.8374662399291992, 1.0895200967788696, 1.289434790611267, 0.9234012961387634, 0.889844536781311, 1.0066725015640259, 0.8766928911209106, 0.9053769707679749, 0.979133665561676, 1.0642997026443481, 1.3051992654800415, 1.154242992401123, 1.0286920070648193, 1.1261404752731323, 1.1133695840835571, 1.1169273853302002, 1.019189715385437, 1.2134346961975098, 1.2029935121536255, 1.2133175134658813, 1.1085596084594727, 1.2422401905059814, 1.1249152421951294, 1.0903340578079224, 1.0635757446289062, 1.1508336067199707, 0.7630619406700134, 0.6391918063163757, 0.234164297580719, 0.8468160033226013, 0.7173476815223694, 0.9839272499084473, 0.8693206906318665, 1.4791011810302734, 0.8967655897140503, 0.5180850028991699, 0.8183213472366333, 0.7442145347595215, 0.6598233580589294, 0.8368684649467468, 0.9423155188560486, 1.2765251398086548, 0.7458766102790833, 0.9268373847007751, 0.7566372752189636, 0.9210779070854187, 0.6284518837928772, 1.054734706878662, 0.6625747680664062, 1.5243505239486694, 0.9225759506225586, 1.089350938796997, 0.7431870698928833, 1.2856992483139038, 1.077085018157959, 0.8649727702140808, 0.9631882905960083, 1.0948196649551392, 0.8827269077301025, 0.8750037550926208, 0.9255587458610535, 0.9979576468467712, 0.8729798197746277, 0.9719460606575012, 1.0225396156311035, 0.8366945385932922, 0.9702625274658203, 1.0193378925323486, 1.04066801071167, 0.9393640756607056, 0.9053499698638916, 0.913719654083252, 0.8394169807434082, 0.7876035571098328, 1.0965635776519775, 1.1362463235855103, 0.9677878022193909, 0.8238427042961121, 0.9525433778762817, 0.9069041609764099, 0.9141113758087158, 0.6699743866920471, 0.8317725658416748, 0.8427673578262329, 0.6662367582321167, 0.7237774729728699, 0.7499873638153076, 0.7483412623405457, 1.1263586282730103, 1.3184376955032349, -0.45057326555252075, -0.34326547384262085, -0.3461170196533203, -0.3288094699382782, -0.3276277780532837, -0.4574500322341919, -0.518437385559082, -0.7390568852424622, -0.32350942492485046, -0.29182925820350647, -0.28403809666633606, -0.19403289258480072, -0.20125266909599304, -0.18603619933128357, -0.3616434633731842, -0.8319391012191772, -0.36988210678100586, -0.4192330837249756, -0.3246520459651947, -0.21734410524368286, -0.2263239324092865, -0.29005202651023865, -0.21360251307487488, -0.2739463448524475, -0.4122399687767029, -0.3297876715660095, -0.3021891117095947, -0.13287769258022308, -0.2670224606990814, -0.21864871680736542, -0.38090458512306213, -0.21353651583194733, -0.3953043520450592, -0.31513187289237976, -0.2834925651550293, -0.20656785368919373, -0.21310172975063324, -0.28905290365219116, -0.26709577441215515, -0.25682783126831055, -0.2210208773612976, -0.14587993919849396, -0.26572224497795105, -0.19816946983337402, -0.23727469146251678, -0.30666473507881165, -0.3112736940383911, -0.3006793260574341, -0.36556121706962585, -0.22369816899299622, -0.1480710804462433, -0.189047172665596, -0.18306702375411987, -0.3106551170349121, -0.2984877824783325, -0.24032680690288544, -0.5098382830619812, -0.341143935918808, -0.18873845040798187, -0.15900196135044098, -0.20711956918239594, -0.31035375595092773, -0.23331719636917114, -0.31054913997650146], [0.003495174692943692, 0.0341179259121418, -0.02279001660645008, -0.03270137682557106, -0.023416569456458092, -0.010475359857082367, -0.012506172060966492, 0.021340511739253998, -0.04301917552947998, -0.027155578136444092, -0.0728277638554573, -0.08724606037139893, -0.07178275287151337, -0.08187037706375122, -0.07003682851791382, -0.08026064932346344, -0.044300567358732224, -0.032480474561452866, -0.09027706831693649, -0.10131198912858963, -0.13577474653720856, -0.15899011492729187, -0.10279356688261032, -0.09277722239494324, -0.11556661874055862, -0.03897876292467117, -0.04718630760908127, -0.10405047982931137, -0.15293854475021362, -0.15344715118408203, -0.10190654546022415, -0.09108757972717285, -0.020646188408136368, -0.8613708019256592, 0.21504049003124237, -1.1462732553482056, -0.05932880938053131, -0.22587035596370697, -0.11783036589622498, -0.11640454083681107, -0.054532330483198166, -0.3886376619338989, 1.9800000190734863, -1.9658312797546387, 0.018359076231718063, -0.18682920932769775, -0.0870824083685875, -0.08345860987901688, -0.006094467360526323, -0.2405756413936615, 0.2575031816959381, 0.1357249915599823, 0.06578780710697174, -0.1681559979915619, -0.0625452995300293, -0.32338660955429077, -0.03607150912284851, 0.025328878313302994, -0.013134390115737915, 0.03433452546596527, -0.022703493013978004, -0.01880784146487713, 0.027386480942368507, -0.014033819548785686, -0.5182237029075623, -0.24833016097545624, -0.4521925449371338, -0.3199838101863861, -0.4083833396434784, -0.32606130838394165, -0.34840255975723267, -0.4415779113769531, -0.3101500868797302, -0.3538493514060974, -0.4047376215457916, -0.31686532497406006, -0.36330655217170715, -0.3888641595840454, -0.3217593729496002, -0.40081825852394104, -0.19537213444709778, -0.48759981989860535, -0.2540165185928345, -0.42322856187820435, -0.2983124256134033, -0.40139806270599365, -0.36765092611312866, -0.34851500391960144, -0.20678962767124176, -0.6392313241958618, -0.2565130293369293, -0.7207657694816589, -0.27162063121795654, -0.33302757143974304, -0.3760821223258972, -0.3591187000274658, -0.6860027313232422, -0.10472573339939117, -0.18007127940654755, -0.24091383814811707, -0.5815813541412354, -0.3933317959308624, -0.3890465795993805, -0.34668871760368347, -0.467033326625824, -0.30681392550468445, -0.2988368570804596, -0.16199170053005219, -0.41274648904800415, -0.2781451940536499, -0.3944884240627289, -0.4144812822341919, -0.6291435956954956, -0.24864768981933594, 0.00623847683891654, -0.23197239637374878, -0.7897482514381409, -0.3702774941921234, -0.4827684462070465, -0.44348010420799255, -0.6386145949363708, -1.602813482284546, -0.31831982731819153, -0.7695361375808716, -0.1326742172241211, -0.35750386118888855, -0.3664431571960449, -0.306194931268692, -0.43947210907936096, -0.2947521209716797, -0.3649832606315613, -0.34470435976982117, -0.45106685161590576, -0.3039391040802002, -0.471099853515625, -0.23037560284137726, -0.34377917647361755, -0.42225682735443115, -0.3073517084121704, -0.38758671283721924, -0.3087581396102905, -0.36061280965805054, -0.22947101294994354, -0.37387019395828247, -0.2939198911190033, -0.4515652060508728, -0.34990471601486206, -0.33570361137390137, -0.3506172299385071, -0.2277860790491104, 