{"ft.weight": [[0.007755667436867952, -0.03364340215921402, 0.019520340487360954, -0.0036751835141330957, -0.02120274119079113, -0.001387548167258501, 0.0031630657613277435, -0.03193638101220131, 0.2635391056537628, 0.3061491847038269, 0.358084499835968, 0.3261667490005493, 0.36284542083740234, 0.3222251236438751, 0.3027794063091278, 0.291460782289505, 0.2304578423500061, 0.26669952273368835, 0.34740281105041504, 0.34916236996650696, 0.22987687587738037, 0.2915493845939636, 0.2761225998401642, 0.28408241271972656, 0.21122069656848907, 0.2835247218608856, 0.2599693536758423, 0.2742198705673218, 0.2365337312221527, 0.2120494246482849, 0.3124006688594818, 0.2711772322654724, 0.12291324138641357, 0.09465306997299194, -0.09641364961862564, 0.03925107792019844, 0.003980325069278479, 0.10405261814594269, 0.2026970237493515, 0.11680320650339127, -0.2071511596441269, -0.6032226085662842, -0.602759838104248, -1.9754031896591187, -1.2257665395736694, -0.3859182298183441, -1.976298213005066, 0.023696642369031906, -0.4002227187156677, -1.7406150102615356, -1.529420018196106, -1.9309231042861938, -1.7647603750228882, -1.9751980304718018, -1.827278971672058, -0.25740599632263184, -0.019146371632814407, -0.023187698796391487, -0.010090237483382225, -0.010295247659087181, -0.010358012281358242, -0.006814457010477781, 0.028630752116441727, -0.013203194364905357, 0.7686010003089905, 0.8031191825866699, 0.86808180809021, 0.7005012035369873, 0.7900299429893494, 0.7865346670150757, 0.7710049748420715, 0.869003176689148, 0.8447511792182922, 0.7375718951225281, 0.716493546962738, 0.6921306252479553, 0.7532992959022522, 0.6544317603111267, 0.7312676310539246, 0.7787432670593262, 0.6461674571037292, 0.6706227660179138, 0.7109730243682861, 0.5536890029907227, 0.6433861255645752, 0.6803709268569946, 0.7838767766952515, 0.7068156599998474, 0.6629335880279541, 0.6346123814582825, 0.600946843624115, 0.4527416229248047, 0.4330126643180847, 0.5933926701545715, 0.512284517288208, 0.7276878952980042, 0.3036896586418152, 0.5519662499427795, 0.4644221067428589, 0.5119321942329407, 0.25958871841430664, 0.3454534113407135, 0.452377587556839, 0.5559349060058594, -0.09396729618310928, 0.18653181195259094, -1.9659994840621948, -1.5215466022491455, -1.2465499639511108, -1.089238166809082, 0.5583321452140808, -1.9129985570907593, -0.23614618182182312, -1.3472880125045776, -0.23278707265853882, -1.523077130317688, -1.9794570207595825, -1.1930111646652222, -1.931955337524414, -0.2116185426712036, -1.165977120399475, -0.725546658039093, -0.5902084708213806, -0.8983895182609558, -0.9979490637779236, -0.5228762030601501, -0.5012497305870056, -0.4362812936306, 0.5682360529899597, 0.7383705377578735, 0.7005501389503479, 0.6519311666488647, 0.6621580123901367, 0.6556816697120667, 0.514682948589325, 0.6701635718345642, 0.5630301833152771, 0.6599408388137817, 0.6479493379592896, 0.6677700877189636, 0.6680776476860046, 0.5547629594802856, 0.671870231628418, 0.3815082609653473, 0.5768091678619385, 0.5842904448509216, 0.5976536870002747, 0.5686705112457275, 0.6751901507377625, 0.47871527075767517, 0.5334305167198181, 0.4600648283958435, 0.5144529938697815, 0.5207236409187317, 0.5028287172317505, 0.459553599357605, 0.3107193112373352, 0.4825233221054077, 0.3049428462982178, 0.5390929579734802, -0.08086086809635162, 0.555183470249176, 0.331414133310318, 0.42226701974868774, 0.25252681970596313, 0.4053271412849426, 0.5590041279792786, 0.34931525588035583, 0.4171801209449768, 0.503210186958313, -0.7684895396232605, -1.6975138187408447, -1.9799985885620117, -1.8838554620742798, 0.34090450406074524, -1.5167291164398193, 0.4494592249393463, -1.9485859870910645, -1.969360589981079, -1.9548486471176147, -1.8891507387161255, -1.836205005645752, -1.8608206510543823, 0.28415602445602417, -1.4366320371627808, -1.9756228923797607, -1.4334652423858643, -1.975767970085144, -1.9731743335723877, -1.1117604970932007, -0.7919278740882874, -1.143064260482788, 0.9192999005317688, 0.8816441297531128, 0.8426432609558105, 0.8633650541305542, 0.745846688747406, 0.9354231357574463, 0.9299357533454895, 0.9381850361824036, 0.9187421202659607, 0.9695523381233215, 0.8627873659133911, 0.8588146567344666, 0.7557026147842407, 0.88043612241745, 0.9492407441139221, 1.0104564428329468, 0.936957597732544, 0.832548201084137, 0.8283964395523071, 0.6852832436561584, 0.705473005771637, 0.6750367283821106, 0.8176047801971436, 0.8814828395843506, 0.9985105991363525, 0.7156665921211243, 0.8418909311294556, 0.7092991471290588, -1.962762713432312, 0.8073338270187378, 0.8146212697029114, 0.8609479665756226, 0.830001711845398, 0.7660086154937744, 0.7152281403541565, 0.7278110384941101, -1.9465022087097168, 0.7504810690879822, 0.7031248211860657, 0.7303951978683472, -1.9588570594787598, 0.5923362374305725, -1.9795478582382202, -1.9296655654907227, -1.979339361190796, -1.9342470169067383, -1.925077199935913, -1.9016814231872559, -1.8960343599319458, -1.4428672790527344, -1.9700980186462402, -1.5129839181900024, -1.9798436164855957, -1.9741488695144653, -1.9436614513397217, -1.9509012699127197, -1.9799976348876953, -1.9800000190734863, -1.9800000190734863, -1.9591233730316162, -1.8433148860931396, -1.966468334197998, -1.979997992515564, -1.9220705032348633, 1.4887276887893677, 1.6348811388015747, 1.6684783697128296, 1.6641857624053955, 1.6968013048171997, 1.7648640871047974, 1.698828101158142, 1.5643107891082764, 1.556301236152649, 1.6128822565078735, 1.5821459293365479, 1.6790858507156372, 1.6650362014770508, 1.7376909255981445, 1.7039135694503784, 1.5178889036178589, 1.3652513027191162, 1.5233081579208374, 1.4099448919296265, 1.5958744287490845, 1.667007565498352, 1.6181743144989014, 1.5964857339859009, 1.4596718549728394, 1.5744014978408813, 0.16212041676044464, 0.25355151295661926, 1.4552310705184937, 0.10394894331693649, 1.4384804964065552, 1.4885460138320923, 1.4824798107147217, -0.09784761816263199, 0.18765772879123688, -0.029869921505451202, 0.06097261235117912, -1.1225260496139526, 1.2619727849960327, 1.4316291809082031, 0.20016904175281525, 0.4878371059894562, 0.2569735646247864, -1.214862585067749, -1.3221290111541748, -1.5702437162399292, -1.4215404987335205, 1.317748785018921, -1.9796652793884277, -0.23790818452835083, 0.25396570563316345, -0.576000988483429, -1.9507818222045898, -1.2577388286590576, -1.8315116167068481, -0.6861342787742615, -0.5761861205101013, -1.0168561935424805, -0.672529399394989, -0.9620247483253479, -0.9065208435058594, -0.7853960394859314, -0.6476723551750183, -0.5074058771133423, -0.6009931564331055, 0.5465991497039795, 0.43992289900779724, 0.4111223816871643, 0.5100669264793396, 0.4288134276866913, 0.46356073021888733, 0.3906889855861664, 0.4863864779472351, 0.5799711346626282, 0.538440465927124, 0.4921102225780487, 0.39963623881340027, 0.36701545119285583, 0.40441322326660156, 0.43465757369995117, 0.4929693043231964, 0.6211161613464355, 0.5687656998634338, 0.5981351137161255, 0.4741967022418976, 0.4453865885734558, 0.4506620764732361, 0.276149719953537, 0.43400195240974426, 0.5709070563316345, 0.5096323490142822, 0.5758843421936035, 0.366433709859848, 0.44079360365867615, 0.3777503967285156, 0.5536975264549255, 0.5270329713821411, 0.6499924063682556, 0.1759612262248993, 0.6773313283920288, 0.6612228751182556, 0.6169272661209106, 0.6108099818229675, 0.5501527190208435, 0.5607442855834961, -0.013411731459200382, 0.12794341146945953, 0.09721052646636963, 0.11777577549219131, 0.20887218415737152, 0.004288110416382551, 0.3701877295970917, 0.19573476910591125, 0.22677139937877655, -0.6203688979148865, -0.4258709251880646, -0.5327317118644714, 0.20177923142910004, -0.06458655744791031, 0.7682418823242188, -0.12458518892526627, -0.254379004240036, 0.3392139971256256, -0.3518267571926117, 0.14737004041671753, 0.28118887543678284, 0.045237019658088684, 0.4231225848197937, 0.23878911137580872, -0.03591524809598923, -0.03193262219429016, -0.01608777977526188, 0.006667463108897209, -0.029164515435695648, -0.034426018595695496, 0.003976854495704174, -0.020278969779610634, 0.4315020442008972, 0.7960816025733948, 0.39727526903152466, 0.7843681573867798, -1.7605615854263306, 0.6225684285163879, 0.8808445930480957, 0.6227056980133057, 0.05145096778869629, 0.11146306246519089, -0.3052389323711395, 0.1915811449289322, -0.9115045070648193, -0.7551212310791016, 0.36548465490341187, -0.3167347013950348, -0.07566675543785095, -0.09407063573598862, -0.42209407687187195, -0.11384661495685577, -0.40940582752227783, -0.30707553029060364, -0.08560238033533096, -0.222482830286026, -0.18577007949352264, -0.10459727048873901, -0.28702452778816223, -0.012525942176580429, -0.2477077841758728, -0.05631266534328461, -0.18186542391777039, -0.13371922075748444, -0.17497581243515015, -0.055853649973869324, -0.23427967727184296, 0.03174031898379326, -0.24785755574703217, -0.05963416025042534, -0.13103754818439484, -0.16900674998760223, -0.1497465819120407, -0.1189696416258812, -0.26870906352996826, 0.04284930229187012, -0.34528017044067383, -0.04212661460042, -0.1386616826057434, -0.12755315005779266, 0.020992083474993706, -0.02231094241142273, -0.034490201622247696, -0.01742514967918396, -0.030521560460329056, 0.004699139390140772, 0.019365258514881134, 0.0023857676424086094, 0.0748947486281395, -0.6139476895332336, -0.21023660898208618, -1.0995763540267944, -0.9076002240180969, -1.2043423652648926, -0.8030113577842712, -0.04928538203239441, -0.6532150506973267, -0.8272581696510315, -0.8491505980491638, -0.7238801121711731, -1.524455189704895, -1.0732331275939941, -0.8902649283409119, -0.8640273809432983, -0.7667755484580994, -0.5656247735023499, -0.8925216197967529, -0.39506855607032776, -1.1940734386444092, -0.7035456299781799, -0.5874512791633606, -0.6495367884635925, -0.6869382262229919, -0.432783305644989, -0.5927215814590454, -0.3931053578853607, -0.5096480250358582, -0.7207013964653015, -0.6684699654579163, -0.7601902484893799, -0.5617810487747192, -0.5039622187614441, -0.42782291769981384, -0.7287915349006653, -0.456016480922699, -0.7673100233078003, -0.4164004623889923, -0.7025301456451416, -0.6325566172599792, -0.7416799664497375, -0.6504587531089783, -0.5926849246025085, -0.6098811030387878, -0.6281890273094177, -0.6378118395805359, -0.6024695634841919, -0.7187491655349731, -0.7083204388618469, -0.6590741872787476, -0.6649790406227112, -0.6614299416542053, -0.5074536204338074, -0.6066211462020874, -0.6362413763999939, -0.8182346224784851, -0.7076875567436218, -0.6615369319915771, -0.5940960049629211, -0.6280220150947571, -0.5536747574806213, -0.7025194764137268, -0.6410526037216187, -0.41259610652923584, -0.7306812405586243, -1.000915288925171, -0.6671229600906372, -1.8802685737609863, -0.8389098048210144, -1.9093306064605713, -0.632451593875885, -0.55502849817276, -1.1979484558105469, -1.9765931367874146, -0.7765883207321167, -1.802247405052185, -0.8472983241081238, -0.22519925236701965, -0.9505363702774048, -0.8424996733665466, -0.6358155012130737, -0.8778225779533386, -0.5139998197555542, -1.3221445083618164, -0.7619214653968811, -0.5969300270080566, -0.8079673051834106, -0.674992024898529, -0.5752888321876526, -0.6956588625907898, -0.7030147910118103, -0.5249997973442078, -0.9090032577514648, -0.5968932509422302, -0.7473735809326172, -0.6923590898513794, -0.5715045928955078, -0.5821461081504822, -0.5301545858383179, -0.6917191743850708, -0.5069240927696228, -0.8393808007240295, -0.5969486832618713, -0.7222580313682556, -0.6002063751220703, -0.731006920337677, -0.6625784039497375, -0.6667260527610779, -0.7119131088256836, -0.5542043447494507, -0.8224422335624695, -0.7878066301345825, -0.7646458148956299, -0.6111403703689575, -0.8081441521644592, -0.7343298196792603, -0.6376321315765381, -0.7641779184341431, -0.7332495450973511, -0.7198604941368103, -0.6378196477890015, -0.799156129360199, -0.7275539636611938, -0.6509566903114319, -0.6869915723800659, -0.5847636461257935, -0.7561327815055847, -0.8542385697364807, -1.138917088508606, -1.9732766151428223, -1.9797488451004028, -1.9659321308135986, -1.9717137813568115, -0.9791582226753235, -0.9985197186470032, -1.0152257680892944, -1.282670497894287, -1.4072964191436768, -1.5173801183700562, -1.8111848831176758, -1.6373234987258911, -0.9484420418739319, -1.0700676441192627, -0.950208842754364, -1.173403263092041, -1.0242029428482056, -0.9960380792617798, -1.173755168914795, -1.146952509880066, -1.0506221055984497, -1.1115789413452148, -0.9034111499786377, -0.8388031125068665, -0.8462625741958618, -0.8776209950447083, -0.9551565051078796, -1.0897107124328613, -1.0402593612670898, -1.0286657810211182, -0.8491548299789429, -0.8285854458808899, -0.7721613645553589, -0.7649567723274231, -0.9047058820724487, -0.9751468300819397, -0.812454879283905, -0.9459044933319092, -0.8632810711860657, -0.7637941837310791, -0.9864834547042847, -0.675564169883728, -0.9092990756034851, -0.9317694902420044, -0.885176420211792, -0.9856814742088318, -0.941058874130249, -0.9231216311454773, -0.898496150970459, -0.8900974988937378, -0.96274334192276, -1.052668809890747, -0.8706755638122559, -0.9800687432289124, -0.9636709094047546, -0.9271807670593262, -0.9281541705131531, -0.940179169178009, -1.0780680179595947, -1.0576142072677612, -0.9811846017837524, -1.0048800706863403, -1.9660742282867432, -1.7859644889831543, -1.5811831951141357, -1.8239939212799072, -1.6174461841583252, -1.5843082666397095, -1.3183786869049072, -1.758997917175293, -1.960849404335022, -1.9788626432418823, -1.9158018827438354, -1.9194025993347168, -1.9417413473129272, -1.8979761600494385, -1.8579952716827393, -1.6169981956481934, -1.7180414199829102, -1.9219987392425537, -1.6962122917175293, -1.6586593389511108, -1.6753287315368652, -1.670891284942627, -1.647913932800293, -1.893141746520996, -1.8166515827178955, -1.6145092248916626, -1.5818525552749634, -1.684049367904663, -1.6528410911560059, -1.7036044597625732, -1.7897021770477295, -1.9040882587432861, -1.7615550756454468, -1.6121934652328491, -1.6109479665756226, -1.6621159315109253, -1.6819292306900024, -1.6632866859436035, -1.6820532083511353, -1.7935740947723389, -1.747812271118164, -1.7453360557556152, -1.8252302408218384, -1.664032220840454, -1.8058264255523682, -1.6665284633636475, -1.6141034364700317, -1.759243369102478, -1.7431762218475342, -1.7683054208755493, -1.7501587867736816, -1.7934762239456177, -1.7519900798797607, -1.7846800088882446, -1.721158504486084, -1.788938283920288, -1.7791677713394165, -1.7541476488113403, -1.6316004991531372, -1.7667083740234375, -1.7002888917922974, -1.6552221775054932, -1.5578572750091553, -1.7403217554092407, -1.9404608011245728, -0.43748337030410767, -0.4336504638195038, -0.22663946449756622, -0.12437069416046143, -0.10949619859457016, -0.16045039892196655, -1.4384711980819702, -0.44810768961906433, -0.43489983677864075, -0.30490225553512573, -0.014897079207003117, -0.2356342375278473, -0.24198751151561737, -0.13480810821056366, 0.03519159555435181, -0.2386242300271988, -0.33521130681037903, -0.2763074040412903, -0.31070032715797424, -0.7596696615219116, -0.6001797318458557, -0.48266881704330444, -0.27024438977241516, 0.12121692299842834, -0.3948141932487488, -0.13917173445224762, -0.3965761959552765, -0.5822814106941223, -0.9234713912010193, -0.5785502195358276, -0.35823965072631836, 0.016827093437314034, 0.4251618981361389, 0.5234072208404541, 0.49832287430763245, 0.5020654797554016, 0.4382973611354828, 0.29666784405708313, 0.04094697907567024, 0.3142848610877991, 0.6885855793952942, 0.590741753578186, 0.6590370535850525, 0.5849145650863647, 0.561928391456604, 0.5340622663497925, 0.4677203893661499, 0.6441728472709656, 0.4534537196159363, 0.6354345679283142, 0.5512391328811646, 0.7044963240623474, 0.5581844449043274, 0.64658123254776, 0.5474183559417725, 0.425066202878952, 0.4883953928947449, 0.5486280918121338, 0.5859578251838684, 0.4575038254261017, 0.5953777432441711, 0.6497324705123901, 0.5499452948570251], [-0.018794149160385132, -0.02647925354540348, -0.023412367329001427, 0.03566092252731323, -0.02489502727985382, 0.024640953168272972, -0.026087718084454536, -0.028486087918281555, 0.00038530086749233305, -0.011959489434957504, -0.0510052926838398, 0.026164434850215912, -0.01543808076530695, 0.004451547749340534, -0.0010555546032264829, -0.007389887236058712, 0.018663061782717705, -0.028417784720659256, -0.02335570566356182, -0.0010454803705215454, -0.011926454491913319, 0.01047021709382534, 0.0521685928106308, -0.006757299415767193, 0.051787860691547394, 0.05228167027235031, 0.0225490964949131, 0.046297695487737656, -0.006823503877967596, -0.015213633887469769, -0.062155015766620636, -0.027318038046360016, 0.0906403437256813, 0.026625413447618484, -0.007509247399866581, 0.061544038355350494, -0.0037752932403236628, -0.11337825655937195, -0.08112145215272903, -0.05367490276694298, 0.08764848858118057, 0.016073182225227356, 0.016664206981658936, -0.00645128358155489, -0.043572504073381424, -0.13063812255859375, -0.21245333552360535, -0.2082761526107788, 0.1634599268436432, -0.10850046575069427, 0.22943030297756195, 0.19229669868946075, 0.18115149438381195, 0.04036615788936615, -1.9743435382843018, -1.9800000190734863, -0.03002495877444744, 0.020217671990394592, -0.028799502179026604, 0.009242367930710316, 0.02368636056780815, -0.013231550343334675, 0.015373408794403076, 0.03200460970401764, -9.823328582569957e-05, 0.050634246319532394, -0.010220667347311974, -0.0015563443303108215, -0.013728288002312183, -0.004169801250100136, -0.04923936724662781, 0.051988836377859116, 0.1187177374958992, 0.07043760269880295, 0.056116607040166855, 0.05113193765282631, 0.03182065114378929, -0.007108403369784355, -0.02102799527347088, -0.03664158284664154, 0.050160765647888184, 0.11647364497184753, 0.10691119730472565, 0.05007389560341835, 0.07703232020139694, 0.003607582300901413, 0.0003944316995330155, 0.019599925726652145, 0.16371601819992065, 0.12451191991567612, 0.11478684842586517, 0.030997583642601967, 0.004924689885228872, -0.03712399676442146, 0.03356426581740379, -0.023018209263682365, 0.20101118087768555, 0.2477213740348816, 0.16536763310432434, 0.18844172358512878, 0.0547337643802166, -0.005616436246782541, 0.04686649516224861, -0.07503164559602737, 0.3344632685184479, 0.08293962478637695, -0.0014653864782303572, 0.08584647625684738, 0.0434439554810524, 0.006911715492606163, 0.019974498078227043, -0.05742580443620682, 0.2374550998210907, 0.18364740908145905, 0.22990180552005768, 0.03742457181215286, -0.02325870469212532, 0.10320071130990982, 0.14074768126010895, -0.0755905956029892, 0.3638775050640106, 0.22778859734535217, 0.17406342923641205, -0.08728217333555222, 0.06984307616949081, -0.12345205247402191, -0.09641075879335403, -0.1173466145992279, -0.03989465534687042, -0.06971319019794464, 0.009243440814316273, 0.013041363097727299, 0.009055324830114841, 0.002447850536555052, 0.16199274361133575, 0.07903474569320679, -0.06650345772504807, -0.018731683492660522, -0.10385838150978088, 0.03256169706583023, 0.01671835035085678, 0.05374651774764061, 0.1635240763425827, 0.1184501126408577, 0.037658028304576874, -0.047633279114961624, 0.015736045315861702, -0.04908145219087601, 0.076375313103199, 0.14648982882499695, 0.16691523790359497, 0.10340798646211624, 0.015363026410341263, 0.03325410187244415, -0.055384065955877304, 0.04992975667119026, 0.010209896601736546, 0.11762538552284241, 0.0614263191819191, 0.14715054631233215, 0.054414957761764526, 0.0770609974861145, 0.036495838314294815, 0.05545864626765251, 0.01275695115327835, 0.0885641798377037, 0.0788852721452713, 0.024927038699388504, -0.012235459871590137, 0.035060059279203415, 0.03463733196258545, 0.07181047648191452, -0.02156073972582817, -0.02512790448963642, -0.013995294459164143, -0.06016493961215019, 0.1511356383562088, 0.07924993336200714, 0.022715430706739426, -0.028899429365992546, 0.006684783846139908, 0.06529874354600906, 0.08977048099040985, -0.09999345242977142, 0.053437866270542145, 0.08017712086439133, 0.16062122583389282, 0.06909993290901184, 0.03445885330438614, -0.17930985987186432, -0.16665403544902802, 0.00047829761751927435, 0.22617071866989136, 0.3115154504776001, 0.29014986753463745, 0.21030345559120178, 0.2064027041196823, 0.12741324305534363, 0.07895462214946747, 0.08802235871553421, 0.2654021084308624, 0.3517226278781891, 0.3237573206424713, 0.24656707048416138, 0.17628200352191925, 0.07368949055671692, 0.07417775690555573, 0.034928325563669205, 0.2512180507183075, 0.2827044427394867, 0.2987988591194153, 0.28709137439727783, 0.25293484330177307, 0.10260256379842758, 0.08438718318939209, 0.08008856326341629, 0.36265215277671814, 0.38078129291534424, 0.40059491991996765, 0.2924742102622986, 0.22521071135997772, 0.08799052238464355, 0.008224109187722206, 0.10253644734621048, 0.4495180547237396, 0.4180523157119751, 0.3669421672821045, 0.38077065348625183, 0.283388614654541, 0.2061399221420288, 0.021076688542962074, 0.08388175815343857, 0.5021583437919617, 0.4347366690635681, 0.43850159645080566, 0.34729719161987305, 0.30460023880004883, 0.23142750561237335, 0.03450610861182213, 0.10671420395374298, 0.5752002596855164, 0.5258828997612, 0.4774472117424011, 0.4976285994052887, 0.3756984770298004, 0.22577175498008728, 0.08633683621883392, -0.0118986451998353, 0.4450869560241699, 0.4655945897102356, 0.48729076981544495, 0.4358815848827362, 0.36951175332069397, 0.1942916214466095, 0.18373362720012665, -0.03509535267949104, 0.6502393484115601, 0.6317749619483948, 0.6162316203117371, 0.5496881008148193, 0.5797541737556458, 0.48442280292510986, 0.5140456557273865, 0.6035438776016235, 0.7385887503623962, 0.6974225640296936, 0.6036379933357239, 0.5538676381111145, 0.549466609954834, 0.5270217657089233, 0.49475815892219543, 0.5422678589820862, 0.7205266356468201, 0.7558478713035583, 0.5984398126602173, 0.5819733738899231, 0.5725611448287964, 0.516693651676178, 0.621833086013794, 0.5547872185707092, 0.625840425491333, 0.7435535192489624, 0.7124669551849365, 0.6622553467750549, 0.5381708741188049, 0.4468732178211212, 0.44717246294021606, 0.5597761869430542, 0.8429579138755798, 0.7981811761856079, 0.7029000520706177, 0.5598428249359131, 0.6261268258094788, 0.5477005243301392, 0.4987790882587433, 0.45359787344932556, 0.8883018493652344, 0.9097582697868347, 0.9068198800086975, 0.7099674344062805, 0.5739482045173645, 0.3712337911128998, 0.3830735683441162, 0.31581711769104004, 0.9132001996040344, 0.8914311528205872, 0.899037778377533, 0.7124250531196594, 0.5624696612358093, 0.39266031980514526, 0.2718947231769562, 0.2737988829612732, 0.8859493136405945, 0.733772873878479, 0.6468939185142517, 0.6896840929985046, 0.6636085510253906, 0.5417390465736389, 0.41334810853004456, 0.3717399537563324, 0.07656838744878769, 0.1170511320233345, 0.09182378649711609, 0.10798437148332596, 0.06653952598571777, 0.01137148030102253, 0.02605385147035122, 0.0414353646337986, 0.055171240121126175, 0.1010340079665184, 0.06533555686473846, 0.03467990830540657, -0.025159616023302078, 0.0014862759271636605, 0.06533181667327881, 0.00707778288051486, 0.005569005385041237, 0.00986285600811243, 0.10137218236923218, 0.06972628831863403, 0.05654706433415413, 0.0921291708946228, 0.09238220006227493, 0.1444961130619049, 0.10167879611253738, 0.09219053387641907, 0.0926293283700943, 0.04163820296525955, 0.05749475210905075, 0.09477374702692032, 0.08231289684772491, 0.2202221006155014, 0.19517041742801666, 0.1749606877565384, 0.115692637860775, 0.10647139698266983, 0.04819870740175247, 0.06860022246837616, -0.09621886909008026, 0.09109971672296524, 0.17653600871562958, 0.21114350855350494, 0.22420161962509155, 0.26470157504081726, 0.1953989863395691, -0.18039552867412567, -0.443791925907135, -0.5652943849563599, 0.2866806387901306, 0.06627223640680313, 0.27538567781448364, 0.16469258069992065, 0.3597058057785034, -1.9718198776245117, -0.9183389544487, -0.19132296741008759, -0.1399696171283722, 0.017905069515109062, -0.3074752390384674, 0.36978524923324585, 0.020978547632694244, -1.6901613473892212, -1.0402847528457642, 0.06484926491975784, -0.00341697596013546, -0.01672222465276718, -0.016494618728756905, -0.03542400896549225, 0.020272210240364075, 0.004063256084918976, 0.036037445068359375, 0.0053728120401501656, -0.4120239019393921, -0.4990856945514679, -0.46038955450057983, -0.5751335024833679, -0.07442889362573624, 0.027059143409132957, 0.06348636746406555, 0.18262261152267456, -0.3313641846179962, -0.33870577812194824, -0.25898027420043945, -0.2714725434780121, -0.11355679482221603, 0.0684438943862915, 0.1364753246307373, 0.14148832857608795, -0.20268693566322327, -0.16459868848323822, -0.2166799008846283, -0.1399051696062088, -0.06397100538015366, 0.030369363725185394, 0.09901147335767746, 0.12404868751764297, -0.13390842080116272, -0.1367284208536148, -0.14548943936824799, -0.10806038975715637, -0.025484712794423103, 0.08382496237754822, 0.09180106967687607, 0.10376574099063873, -0.18322816491127014, -0.2778933644294739, -0.23230606317520142, -0.060275379568338394, 0.021756095811724663, 0.11257164180278778, 0.13560734689235687, 0.08615195006132126, -0.1581486016511917, -0.33035531640052795, -0.29348763823509216, -0.06524138897657394, 0.07318603992462158, 0.16076365113258362, 0.19094473123550415, 0.14036381244659424, -0.0297921821475029, -0.020806167274713516, -0.020115947350859642, 0.03470182418823242, -0.028903549537062645, -0.008011930622160435, 0.0007647848105989397, -0.03432759270071983, 0.02825559861958027, -0.13454952836036682, -0.09435773640871048, -0.08702700585126877, 0.048889320343732834, 0.22922497987747192, 0.17101991176605225, 0.13736355304718018, -0.06784100085496902, -0.1187867820262909, 0.032130736857652664, -0.06589150428771973, -0.01470893807709217, -0.04907308891415596, 0.09577121585607529, 0.20138214528560638, -0.03176462650299072, -0.08934740722179413, -0.14050522446632385, -0.13682544231414795, -0.02505466714501381, 0.10348539799451828, 0.11439444124698639, 0.2477266490459442, -0.09192580729722977, -0.05033597722649574, -0.06541196256875992, -0.07674852013587952, -0.06571216136217117, 0.09675700217485428, 0.05534103885293007, 0.10180637240409851, -0.0011163303861394525, -0.09430994093418121, -0.047686319798231125, -0.004028500989079475, -0.011506929062306881, 0.007985970005393028, 0.10527002811431885, 0.16102255880832672, 0.0237782821059227, -0.10446330904960632, -0.0697481632232666, -0.04102370887994766, -0.03157168999314308, 0.04472453519701958, 0.09923955798149109, 0.061799921095371246, 0.0219888798892498, -0.04907841607928276, -0.1424870640039444, -0.04841146245598793, 0.027051184326410294, 0.10978125780820847, 0.05907847359776497, 0.14568902552127838, -0.18274633586406708, 0.025559332221746445, 0.029097670689225197, 0.06112642586231232, 0.06351478397846222, -0.004952488001435995, 0.09709616005420685, 0.17767485976219177, 0.1803606152534485, -0.06651268899440765, 0.054885461926460266, -0.009020091034471989, -0.045842308551073074, -0.07925925403833389, -0.012805720791220665, 0.10154775530099869, -0.05098310858011246, 0.013028212822973728, -0.06205597519874573, -0.09958232939243317, -0.08063924312591553, 0.025620590895414352, 0.09749112278223038, 0.08227156847715378, 0.028246641159057617, -0.1000375747680664, -0.1470797210931778, -0.13341259956359863, -0.01925267092883587, 0.02177133597433567, 0.053099241107702255, 0.0519111193716526, -0.10586027055978775, -0.027176475152373314, -0.09341081231832504, -0.06317122280597687, -0.07975666970014572, 0.052785810083150864, 0.02017889730632305, 0.12657392024993896, -0.03177887946367264, -0.14476849138736725, -0.011272209696471691, -0.05776437744498253, 0.005890099331736565, 0.03405245766043663, 0.18347828090190887, 0.08042973279953003, -0.08635086566209793, -0.07760551571846008, -0.1664922684431076, -0.01787775754928589, -0.000983360456302762, 0.07057807594537735, 0.012898176908493042, 0.07317553460597992, -0.09423927962779999, -0.19979678094387054, -0.16175870597362518, -0.04176256060600281, 0.05363689735531807, 0.009935008361935616, 0.06147086247801781, 0.059229776263237, -0.09508146345615387, -0.07332085818052292, 0.04358682781457901, 0.021637218073010445, -0.03106623888015747, -0.030688133090734482, -0.023839278146624565, 0.11003725230693817, 0.08907025307416916, 0.03711701184511185, 0.07970308512449265, 0.0816318616271019, 0.010718990117311478, 0.13161742687225342, 0.08835126459598541, 0.10389596968889236, 0.06510799378156662, 0.0955558493733406, 0.15765103697776794, 0.1216120570898056, 0.1356278657913208, 0.21129366755485535, 0.2059166431427002, 0.14141926169395447, 0.04789960756897926, 0.08385694772005081, 0.1122819185256958, 0.07168518006801605, 0.15293234586715698, 0.15703795850276947, 0.06858000159263611, 0.10786282271146774, 0.06474042683839798, 0.05700329691171646, 0.10820882767438889, 0.1384064108133316, 0.05174238607287407, 0.13200999796390533, 0.1467462033033371, 0.13969920575618744, 0.11429747194051743, 0.05749676004052162, 0.03374873846769333, 0.11271880567073822, 0.0962427631020546, 0.11551729589700699, 0.1257738173007965, 0.09960310906171799, 0.139633446931839, 0.08530626446008682, 0.15537801384925842, 0.14604638516902924, 0.1039542481303215, 0.18004222214221954, 0.19609446823596954, 0.1316138356924057, 0.2942606806755066, 0.1846621334552765, 0.215846985578537, 0.2010338455438614, 0.21927176415920258, 0.23876887559890747, 0.14970262348651886, 0.15661628544330597, 0.041410546749830246, 0.23681500554084778, 0.23986348509788513, 0.2017858624458313, 0.12717211246490479, 0.1483938992023468, 0.05189976841211319, 0.12592647969722748, 0.06296852976083755, 0.13829325139522552, 0.13454656302928925, 0.11817765980958939, 0.1771063357591629, 0.15797996520996094, 0.1383652687072754, 0.1623767614364624, 0.15592293441295624, 0.09562470763921738, 0.1271253526210785, 0.10438957810401917, -0.03953162580728531, 0.012989163398742676, -0.017135970294475555, 0.1640160232782364, 0.1080123633146286, 0.15191559493541718, 0.20154134929180145, 0.0652376189827919, -0.04777016118168831, -0.08453910052776337, 0.09231001883745193, 0.14692126214504242, 0.2380572110414505, 0.21414536237716675, 0.26339977979660034, 0.05108298733830452, -0.008321107365190983, 0.03395731374621391, 0.048251308500766754, 0.02801346778869629, 0.23899005353450775, 0.276371568441391, 0.14645591378211975, 0.11816230416297913, 0.09082452207803726, 0.06205820292234421, 0.10153943300247192, 0.13584217429161072, 0.2152489423751831, 0.13657426834106445, 0.21465516090393066, 0.18898135423660278, 0.15177631378173828, 0.10226860642433167, 0.07661141455173492, 0.13325314223766327, 0.33068209886550903, 0.30993667244911194, 0.10911823064088821, 0.18311280012130737, 0.10919804126024246, 0.11836646497249603, 0.07657269388437271, 0.059050507843494415, 0.4669085741043091, 0.5978372097015381, 0.4726288616657257, 0.3759630620479584, 0.16010095179080963, 0.030736910179257393, 0.01670661009848118, 0.055893540382385254, -0.0470595508813858, -0.03929398953914642, -0.09070170670747757, -0.10728385299444199, -0.005655464716255665, -0.47337713837623596, -1.939602017402649, -1.9800000190734863, -0.1624605506658554, -0.12403044104576111, -0.1348608434200287, -0.10386427491903305, -0.07023758441209793, -1.9674408435821533, -1.9397222995758057, -1.922877550125122, -0.26327139139175415, 0.0008760670316405594, -0.17924240231513977, -0.08612371981143951, -0.10711928457021713, -0.23375564813613892, 0.13357076048851013, -1.7412768602371216, -0.022318486124277115, 0.007997077889740467, -0.023019900545477867, 0.004355054348707199, -0.03437589854001999, 0.10915174335241318, 0.3397291302680969, 0.34706664085388184, -0.03618540242314339, -0.11331960558891296, -0.03643440455198288, 0.022192399948835373, 0.07117967307567596, 0.33303290605545044, 0.4333246946334839, 0.5932443737983704, -0.2639773488044739, -0.26684877276420593, -0.2264089286327362, -0.12262912839651108, 0.10297463834285736, 0.32754895091056824, 0.6282130479812622, 0.6537767648696899, -0.45986703038215637, -0.42050015926361084, -0.3173980414867401, -0.2862793803215027, 0.10869359225034714, 0.4421728551387787, 0.6229296922683716, 0.7890685796737671, -0.6434411406517029, -0.5841517448425293, -0.46151575446128845, -0.4428991675376892, 0.02754746749997139, 0.5197851061820984, 0.638003945350647, 0.8964540958404541], [0.034007683396339417, 0.010700646787881851, 0.006435362156480551, 0.022138865664601326, -0.017686445266008377, -0.013199946843087673, -0.03212794288992882, -0.021698882803320885, 0.09399407356977463, 0.08507318794727325, 0.14885884523391724, 0.12474371492862701, 0.09447954595088959, 0.22828800976276398, 0.23315884172916412, 0.14980606734752655, 0.11616050451993942, 0.1411791294813156, 0.21581177413463593, 0.20014557242393494, 0.17672792077064514, 0.2102571576833725, 0.31396955251693726, 0.1742304265499115, 0.06715743988752365, 0.2273503988981247, 0.30156582593917847, 0.2059503197669983, 0.17724373936653137, 0.15697310864925385, 0.3038133680820465, 0.09771707653999329, 0.11100835353136063, 0.20055003464221954, 0.15359824895858765, 0.13177670538425446, 0.036502446979284286, 0.03783993795514107, 0.08746949583292007, 0.15774761140346527, 0.12285196781158447, -0.02605406567454338, -0.08047761023044586, 0.11037113517522812, -0.24799762666225433, 0.028888341039419174, 0.07582900673151016, 0.06287838518619537, 0.23932364583015442, -0.06647989153862, -0.07650291919708252, 0.044357817620038986, -0.04218378663063049, -0.017728105187416077, 0.3053193688392639, 0.5402371883392334, 0.03009948320686817, 0.0038651935756206512, 0.030562374740839005, -0.007620485499501228, -0.035976093262434006, -0.03161066770553589, -0.008330347947776318, -0.012152396142482758, 0.5988104343414307, 0.3490355610847473, 0.4131910502910614, 0.39551597833633423, 0.4536382257938385, 0.32354265451431274, 0.32726001739501953, 0.44810107350349426, 0.48930975794792175, 0.32053664326667786, 0.4536994695663452, 0.2800328731536865, 0.3704891800880432, 0.33362841606140137, 0.33495253324508667, 0.4665212333202362, 0.37428078055381775, 0.41099846363067627, 0.33192652463912964, 0.368644118309021, 0.37304940819740295, 0.28819411993026733, 0.3112815320491791, 0.39866873621940613, 0.40672579407691956, 0.29106056690216064, 0.34672728180885315, 0.14713972806930542, 0.42840564250946045, 0.2915353775024414, 0.3830104470252991, 0.03914438188076019, 0.341430127620697, 0.38579604029655457, 0.37137073278427124, 0.2881071865558624, 0.12977366149425507, 0.217645063996315, 0.34945082664489746, 0.405900239944458, 0.4823940396308899, 0.3895006477832794, 0.3174383044242859, 0.4252108335494995, 0.4765690863132477, 0.2985058128833771, 0.3794834613800049, 0.4522727429866791, 0.08434603363275528, 0.32897502183914185, 0.6019180417060852, 0.3775583505630493, -0.02789766900241375, 0.02927541732788086, 0.3903614580631256, 0.526797354221344, 0.3201577663421631, 0.052836235612630844, 0.05841881409287453, 0.09209766238927841, 0.39524945616722107, 0.1435447782278061, 0.16383957862854004, 0.4649445712566376, 0.4507087469100952, 0.5027735829353333, 0.4159594178199768, 0.4683130383491516, 0.46319571137428284, 0.39041033387184143, 0.6640461683273315, 0.4969240427017212, 0.45920926332473755, 0.33315005898475647, 0.3475331664085388, 0.4455248713493347, 0.41284510493278503, 0.6349013447761536, 0.2862396836280823, 0.44244256615638733, 0.403501033782959, 0.3721722364425659, 0.39901992678642273, 0.3283095955848694, 0.32316285371780396, 0.30613765120506287, 0.3806323707103729, 0.35850322246551514, 0.30226436257362366, 0.5256296396255493, 0.2529882788658142, 0.34945788979530334, 0.4218149483203888, 0.33140015602111816, 0.5302150249481201, 0.2573014795780182, 0.42014697194099426, 0.15235395729541779, 0.58599853515625, 0.21077485382556915, 0.2469559758901596, 0.3204900622367859, 0.3723025918006897, 0.5230975151062012, 0.3745620846748352, 0.45154574513435364, 0.1897612065076828, 0.2531917989253998, 0.34079140424728394, 0.28067657351493835, 0.356338769197464, 0.3475852310657501, 0.47997161746025085, 0.26576364040374756, 0.3676842749118805, 0.2535203695297241, 0.47180241346359253, 0.2998702824115753, 0.483707457780838, 0.2711038291454315, 0.24079523980617523, 0.3174183964729309, 0.19408921897411346, 0.3960936665534973, 0.1663604974746704, 0.44251683354377747, 0.24454867839813232, 0.22228659689426422, 0.31544846296310425, 0.3457261323928833, 0.28808116912841797, 0.36730465292930603, 0.3279280662536621, 0.2666815221309662, 0.2849893271923065, 0.336590051651001, 0.4620431065559387, 0.27033811807632446, 0.14171335101127625, 0.21159718930721283, 0.19984659552574158, 0.20884650945663452, 0.09508868306875229, 0.39241454005241394, 0.35112330317497253, 0.42606106400489807, 0.2316167801618576, 0.2943810820579529, 0.21554651856422424, 0.2323758453130722, 0.29577144980430603, 0.41006237268447876, 0.30505502223968506, 0.20442160964012146, 0.20586517453193665, 0.019505292177200317, 0.44442489743232727, 0.1423453390598297, 0.12637434899806976, 0.11286326497793198, 0.24958491325378418, 0.2755444347858429, 0.04227380082011223, 0.1883954554796219, -0.0616849884390831, 0.22192144393920898, 0.18895001709461212, 0.4344269335269928, 0.3312532901763916, 0.26893314719200134, 0.16223901510238647, 0.12692423164844513, 0.13072095811367035, 0.16072751581668854, 0.1257048398256302, 0.29552242159843445, 0.3546210825443268, 0.37774747610092163, 0.24850037693977356, 0.3911580443382263, 0.2644379138946533, 0.4280286729335785, 0.38068079948425293, 0.5220733880996704, 0.5321282148361206, 0.42262032628059387, 0.4953971207141876, 0.43164965510368347, 0.43370547890663147, 0.5034498572349548, 0.47649598121643066, 0.5059670209884644, 1.1485317945480347, 1.048370361328125, 1.0964189767837524, 1.1034053564071655, 0.9652791619300842, 1.1479637622833252, 1.164000391960144, 1.0995433330535889, 1.1554844379425049, 1.0948923826217651, 1.045067310333252, 1.0507780313491821, 0.9773415923118591, 1.0860810279846191, 0.857075035572052, 1.0639756917953491, 1.0146002769470215, 0.9675952196121216, 0.9652318358421326, 0.9108309745788574, 0.822910726070404, 0.7011313438415527, 0.7756034135818481, 0.8287264108657837, 0.8879355788230896, 0.9129128456115723, 0.656995952129364, 0.7404128909111023, 0.8061573505401611, 0.22018952667713165, 0.6978992819786072, 0.08662176132202148, 0.9297042489051819, 0.7490570545196533, 0.4981326460838318, 0.6029980778694153, 0.6044296622276306, 0.3723948895931244, 0.34349244832992554, 1.068339228630066, 0.8079758882522583, 0.9328380823135376, 0.525275468826294, 0.6832914352416992, 0.31770509481430054, 0.3320794999599457, 0.9929723739624023, 0.7053336501121521, 0.9573484063148499, 0.7739906907081604, 0.9513947367668152, 0.9118144512176514, 0.8415475487709045, 1.0998125076293945, 1.048197627067566, 1.2294667959213257, 0.9014472365379333, -1.7781840562820435, -1.9155646562576294, 0.8645145893096924, 0.9627751708030701, -1.1120291948318481, 1.039827585220337, 1.068503975868225, 0.9444707632064819, 0.7982025146484375, 0.6340594291687012, 0.7150111794471741, 0.596037745475769, 0.7027415037155151, 0.6599722504615784, 0.8291136622428894, 0.8590186238288879, 0.6698556542396545, 0.6004952788352966, 0.5236163139343262, 0.503744900226593, 0.6569878458976746, 0.631693422794342, 0.7067583799362183, 0.7120680809020996, 0.5582429766654968, 0.5174714922904968, 0.6390956044197083, 0.3996001183986664, 0.49585023522377014, 0.5438394546508789, 0.4432685673236847, 0.6029126048088074, 0.4818460941314697, 0.47297540307044983, 0.046377137303352356, 0.3241167664527893, 0.300566166639328, 0.43928828835487366, 0.014840109273791313, 0.47134342789649963, 0.36572763323783875, 0.33857038617134094, 0.3178953528404236, 0.14023758471012115, 0.32353484630584717, 0.2795042395591736, 0.5356943011283875, -1.8221354484558105, 0.3110932409763336, 0.29716119170188904, 0.27940383553504944, 0.2188594788312912, 0.10578704625368118, 0.04817962273955345, 0.09969325363636017, -1.9746999740600586, 0.4893665611743927, 0.3720725178718567, -0.14572672545909882, 0.15799662470817566, 0.09356962889432907, -0.21737292408943176, 0.4114680588245392, 0.14649257063865662, 0.2721083164215088, 0.4079682528972626, 0.1502068042755127, 0.7461223602294922, 0.2645251750946045, 0.23685027658939362, 0.15684820711612701, 0.035494182258844376, -0.013436904177069664, -0.0028034739661961794, 0.01238288450986147, 0.010157781653106213, 0.022203123196959496, -0.02555369958281517, -0.00790097564458847, 1.8155980110168457, -1.9761099815368652, -0.33621346950531006, -0.5203604102134705, -0.35463106632232666, -0.20857417583465576, -1.9774739742279053, 1.970439076423645, 0.2507457733154297, -0.36475273966789246, 0.17483238875865936, -0.4238121211528778, -0.13496364653110504, 0.12317278236150742, -0.26752203702926636, 0.22835420072078705, -0.10377146303653717, -0.1685943305492401, -0.1184535026550293, -0.2090524435043335, -0.2296426147222519, -0.0499722883105278, -0.23741599917411804, -0.022428026422858238, -0.11394257843494415, -0.10382936149835587, -0.20940856635570526, -0.03244796767830849, -0.1581556648015976, -0.017690863460302353, -0.11424456536769867, -0.03287605196237564, -0.07348568737506866, -0.05763930082321167, -0.13355955481529236, 0.008987393230199814, -0.1583876609802246, -0.047304581850767136, -0.08236930519342422, -0.031343620270490646, -0.07310058921575546, 0.02148517034947872, -0.14686018228530884, 0.12588590383529663, -0.18247205018997192, -0.03181850537657738, -0.11807761341333389, 0.014460735023021698, 0.01892012543976307, -0.027932701632380486, 0.015408677980303764, 0.03119228594005108, 0.030726827681064606, -0.01318950206041336, 0.02960957959294319, -0.0005493351491168141, 0.293491393327713, -0.10499193519353867, -0.6086685061454773, -1.534216046333313, 0.17303088307380676, -0.1360100358724594, -0.24993100762367249, -1.9656054973602295, 0.06681942194700241, -0.3803742229938507, -0.0706883892416954, -0.06042684614658356, 0.019023865461349487, -1.937813401222229, -0.27674317359924316, 0.08267385512590408, 0.020291250199079514, -0.22385402023792267, -0.5927337408065796, -0.14605486392974854, 0.23946614563465118, 0.2536313235759735, -0.3273872435092926, -0.20810818672180176, -0.24164336919784546, 0.061844415962696075, 0.06414878368377686, 0.12412376701831818, -0.36092129349708557, 0.18237140774726868, 0.019180256873369217, 0.011573524214327335, -0.030465522781014442, -0.1571120023727417, -0.10610481351613998, -0.08208952099084854, 0.12598927319049835, 0.06153391674160957, -0.16853094100952148, -0.07402576506137848, -0.11572159826755524, -0.03327760472893715, -0.13531962037086487, -0.08974237740039825, -0.22335503995418549, -0.22251193225383759, 0.03305056318640709, -0.15165390074253082, -0.14803892374038696, -0.15508721768856049, -0.16211636364459991, -0.13824263215065002, -0.029605714604258537, -0.12668123841285706, -0.13749852776527405, -0.356376051902771, -0.33988431096076965, -0.07699368894100189, -0.04267390817403793, -0.12563514709472656, -0.263671338558197, -0.20444001257419586, -0.18839842081069946, -0.15618731081485748, 0.03898077458143234, -1.9573907852172852, -0.01882139965891838, -0.5270631909370422, -0.059358544647693634, -0.37745407223701477, -1.9685996770858765, -0.008137775585055351, -0.12805642187595367, -0.16319571435451508, -0.4960859417915344, -0.12284553796052933, -0.24640551209449768, -0.1633802205324173, -1.9800000190734863, 0.0790681391954422, 0.012516763992607594, -0.289585679769516, -0.23073771595954895, -0.19524610042572021, 0.14896829426288605, -0.09573202580213547, -0.014652660116553307, 0.03691628575325012, -0.3448719382286072, 0.0026474669575691223, -0.225435271859169, -0.04253333806991577, 0.10849778354167938, 0.08519250154495239, -0.14892728626728058, -0.14293493330478668, -0.04085548594594002, -0.0036998677533119917, -0.06392817199230194, -0.019075151532888412, 0.03883980214595795, -0.22097493708133698, 0.10116637498140335, -0.17854048311710358, -0.0683470293879509, -0.19658683240413666, -0.19751472771167755, -0.13820110261440277, -0.1617869734764099, 0.0008507356396876276, -0.3743062913417816, -0.22645150125026703, -0.24846932291984558, -0.09849143773317337, -0.07577433437108994, -0.2202291041612625, -0.16390815377235413, -0.2916446924209595, -0.27356335520744324, -0.32124364376068115, -0.1761176586151123, -0.2791692912578583, -0.19780950248241425, -0.08041725307703018, -0.11808393150568008, -0.16975334286689758, -0.38953933119773865, -0.2796781361103058, -0.5976672172546387, -1.9696218967437744, -1.9800000190734863, -1.9785212278366089, -1.9575709104537964, -1.9699227809906006, -1.9754935503005981, -0.586793839931488, -0.6469584703445435, -1.9799892902374268, -0.6664871573448181, -0.7356113791465759, -0.6510634422302246, -0.8566585183143616, -0.70770263671875, -0.8610345125198364, -0.3725873529911041, -0.4344155192375183, -0.21211223304271698, -0.3025437593460083, -0.16811279952526093, -0.20357678830623627, -0.25377923250198364, -0.3691854476928711, -0.12321273982524872, -0.03567516803741455, 0.09822125732898712, 0.0879356637597084, 0.20490296185016632, 0.11515256017446518, 0.10637626051902771, -0.12263231724500656, -0.11223204433917999, 0.027251051738858223, 0.14382733404636383, 0.05546728894114494, 0.19057248532772064, 0.16066433489322662, 0.08649082481861115, -0.0014567505568265915, -0.2116280496120453, -0.19525906443595886, -0.29031988978385925, -0.06741141527891159, -0.0884661003947258, -0.029902702197432518, -0.10645772516727448, -0.33097097277641296, -0.3151790499687195, -0.3654508590698242, -0.3089107871055603, -0.47622033953666687, -0.4124628007411957, -0.27256080508232117, -0.3577820658683777, -0.4220864772796631, -0.4382818341255188, -0.37208643555641174, -0.41327807307243347, -0.385263055562973, -0.32021191716194153, -0.3061177134513855, -0.41038888692855835, -0.4694412052631378, -0.9129202961921692, -1.897676706314087, -1.8423643112182617, -1.9595738649368286, -1.9483428001403809, -1.9550294876098633, -1.9537489414215088, -1.9380455017089844, -0.9729982018470764, -0.9705595374107361, -1.2406998872756958, -1.240431308746338, -1.318816065788269, -1.2192838191986084, -1.590935468673706, -1.3619028329849243, -0.9214414954185486, -1.1097158193588257, -0.9518315196037292, -0.9366108775138855, -0.8589380383491516, -1.297365665435791, -1.0560954809188843, -1.2081727981567383, -0.9906512498855591, -0.7483010292053223, -0.9256713390350342, -0.8004807829856873, -0.7320728302001953, -0.7840255498886108, -0.954103410243988, -1.138889193534851, -1.0294030904769897, -0.8674830198287964, -0.8624952435493469, -0.9200321435928345, -0.8456880450248718, -0.9742638468742371, -0.9910148978233337, -1.028202772140503, -0.9696628451347351, -1.0778597593307495, -1.3107974529266357, -0.9909655451774597, -1.0068892240524292, -1.021527647972107, -1.2309561967849731, -1.1019378900527954, -1.0816192626953125, -1.1113831996917725, -1.1661063432693481, -1.1919167041778564, -1.2338199615478516, -1.151689887046814, -1.2086594104766846, -1.1297845840454102, -1.1541975736618042, -1.1351051330566406, -1.2064054012298584, -1.1685715913772583, -1.148929238319397, -1.089172601699829, -1.2352250814437866, -1.1363093852996826, 0.6986151337623596, 0.571968674659729, 0.5930806994438171, 0.9536892771720886, 0.9143849611282349, 0.5670863389968872, -1.979805827140808, 0.9334794282913208, 0.8122095465660095, -0.3955380320549011, 0.43362659215927124, 0.5863897204399109, 0.5246068239212036, 0.406610369682312, -1.8606619834899902, 0.15860138833522797, 0.45678427815437317, 0.28786712884902954, 0.5871065855026245, 0.6945681571960449, 0.646230161190033, 0.6976536512374878, 0.6240152716636658, -0.3324575126171112, 0.6497859358787537, 0.7564111351966858, 0.7849068641662598, 0.7236490845680237, 0.7198782563209534, 0.7283884882926941, 0.6648242473602295, 0.4265138506889343, 0.7009978294372559, 0.774018406867981, 0.8519254922866821, 0.9422333836555481, 0.9387699961662292, 0.803666353225708, 0.8230007290840149, 0.864287257194519, 0.677743136882782, 0.6720309853553772, 0.6860591769218445, 0.8287188410758972, 0.9028823971748352, 0.8343967199325562, 0.7042547464370728, 0.6815537810325623, 0.5039584636688232, 0.5660098791122437, 0.6529898047447205, 0.5515788793563843, 0.6739993691444397, 0.5392209887504578, 0.5378583669662476, 0.5614048838615417, 0.5691205263137817, 0.49404773116111755, 0.5251988172531128, 0.5711203813552856, 0.5932502150535583, 0.5142370462417603, 0.3794286847114563, 0.5127184391021729], [-0.0026130294427275658, 0.02812306396663189, 0.017260845750570297, 0.017966732382774353, -0.035473085939884186, 0.008013913407921791, 0.005839827470481396, 0.023844625800848007, -0.001252927235327661, -0.03528272360563278, -0.0050752428360283375, -0.05361073836684227, -0.11373759061098099, -0.003277739742770791, 0.02090444229543209, -0.08430168777704239, 0.0017566110473126173, -0.005806345492601395, -0.043912820518016815, 0.005337207578122616, -0.04984930902719498, 0.47845458984375, -0.07469667494297028, 0.7469114065170288, -0.027592837810516357, -0.0674305409193039, -0.036217864602804184, -0.03872456029057503, 0.08212929219007492, 0.09086746722459793, 0.5780873894691467, 0.02549573965370655, -0.00735102454200387, -0.03705989569425583, -0.022227006033062935, -0.0027546496130526066, 0.10704410821199417, 0.20753397047519684, -1.9795327186584473, 0.036521170288324356, 0.04474877566099167, 0.11699894815683365, 0.08719521015882492, 0.1500682234764099, 0.04759804159402847, 0.10677953064441681, 0.3599925637245178, 0.05086381733417511, -1.9750902652740479, -0.1671900898218155, 1.9730509519577026, -0.03195434436202049, 0.25386714935302734, 0.09169992804527283, 0.15545475482940674, 0.09382757544517517, 0.007438016124069691, 0.03571801632642746, -0.01888897828757763, -0.015434865839779377, -0.0034747507888823748, 0.006643722765147686, 0.01784459687769413, 0.02562289498746395, -0.2704516351222992, -0.3009148836135864, -0.39688968658447266, -0.16350005567073822, -0.2287425994873047, -0.15251196920871735, -0.23208090662956238, -0.18104246258735657, -0.4105308949947357, -0.2826121747493744, -0.2678475081920624, -0.2777402102947235, -0.33635440468788147, 0.2559758424758911, -0.34159383177757263, 0.21703992784023285, -0.2597099244594574, -0.2580438554286957, -0.21634209156036377, -0.1835038959980011, 0.13732677698135376, -0.28176528215408325, -0.2617514133453369, -0.10307848453521729, -0.33751335740089417, -0.267545610666275, -0.201242595911026, -0.16945774853229523, -0.1311044692993164, -0.16824781894683838, 0.202444389462471, -0.22167082130908966, -0.299042284488678, -0.23617401719093323, -0.1652674674987793, -0.11692185699939728, 0.0827590599656105, -0.001002628356218338, -0.2051888257265091, -0.12157268077135086, -0.27364563941955566, -0.20114125311374664, -0.1858188956975937, -0.19674965739250183, -0.17355011403560638, 0.19276662170886993, 0.073768250644207, 0.23640893399715424, -0.34378582239151, -0.25993451476097107, -0.1905738115310669, -0.15377388894557953, -0.21050430834293365, -0.030491767451167107, -0.19178006052970886, -0.03873252868652344, -0.23516014218330383, -0.20263159275054932, -0.44066575169563293, -0.2650458514690399, -0.30996817350387573, -0.08782973140478134, 0.0035243083257228136, 0.08689020574092865, -0.3642215430736542, 0.07172717154026031, -0.2040310949087143, 0.22637946903705597, -0.2178620845079422, 0.009480982087552547, -0.1956590712070465, -0.001837282907217741, 0.00582737335935235, -0.15497274696826935, 0.05513833835721016, -0.2015780806541443, 0.30450811982154846, -0.33679118752479553, 0.04171207547187805, -0.18190693855285645, -0.20646999776363373, -0.07395435124635696, -0.18416978418827057, 0.004380142781883478, -0.15590626001358032, 0.27249816060066223, -0.38552772998809814, 0.384740948677063, -0.10010134428739548, -0.23051448166370392, -0.05193207412958145, -0.18792083859443665, 0.041554056107997894, -0.19875691831111908, 0.38626185059547424, -0.32347413897514343, -0.2864671051502228, -0.0371936559677124, -0.27667585015296936, -0.025082290172576904, -0.21422843635082245, 0.45974406599998474, -0.12954013049602509, 0.44474664330482483, -0.06663261353969574, -0.29287034273147583, -0.05977679789066315, -0.14149002730846405, 0.3460017740726471, -0.22649428248405457, 0.28562837839126587, -0.22364096343517303, -0.30962127447128296, -0.030542653053998947, -0.3422048091888428, 0.2976510226726532, -0.2513728737831116, 0.0706595629453659, -0.24364861845970154, 0.07692864537239075, 0.1452639102935791, -0.3111896812915802, 0.482502281665802, -0.32615926861763, 0.049829695373773575, -0.3531613349914551, 0.131417915225029, -0.21074236929416656, -0.19096481800079346, -0.19395142793655396, -0.18645311892032623, -0.1369885504245758, -0.02739725634455681, -0.11037244647741318, 0.46167638897895813, 0.01884033903479576, -0.23735061287879944, -0.16276174783706665, -0.18558141589164734, -0.18786248564720154, -0.10030625015497208, -0.04553970322012901, 0.3331800103187561, 0.16707277297973633, -0.19165585935115814, -0.13127797842025757, -0.15330645442008972, -0.11963927000761032, -0.075251005589962, -0.001032224390655756, 0.562272846698761, 0.13932108879089355, -0.08509716391563416, -0.01899566501379013, -0.06258431822061539, 0.002069169422611594, 0.13542033731937408, 0.23056335747241974, 0.3903888761997223, 0.6185523271560669, -0.07863396406173706, -0.21838943660259247, -0.12424028664827347, -0.1267700344324112, -0.11761730164289474, 0.06364959478378296, 0.5046238303184509, 0.07875723391771317, -0.11764803528785706, -0.07837910950183868, -0.11900711804628372, -0.11199762672185898, -0.1083207055926323, 0.01690855622291565, 0.3643541634082794, -0.09310571849346161, -0.12495576590299606, -0.10864745080471039, -0.14849095046520233, -0.06513524800539017, -0.03322289139032364, 0.018409397453069687, 0.24692462384700775, 0.0375848114490509, -0.04635106027126312, -0.10767703503370285, -0.0776476263999939, -0.08644941449165344, -0.16586515307426453, -0.04038195684552193, 0.13502945005893707, 0.009299681521952152, 0.03193049505352974, -0.0372038297355175, -0.022142421454191208, 0.12352106720209122, 0.1416519284248352, 0.12154419720172882, 0.32696759700775146, 0.2585546672344208, -0.0614122673869133, -0.05092112720012665, -0.012634474784135818, 0.051740337163209915, 0.33285629749298096, 0.22764889895915985, 0.48786425590515137, 0.4087369740009308, -0.0720202848315239, -0.03678533434867859, 0.02807341143488884, 0.07380486279726028, 0.1601756364107132, 0.5145524740219116, 0.5945985913276672, 0.5612326264381409, -0.009093429893255234, -0.10190115869045258, 0.06571310758590698, 0.2258465737104416, 0.31883788108825684, 0.4682561755180359, 0.4651428163051605, 0.570578396320343, -0.10033591836690903, -0.07370204478502274, 0.045572686940431595, 0.180930033326149, 0.2727934420108795, 0.5134271383285522, 0.6327333450317383, 0.6195818781852722, -0.06428699195384979, -0.0734480768442154, 0.10832419246435165, 0.20211520791053772, 0.3951635956764221, 0.28960326313972473, 0.5895269513130188, 0.3800238370895386, -0.07850990444421768, -0.04553648829460144, -0.0306965634226799, 0.07799995690584183, 0.18821288645267487, 0.25928547978401184, 0.5055868625640869, 0.3610594868659973, -0.18280965089797974, -0.10316766053438187, 0.15144388377666473, 0.10451247543096542, 0.1423802524805069, 0.2805348038673401, 0.5408321022987366, 0.3453335762023926, 0.08486331254243851, 0.3350957930088043, 0.3678816854953766, 0.2384786158800125, 0.3533579111099243, 0.4257092773914337, 0.25619298219680786, 0.333313524723053, 0.08241160959005356, 0.13486649096012115, 0.16584812104701996, 0.23068256676197052, 0.3416008949279785, 0.38581860065460205, 0.39171096682548523, 0.39549532532691956, -0.02221502549946308, 0.008297559805214405, -0.016325311735272408, 0.20216645300388336, 0.3943870961666107, 0.5254233479499817, 0.7185103893280029, 0.6629975438117981, -0.1339138001203537, -0.09402962774038315, 0.010829721577465534, 0.12746775150299072, 0.26926755905151367, 0.5855345726013184, 0.45876792073249817, 0.7717645764350891, -0.01869451254606247, -0.11033440381288528, 0.03993510082364082, 0.05098741501569748, 0.10201922804117203, 0.3690761923789978, -1.9739822149276733, 0.7523838877677917, -0.1430000364780426, -0.0622502937912941, -0.02560761757194996, 0.05342774838209152, 0.11169736087322235, 0.23931744694709778, 0.1648828387260437, 0.2568991482257843, -1.9037688970565796, -0.20007002353668213, 0.04599853977560997, -0.06880761682987213, 0.15967845916748047, 0.03973394259810448, 0.1556243598461151, 0.18621636927127838, -0.3162928521633148, -1.267776370048523, -0.2476011961698532, 0.023946043103933334, 0.0635509192943573, 0.15237972140312195, 0.101077139377594, -0.11074907332658768, -0.030545933172106743, -0.012922610156238079, 0.007313149515539408, 0.024191157892346382, 0.03332643210887909, -0.01454679761081934, 0.013496932573616505, 0.03540150821208954, -1.9332513809204102, 0.15403172373771667, -0.03301747143268585, -0.053393106907606125, 0.0018072380917146802, 0.14837408065795898, 0.10587296634912491, 0.12457229942083359, -0.06242111697793007, 0.045322682708501816, 0.055716682225465775, 0.08533917367458344, 0.08256258070468903, -0.029782982543110847, 0.06437083333730698, 0.17163677513599396, 0.026132604107260704, 0.04129272326827049, 0.06442385166883469, 0.048334427177906036, 0.06569211184978485, 0.018585678189992905, -0.15615710616111755, 0.19244085252285004, 0.04799702763557434, 0.07585157454013824, 0.04589800536632538, 0.010375370271503925, 0.06666824966669083, -0.44816774129867554, 0.308483749628067, -0.8527656197547913, 0.04320484399795532, 0.07809712737798691, 0.0031482770573347807, -0.0012972765835002065, 0.22434087097644806, -0.022273404523730278, 0.1336156278848648, 0.020141569897532463, 0.042067836970090866, -0.0029345108196139336, 0.0052534230053424835, 0.08958122134208679, 0.09508012980222702, -0.002973123686388135, 0.1734948456287384, 0.03579629585146904, 0.00029554966022260487, 0.00595681369304657, -0.00935635156929493, -0.01384737528860569, 0.034413956105709076, 0.005077645182609558, -0.015131650492548943, 0.025591261684894562, 0.3444996774196625, 0.5699204206466675, 0.34004056453704834, 0.17422045767307281, 0.27895593643188477, 0.2536528408527374, 0.3804445266723633, 0.08742672950029373, 0.49289387464523315, 0.4473508596420288, 0.30812859535217285, 0.2059544324874878, 0.3043636381626129, -0.07641182094812393, 0.3140145540237427, -0.0686977431178093, 0.3202451467514038, 0.2862398624420166, 0.2239837646484375, 0.10971464216709137, -0.21744924783706665, 0.11497801542282104, 0.03057223930954933, 0.42654040455818176, 0.2777335047721863, 0.24694594740867615, 0.18734215199947357, 0.17305326461791992, 0.12752477824687958, 0.2805459499359131, 0.1771143674850464, 0.23170506954193115, 0.27789074182510376, 0.26882871985435486, 0.2563721239566803, 0.20753446221351624, -0.12406313419342041, 0.2951115667819977, 0.2989436686038971, 0.12595975399017334, 0.28978636860847473, 0.2250291109085083, 0.1733197271823883, 0.1904527097940445, 0.3596186935901642, -0.09719359874725342, 0.31677791476249695, -0.26348620653152466, 0.3268924951553345, 0.23956064879894257, 0.29196682572364807, 0.21444804966449738, 0.18351230025291443, 0.08053942769765854, 0.06572189927101135, 0.23090200126171112, 0.5759803056716919, 0.2516643702983856, 0.3718256652355194, 0.22512787580490112, 0.19165122509002686, 0.334928959608078, -0.005468738730996847, 0.4102123975753784, 0.23408834636211395, 0.060959018766880035, 0.4532351791858673, -0.13623522222042084, 0.4616246223449707, -0.16805137693881989, 0.2624221444129944, -0.039413925260305405, 0.15113703906536102, 0.3715271055698395, -0.11010085791349411, 0.4600532352924347, -0.35421404242515564, 0.33265283703804016, -0.06483019888401031, 0.24145396053791046, 0.27487727999687195, -0.037327684462070465, 0.31287214159965515, 0.003014100482687354, 0.34849148988723755, -0.6507330536842346, 0.3427084684371948, -0.2607765793800354, 0.06776086986064911, 0.28619369864463806, -0.041355524212121964, 0.24686212837696075, -0.09184989333152771, 0.41700953245162964, -0.10670831799507141, 0.3770686686038971, 0.325968861579895, 0.03464571759104729, 0.22792775928974152, -0.06291336566209793, 0.2536254823207855, -0.17485451698303223, 0.6277039647102356, -0.3702017366886139, 0.003005772130563855, 0.2720518112182617, -0.0875922441482544, 0.19703440368175507, -0.421036034822464, 0.343012273311615, -0.004161577671766281, 0.32272225618362427, 0.27032071352005005, -0.07823899388313293, 0.22599822282791138, -0.31148388981819153, 0.2942860424518585, -0.03970719501376152, 0.2781108319759369, -0.008670251816511154, -0.04346078634262085, 0.2813434898853302, -0.3502959907054901, 0.3042829930782318, -0.028139786794781685, 0.28333815932273865, 0.07571636885404587, 0.27413874864578247, 0.07678721845149994, 0.1946978121995926, 0.10889836400747299, 0.14004914462566376, 0.18169663846492767, -0.03399393707513809, -0.01744244433939457, 0.0630766972899437, 0.1068987175822258, 0.05670154094696045, 0.059660106897354126, -0.005016949027776718, 0.02789442613720894, -0.03637627884745598, -0.14537778496742249, -0.014292510226368904, 0.25135284662246704, 0.15099181234836578, 0.13071872293949127, 0.19732606410980225, 0.10933177173137665, 0.03369385004043579, -0.502284586429596, -0.03741154447197914, 0.1353275030851364, 0.11134172230958939, -0.020627057179808617, -0.02472841553390026, -0.12924107909202576, -0.3009651303291321, -0.13558191061019897, -0.5108687877655029, 0.14400969445705414, 0.22837352752685547, 0.12388863414525986, 0.12632349133491516, 0.0321684256196022, 0.11343174427747726, -0.5007728934288025, -0.0800076425075531, 0.24038657546043396, 0.17870312929153442, 0.22051921486854553, 0.19721923768520355, 0.18950431048870087, 0.11285894364118576, -0.3737731873989105, -0.2213674634695053, 0.26006317138671875, 0.1885380744934082, 0.1668098121881485, 0.18659619987010956, 0.22061975300312042, 0.05926467850804329, -0.3391697108745575, -0.056396301835775375, 0.21617825329303741, 0.24335746467113495, 0.1731077879667282, 0.12311307340860367, 0.12477687001228333, 0.10202192515134811, -0.1920561045408249, -0.01021505892276764, -0.024212991818785667, -0.2727421522140503, -0.08925911039113998, -0.2852672040462494, -0.08605948835611343, -0.17341957986354828, -0.3690047264099121, -0.20894338190555573, 0.008492601104080677, 0.024098966270685196, -0.0998753160238266, -0.19814808666706085, -0.2804357409477234, -0.22454717755317688, -0.5114399194717407, -0.4305862486362457, 0.0790916308760643, 0.006756286136806011, 0.04218405857682228, -0.12127019464969635, -0.11762124300003052, -0.5434200167655945, -0.5062649250030518, -0.2441612184047699, -0.04538409039378166, 0.13908731937408447, -0.12649089097976685, -0.20560716092586517, -0.24702760577201843, -0.38669466972351074, 0.19333325326442719, -0.6100867390632629, 0.03053489699959755, -0.01961396634578705, -0.03909372538328171, -0.1843506097793579, -0.18081536889076233, -0.3017473816871643, -0.5199897885322571, -0.2760373651981354, -0.013840270228683949, 0.04532543197274208, -0.1188940703868866, -0.05917224660515785, -0.3394559621810913, -0.1602228730916977, -0.3809486925601959, -0.36133527755737305, 0.03627171367406845, -0.01647312566637993, 0.018597133457660675, -0.2392280399799347, -0.09836654365062714, -0.26048311591148376, -0.3550654649734497, -0.3640909194946289, -0.035308852791786194, 0.07195743173360825, -0.19436202943325043, -0.06712724268436432, -0.13055165112018585, -0.12212645262479782, -0.24212390184402466, -0.35747814178466797, -1.9784469604492188, -0.04171086102724075, 0.27353423833847046, 0.3091856837272644, 0.4298677444458008, 0.43276357650756836, 0.5726581811904907, 0.07826409488916397, -1.5205622911453247, 0.1982213854789734, 0.02946670725941658, 0.37895914912223816, 0.25916776061058044, -0.10449831187725067, -0.19131292402744293, 0.03428981453180313, 0.20019172132015228, 0.2448369264602661, 0.3793012797832489, 0.3776090145111084, 0.19084538519382477, -0.19064415991306305, -0.1674635112285614, -0.15588034689426422, 0.4585525393486023, 0.4241493344306946, 0.4292014241218567, 0.3797416388988495, 0.2004123032093048, -0.23209337890148163, -0.5599803328514099, -0.24035029113292694, 0.5535657405853271, 0.47009462118148804, 0.44234296679496765, 0.34444618225097656, 0.1558380424976349, 0.10237292945384979, -0.16996170580387115, -0.06669393926858902, 0.42470526695251465, 0.4608456790447235, 0.3815656900405884, 0.2751266062259674, 0.31829530000686646, 0.1454692780971527, 0.11257702857255936, 0.13330312073230743, 0.28907859325408936, 0.27989518642425537, 0.36336255073547363, 0.3671894669532776, 0.23652011156082153, 0.2384497970342636, 0.21484439074993134, 0.18380053341388702, 0.15141920745372772, 0.16217511892318726, 0.23034103214740753, 0.2620733678340912, 0.21761773526668549, 0.22239935398101807, 0.25636857748031616, 0.10873568058013916], [-0.004068646114319563, 0.009936739690601826, 0.020581606775522232, -0.012385156005620956, -0.023262791335582733, 0.026930855587124825, -0.004210891202092171, -0.03415338322520256, -0.06543854624032974, -0.07346633821725845, 0.02536439336836338, 0.06376053392887115, -0.009873020462691784, 0.000500097346957773, -0.007542122155427933, -0.02604859508574009, -0.12465262413024902, 0.022689810022711754, 0.03530283644795418, -0.01000190433114767, 0.00692880479618907, -0.04067063704133034, -0.07626352459192276, -0.04053152725100517, 0.0853315144777298, -0.004639629740267992, -0.06706305593252182, 0.017818229272961617, -0.029309947043657303, -0.05073004588484764, -0.035587769001722336, -0.04660613834857941, 1.9718215465545654, -0.5570021867752075, 0.17016680538654327, -0.04044146090745926, -0.07179883122444153, -0.07125825434923172, -0.07568623125553131, -0.06955281645059586, 1.8800058364868164, -0.530010998249054, 0.09660006314516068, -0.1274772733449936, -0.10367105156183243, -0.034356046468019485, -0.15379709005355835, -0.11551277339458466, 1.841467261314392, -0.31234583258628845, 0.09000307321548462, 0.03686380386352539, -0.15974155068397522, -0.18781636655330658, -0.04079160839319229, -0.116933673620224, 0.03003610484302044, -0.02797720953822136, 0.01691894233226776, -0.0037468266673386097, 0.03472357243299484, -0.016578540205955505, -0.015862207859754562, -0.01167771965265274, -0.11452888697385788, -0.026685623452067375, -0.016172081232070923, -0.00451380992308259, -0.0555744506418705, 0.021503861993551254, 0.02559930458664894, -0.02112944982945919, -0.11456091701984406, -0.09109551459550858, -0.0489463247358799, 0.0017036674544215202, 0.008227669633924961, -0.0072363195940852165, -0.06427878886461258, -0.04427464306354523, 0.07197608798742294, -0.04151099920272827, 0.04259674251079559, -0.13127176463603973, 0.06375082582235336, 0.002880930434912443, -0.07534664869308472, -0.03339187800884247, -0.3604487180709839, -0.37532737851142883, -0.038102298974990845, 0.0039984118193387985, -0.04473699629306793, -0.013533765450119972, 0.019390640780329704, -0.0153791643679142, -0.9623344540596008, 0.1251981258392334, -0.34622693061828613, -0.08209377527236938, 0.06059422343969345, -0.08525462448596954, -0.059739526361227036, -0.00978918094187975, 0.05581996589899063, -0.2887178659439087, -0.21398305892944336, 0.03630314767360687, -0.15740780532360077, -0.028205394744873047, -0.0065034800209105015, 0.007148146163672209, 0.3378336429595947, -0.12351790070533752, -0.3984500467777252, -0.05608528107404709, -0.013047702610492706, -0.019212093204259872, -0.14607715606689453, 0.05133301392197609, -1.872069001197815, -0.43860456347465515, -0.04798844829201698, -0.12305958569049835, -0.10451900213956833, 0.09692548215389252, 0.038360532373189926, -0.031943514943122864, -0.10749460011720657, -0.12291378527879715, -0.09902578592300415, -0.07005226612091064, -0.14165113866329193, -0.17957529425621033, -0.2534518539905548, -0.09326618909835815, -0.08225548267364502, -0.07737612724304199, -0.016361165791749954, -0.13073787093162537, -0.167446568608284, -0.15397843718528748, -0.09829051047563553, -0.058544453233480453, -0.20698389410972595, -0.12114202976226807, -0.08800499886274338, -0.18401609361171722, -0.1843465119600296, -0.0921061784029007, -0.0651353970170021, -0.09632750600576401, -0.5728418231010437, -0.2912793457508087, -0.40270331501960754, -0.24662800133228302, -0.15607856214046478, -0.06362059712409973, -0.13156180083751678, -0.0907004252076149, -0.3861463963985443, 0.012342187575995922, -0.659679651260376, -0.2445322722196579, -0.05043734237551689, -0.21654947102069855, -0.09380020201206207, -0.0765695571899414, 0.11418900638818741, -0.5277078747749329, -0.27600720524787903, -0.22796258330345154, -0.0768776684999466, -0.16679887473583221, -0.17050829529762268, -0.09175193309783936, -0.4825640618801117, -0.5605398416519165, -0.05651906132698059, -0.013122701086103916, -0.1583503931760788, -0.14295339584350586, -0.08895517885684967, -0.13443982601165771, -0.1740957647562027, -0.12015931308269501, -0.5866878032684326, -0.09766663610935211, 0.08446847647428513, -0.14218348264694214, -0.20711000263690948, -0.021438946947455406, -0.24279165267944336, -0.19877853989601135, -0.18826445937156677, -0.18405288457870483, -0.19176754355430603, -0.12754158675670624, -0.250375360250473, -0.17713379859924316, -0.20822536945343018, -0.2344054877758026, -0.17226721346378326, -0.15825597941875458, -0.16734477877616882, -0.13812273740768433, -0.24519312381744385, -0.16974419355392456, -0.17832225561141968, -0.18474234640598297, -0.16667592525482178, -0.11552675068378448, -0.12062323093414307, -0.13259942829608917, -0.1902064085006714, -0.1746348738670349, -0.20873743295669556, -0.31660518050193787, -0.2148682177066803, -0.1462518572807312, -0.1750052273273468, -0.15039725601673126, -0.14317774772644043, -0.18564091622829437, -0.12068871408700943, -0.45075374841690063, -0.22846859693527222, -0.24470369517803192, -0.2855866551399231, -0.2285599410533905, -0.19499124586582184, -0.20645765960216522, 0.1635865420103073, -0.4882180988788605, -0.448128879070282, -0.23351486027240753, -0.2801803648471832, -0.2023800015449524, -0.19376219809055328, -0.19351889193058014, -0.08474676311016083, -0.3471396267414093, -0.3367478549480438, -0.20874886214733124, -0.2977699339389801, -0.23723411560058594, -0.23169048130512238, -0.24798066914081573, -0.0837409645318985, -0.34646639227867126, -0.2759566009044647, -0.17598558962345123, -0.19112449884414673, -0.2401372194290161, -0.19172821938991547, -0.29379022121429443, -0.28455910086631775, -0.2989404499530792, -0.27482518553733826, -0.27701348066329956, -0.31392520666122437, -0.3434719443321228, -0.3771541118621826, -0.4835323691368103, -0.2043861746788025, -0.3416326642036438, -0.236829474568367, -0.28578516840934753, -0.2880091667175293, -0.3026420772075653, -0.32907921075820923, -0.29474398493766785, -0.3093419671058655, -0.3727318048477173, -0.24106158316135406, -0.26872068643569946, -0.35930243134498596, -0.31961169838905334, -0.2740931510925293, -0.3735935091972351, -0.3696558177471161, -0.41354650259017944, -0.4043806195259094, -0.2968731224536896, -0.38301724195480347, -0.25714659690856934, -0.34545066952705383, -0.34356120228767395, -0.3765948712825775, -0.6395127177238464, -0.5520439147949219, -0.37420910596847534, -0.2988892197608948, -0.3369259536266327, -0.37201765179634094, -0.3285447657108307, -0.038145557045936584, -0.6398852467536926, -0.6867530941963196, -0.41333281993865967, -0.3830425441265106, -0.3867521286010742, -0.3361329436302185, -0.4762563109397888, -0.8784410953521729, -0.7666875123977661, -0.4709378778934479, -0.49053385853767395, -0.4446377158164978, -0.4276294708251953, -0.2922195792198181, -0.47798454761505127, -0.5117442011833191, -0.5911394357681274, -0.4260673522949219, -0.2717643082141876, -0.3423696756362915, -0.6289793848991394, -0.4321102201938629, -0.5387091636657715, -0.014523034915328026, 0.13017937541007996, 0.13098286092281342, 0.17125564813613892, 0.21725794672966003, 0.2445145547389984, 0.21458081901073456, 0.17300166189670563, 0.4364248216152191, 0.202634796500206, 0.18191419541835785, 0.20613646507263184, 0.2283540517091751, 0.3012145161628723, 0.22405700385570526, 0.20556795597076416, 0.2884405553340912, 0.21919961273670197, 0.26138895750045776, 0.2488791048526764, 0.2043362855911255, 0.21524359285831451, 0.24742142856121063, 0.23616760969161987, 0.17239519953727722, 0.127268984913826, 0.14643433690071106, 0.17145198583602905, 0.24749267101287842, 0.03980162367224693, 0.20572884380817413, 0.14710378646850586, -0.5790393948554993, -0.6252595782279968, -0.19388218224048615, 0.2111605554819107, 0.18276746571063995, 0.22200733423233032, 0.13566003739833832, 0.17379476130008698, -1.015385627746582, -1.196297287940979, -0.07632876187562943, 0.2644895613193512, 0.15834112465381622, 0.06179337948560715, 0.15944384038448334, -0.018133701756596565, -1.4753557443618774, -1.2509979009628296, -0.06241860240697861, 0.20446331799030304, 0.014399241656064987, -0.0315343402326107, 0.05856728181242943, 0.22923648357391357, -0.6089261770248413, -0.2439713180065155, -0.2281852662563324, 0.3024066388607025, 0.3349694013595581, 0.4295338988304138, -0.01655014045536518, -0.13962383568286896, 0.03396596014499664, -0.009815619327127934, -0.030483268201351166, 0.0002599539584480226, 0.007701247930526733, -0.024275219067931175, 0.016032306477427483, -0.021397219970822334, 0.07645527273416519, -0.32348567247390747, 0.19108887016773224, 0.1362418830394745, -0.03172480687499046, 0.08357121795415878, 0.02496919594705105, 0.0283187422901392, 0.11974190920591354, -0.0997706949710846, 0.08629143983125687, 0.0394178070127964, 0.005948222242295742, 0.04619356989860535, 0.0026388249825686216, 0.04134698957204819, -0.1571199893951416, -0.0399755984544754, 0.04132623225450516, 0.013723259791731834, 0.027730878442525864, 0.03835266828536987, 0.05045648291707039, 0.021722499281167984, -0.45021864771842957, 0.16883191466331482, -0.03374423459172249, 0.03433742746710777, 0.04767743870615959, 0.038797661662101746, 0.0032265782356262207, 0.029518166556954384, 0.2555721700191498, -0.4767862856388092, 0.0056235166266560555, -0.020303070545196533, 0.025922458618879318, -0.00600708182901144, 0.008812345564365387, 0.004323676694184542, -0.16423115134239197, -0.09255882352590561, -0.09466097503900528, -0.03871394321322441, -0.03641194850206375, 0.029983781278133392, 0.04513433948159218, 0.019794246181845665, -0.014636407606303692, 0.027518626302480698, -0.03217474743723869, 0.0065760500729084015, 0.015567556954920292, -0.005359274800866842, 0.000621623417828232, 0.02934652753174305, 0.26183629035949707, -0.2720380425453186, -0.0638219565153122, -0.18841466307640076, -0.08010394126176834, -0.14573432505130768, 0.07578867673873901, -0.08142615854740143, 0.3464491665363312, -0.20827768743038177, -0.036321304738521576, -0.029989004135131836, 0.010070168413221836, 0.06084068492054939, 0.050314098596572876, 0.0691462904214859, 0.16119718551635742, 0.2794667184352875, -0.07340379804372787, -0.012495750561356544, -0.015301602892577648, -0.007138925604522228, -0.009067563340067863, 0.0011121350107714534, -0.22414396703243256, 0.1489892303943634, -0.004413540009409189, 0.1494777649641037, -0.04313957318663597, 0.05620370805263519, 0.013227377086877823, -0.04340358451008797, -0.04288247600197792, 0.26081663370132446, 0.0278799906373024, -0.045909274369478226, 0.033105768263339996, 0.03796108439564705, -0.006184427998960018, 0.0330556221306324, 0.3567904531955719, -0.2912430167198181, 0.24992436170578003, 0.05874066427350044, 0.07351738214492798, 0.00959696900099516, 0.009134791791439056, -0.022822655737400055, 0.2606160342693329, -0.09469150006771088, 0.10018502175807953, -0.010564538650214672, 0.02025066316127777, -0.044866666197776794, 0.0731632336974144, 0.018289003521203995, -0.21168282628059387, 0.2688077390193939, -0.052918389439582825, 0.009192440658807755, -0.02863778918981552, -0.04202437028288841, 0.0243563000112772, -0.18527595698833466, -0.01722174882888794, -0.35871854424476624, 0.1363171637058258, -0.23107083141803741, 0.1400991529226303, -0.02897942066192627, 0.1322922557592392, -0.03047092817723751, -0.10489600896835327, -0.07353415340185165, -0.06313420087099075, 0.17142456769943237, 0.031262025237083435, 0.03528723120689392, 0.03517688810825348, 0.10852362960577011, -0.08049824088811874, -0.28153347969055176, 0.28274598717689514, 0.15856392681598663, 0.0772821307182312, 0.011597945354878902, 0.10431990027427673, -0.04396677389740944, 0.06475389748811722, 0.24891576170921326, 0.10569952428340912, 0.09795816242694855, -0.027691207826137543, 0.04019363224506378, 0.027260340750217438, 0.096078060567379, -0.13601002097129822, 0.24365292489528656, 0.02504115365445614, -0.015793602913618088, 0.05365702137351036, 0.004494572523981333, 0.08163242787122726, 0.048389483243227005, 0.49332955479621887, -0.32925134897232056, -0.07821069657802582, 0.02751573733985424, 0.03899595886468887, 0.12333621829748154, 0.011966054327785969, 0.06135096028447151, 0.31554895639419556, -0.0011771295685321093, 0.05951784551143646, 0.06826775521039963, 0.0818258598446846, -0.04547008499503136, 0.014052892103791237, -0.03508688136935234, -0.063717320561409, 0.18086063861846924, -0.022947687655687332, 0.08299171924591064, -0.018210671842098236, 0.09539972245693207, -0.0794154554605484, 0.03398852422833443, 0.6155349016189575, 0.17530690133571625, 0.20031477510929108, 0.26787564158439636, 0.17816020548343658, 0.32779908180236816, 0.28714659810066223, 0.2849525213241577, 0.697395920753479, 0.1455974280834198, 0.11693980544805527, 0.23256903886795044, 0.22530324757099152, 0.26067492365837097, 0.15282697975635529, 0.16537638008594513, 0.7011477947235107, 0.15869228541851044, 0.10997804254293442, 0.1667773425579071, 0.17989389598369598, 0.2100069224834442, 0.16159822046756744, 0.2186211794614792, 0.850132942199707, 0.11506056040525436, 0.12354641407728195, 0.1874559223651886, 0.18513233959674835, 0.19032356142997742, 0.15845288336277008, 0.2506009638309479, 0.9174683094024658, 0.4835381507873535, 0.19245865941047668, 0.32926255464553833, 0.26902303099632263, 0.2684319317340851, 0.26198330521583557, 0.19824182987213135, 0.39831027388572693, 0.5304592847824097, 0.15636570751667023, 0.1976688951253891, 0.19475694000720978, 0.18286941945552826, 0.2157871127128601, 0.16358010470867157, 0.051444750279188156, 0.2673119306564331, 0.16202569007873535, 0.17501163482666016, 0.186814084649086, 0.1400432288646698, 0.20973947644233704, 0.13800570368766785, 0.1823870986700058, 0.2584397494792938, 0.10997103154659271, 0.1614907681941986, 0.17419998347759247, 0.1386542171239853, 0.21000944077968597, 0.16575591266155243, 0.4808531105518341, 0.19491110742092133, 0.10387647897005081, 0.13323622941970825, 0.4331318140029907, 0.46725112199783325, 0.4164990484714508, 0.2933133840560913, 0.6104859113693237, 0.17948535084724426, 0.2712036073207855, 0.2765682339668274, 0.3615265190601349, 0.29782629013061523, 0.25740283727645874, 0.27156394720077515, 0.37496474385261536, 0.22295783460140228, 0.21349504590034485, 0.20176751911640167, 0.16178229451179504, 0.1208038181066513, 0.20151284337043762, 0.149972066283226, 0.5678741335868835, 0.2476954609155655, 0.29925450682640076, 0.14644992351531982, 0.25804606080055237, 0.18446236848831177, 0.26385417580604553, 0.2739623188972473, 0.42721009254455566, 0.6064350605010986, 0.33989524841308594, 0.3461592197418213, 0.3452211022377014, 0.2966226637363434, 0.25868427753448486, 0.244895339012146, 0.5468869209289551, 0.18977607786655426, 0.267706036567688, 0.2680782973766327, 0.3015419840812683, 0.2989823520183563, 0.29294630885124207, 0.28258779644966125, 0.328012615442276, 0.38555648922920227, 0.32597583532333374, 0.2746928930282593, 0.32456374168395996, 0.30033284425735474, 0.3193781077861786, 0.39793285727500916, 0.16453154385089874, 0.2663412094116211, 0.20375506579875946, 0.3400825262069702, 0.1804959774017334, 0.3377074599266052, 0.19035197794437408, 0.30384549498558044, -0.6906991600990295, -0.062164321541786194, -0.8003007173538208, -0.10297059267759323, -0.013288426212966442, 0.17344725131988525, 0.07277543097734451, -0.10033120214939117, -0.2955544590950012, -0.12769731879234314, -0.15316198766231537, -0.10647888481616974, -0.012822713702917099, 0.12080338597297668, 0.08135855197906494, 0.01842428930103779, -0.040038157254457474, 0.14882683753967285, 0.11618725955486298, -0.08377178758382797, 0.02208114229142666, 0.22695444524288177, 0.10681889951229095, 0.03853529319167137, 0.0595548041164875, 0.28256750106811523, 0.09488635510206223, 0.040238913148641586, 0.01744314655661583, 0.08861667662858963, 0.07070031762123108, 0.0733313262462616, 0.5495854616165161, 0.54530268907547, 0.010024253278970718, 0.008445106446743011, 0.011695372872054577, 0.011289880611002445, -0.013860993087291718, -0.048324715346097946, 0.9557090997695923, 0.6986450552940369, 0.007369283586740494, -0.05509781464934349, 0.01426979061216116, 0.009568298235535622, -0.018762754276394844, -0.016628919169306755, 1.1043583154678345, 0.19985143840312958, 0.0277035403996706, 0.08032004535198212, 0.005366599652916193, 0.025371214374899864, 0.024573693051934242, 0.02083802968263626, 0.3226335942745209, 0.24168479442596436, 0.17680363357067108, 0.06025778502225876, -0.0024912646040320396, -0.035120703279972076, 0.005517914425581694, -0.01745641604065895], [0.0301275085657835, 0.018238753080368042, 0.02825159579515457, -0.016978105530142784, 0.025277795270085335, 0.021256739273667336, 0.003378769150003791, -0.0059350780211389065, 0.04588548466563225, 0.10560119897127151, 0.20189131796360016, 0.16179046034812927, 0.15400901436805725, 0.15755251049995422, 0.2204253375530243, 0.15610888600349426, 0.1508747935295105, 0.07310745865106583, 0.21358245611190796, 0.1542772501707077, 0.15014049410820007, 0.18526384234428406, 0.22628626227378845, 0.12001548707485199, 0.08812740445137024, -0.12205000221729279, 0.1279008388519287, 0.15375298261642456, 0.14475995302200317, 0.11316520720720291, 0.16321276128292084, 0.1392192244529724, -1.548000693321228, -0.4155662953853607, 0.1364242136478424, 0.06171496957540512, 0.11681991815567017, 0.15631094574928284, 0.13933543860912323, 0.10018927603960037, -1.830783486366272, -1.9734103679656982, -0.47825419902801514, 0.24438677728176117, 0.18674425780773163, 0.14683672785758972, 0.2451951652765274, 0.10749547183513641, 1.6381062269210815, -1.9777454137802124, 0.35743457078933716, 0.1878129243850708, 0.2670610547065735, 0.01669357530772686, 0.15088002383708954, -0.04013833776116371, 0.022143825888633728, 0.020480167120695114, -0.020877178758382797, 0.029983066022396088, -0.0086943618953228, -0.026180468499660492, -0.009363887831568718, 0.011183135211467743, 0.04279825836420059, 0.3423636853694916, 0.32902055978775024, 0.39739733934402466, 0.3679257035255432, 0.4689953327178955, 0.3657446503639221, 0.5659091472625732, 0.14274317026138306, 0.5159671902656555, 0.24118991196155548, 0.3845347762107849, 0.37811410427093506, 0.31972789764404297, 0.3624936640262604, 0.49964067339897156, 0.5700417757034302, 0.024608174338936806, 0.4167337417602539, 0.1996089518070221, 0.3880484700202942, 0.3357450067996979, 0.35077330470085144, 0.2958778440952301, 0.6330556273460388, 0.19450527429580688, 0.21643367409706116, 0.15014177560806274, 0.255989134311676, 0.35520604252815247, 0.4461044669151306, 0.31534868478775024, -0.21762153506278992, 0.43865710496902466, 0.4856836795806885, 0.27975815534591675, 0.29740843176841736, 0.38387641310691833, 0.3908758759498596, 0.3709445893764496, -0.7200056910514832, 0.5082111954689026, 0.01319906022399664, 0.3459191620349884, 0.32999733090400696, 0.40178582072257996, 0.3442375957965851, 0.5522853136062622, 0.36189141869544983, 0.24117013812065125, 0.27673158049583435, 0.4571704566478729, 0.33675384521484375, 0.44899481534957886, 0.33356940746307373, 0.25743943452835083, 1.1135672330856323, 0.23083177208900452, 0.35425207018852234, 0.22756361961364746, 0.2803119421005249, 0.5823795795440674, 0.32609885931015015, 0.27080246806144714, 0.10675478726625443, 0.25662341713905334, 0.2940753400325775, 0.2159823477268219, 0.179151713848114, 0.11948402971029282, 0.17995573580265045, 0.046570517122745514, -0.10283048450946808, 0.34270238876342773, 0.20937345921993256, 0.12225304543972015, 0.1854260116815567, 0.24627573788166046, 0.09936991333961487, 0.10739687085151672, 0.04302326217293739, 0.19110828638076782, 0.04204336181282997, 0.13275401294231415, 0.2358342558145523, 0.16188348829746246, 0.18356390297412872, 0.12761633098125458, 0.08637437224388123, 0.18957091867923737, 0.1359899938106537, 0.15599194169044495, 0.09447848051786423, 0.18460436165332794, 0.26571860909461975, 0.2542528212070465, -0.03208455815911293, 0.20802880823612213, 0.23252622783184052, -0.004085952881723642, 0.12627995014190674, 0.24198183417320251, 0.26571470499038696, 0.2705174684524536, -0.3007793426513672, -0.21893133223056793, -0.03439623862504959, 0.055525850504636765, 0.07409536093473434, 0.13873204588890076, 0.16434255242347717, 0.2640550136566162, -1.323670744895935, -0.018716920167207718, 0.15032625198364258, 0.06470208615064621, 0.17016036808490753, 0.23371188342571259, 0.20476987957954407, 0.27312225103378296, 0.20203930139541626, -1.094369649887085, 0.013935871422290802, 0.40731456875801086, -0.043296318501234055, 0.3505801558494568, 0.17427733540534973, 0.1273525506258011, 0.135916605591774, 0.17923980951309204, 0.12527775764465332, 0.23193801939487457, 0.2500288188457489, 0.22709250450134277, 0.3151114284992218, 0.3068508803844452, 0.022651953622698784, 0.19011670351028442, 0.11954464763402939, 0.2560496926307678, 0.2884364128112793, 0.25806912779808044, 0.27595049142837524, 0.32779204845428467, -0.06779644638299942, 0.1046624630689621, 0.24555307626724243, 0.20250490307807922, 0.2774971127510071, 0.22415092587471008, 0.28557905554771423, 0.26008325815200806, -0.13491784036159515, 0.3119960427284241, 0.030868038535118103, 0.19431647658348083, 0.32014259696006775, 0.1653805524110794, 0.2542456388473511, 0.2693626880645752, -0.45156610012054443, 0.18471810221672058, 0.017451539635658264, 0.09970126301050186, 0.22996187210083008, 0.21543043851852417, 0.20863278210163116, 0.21871434152126312, -1.9723185300827026, -0.009009738452732563, 0.11186835169792175, 0.240467369556427, 0.21210141479969025, 0.19378268718719482, 0.23685291409492493, 0.2463131546974182, -1.9795446395874023, -1.929174780845642, -0.0059172362089157104, 0.13443562388420105, 0.3028978705406189, 0.2784498333930969, 0.2752223014831543, 0.1609344780445099, -1.9777621030807495, -1.96511709690094, -0.09734760224819183, 0.03695978596806526, 0.2958245873451233, 0.22151194512844086, 0.15875288844108582, 0.18387621641159058, 0.03884098678827286, 0.26839932799339294, 0.26895472407341003, 0.36231064796447754, 0.23097582161426544, 0.3386085331439972, 0.4248301684856415, 0.40290218591690063, 0.17406420409679413, 0.29434022307395935, 0.33258020877838135, 0.24797654151916504, 0.27471938729286194, 0.3477709889411926, 0.35005542635917664, 0.36462339758872986, 0.03498995304107666, 0.32332420349121094, 0.19280041754245758, 0.1970246583223343, 0.40784433484077454, 0.21695253252983093, 0.2984987199306488, 0.25800269842147827, 0.17494073510169983, 0.21438640356063843, 0.10449367016553879, 0.22071698307991028, 0.21302500367164612, 0.2007269412279129, 0.21326658129692078, 0.15718083083629608, -0.24728485941886902, 0.04664852097630501, -0.029264703392982483, 0.10275617241859436, 0.09844928979873657, 0.1129598319530487, 0.2062234729528427, 0.1647597849369049, -0.07783055305480957, -0.30546125769615173, 0.08548948913812637, 0.1270935982465744, 0.1326284408569336, 0.22335152328014374, 0.2018594890832901, 0.1925736665725708, 0.4691654145717621, -0.6257295608520508, 0.05576916038990021, 0.20629003643989563, 0.10665333271026611, 0.1984844207763672, 0.3689159154891968, 0.442771852016449, -1.9773659706115723, -0.06486642360687256, 0.28389060497283936, -0.0029483241960406303, 0.2881050109863281, 0.236114501953125, 0.38828495144844055, 0.4800889790058136, 0.027982572093605995, 0.21783480048179626, 0.1854739487171173, 0.1982617974281311, 0.22229349613189697, 0.20086286962032318, 0.2043800801038742, 0.2136087566614151, -0.036405231803655624, 0.11670506000518799, 0.22050832211971283, 0.1998588591814041, 0.1532302051782608, 0.2267676591873169, 0.26080837845802307, 0.2820573151111603, -0.0862966775894165, 0.06769245117902756, 0.1458885222673416, 0.18005682528018951, 0.23441895842552185, 0.2961176037788391, 0.3226907551288605, 0.25943654775619507, -0.02873128652572632, 0.1500253975391388, 0.17792418599128723, 0.2505675256252289, 0.32959243655204773, 0.3215772807598114, 0.3295247554779053, 0.3290889859199524, -0.10247636586427689, 0.23486612737178802, 0.24071557819843292, 0.31167638301849365, 0.34728801250457764, 0.41194209456443787, 0.4533070921897888, 0.3875328004360199, -0.3756200969219208, -0.157586008310318, 0.32331356406211853, 0.39068183302879333, 0.3294261693954468, 0.32451391220092773, 0.47064846754074097, 0.37412121891975403, -0.3015787899494171, 0.1162240207195282, 0.266414612531662, 0.4340978264808655, 0.43294891715049744, 0.48061081767082214, 0.46254947781562805, 0.41443243622779846, -1.3670645952224731, -0.5223421454429626, 0.1727064549922943, 0.31880155205726624, 0.5759004950523376, 0.49476370215415955, 0.2016415297985077, 0.359100878238678, -0.009655850008130074, -4.181580152362585e-05, -0.001145966351032257, 0.011201851069927216, 0.013785075396299362, -0.024573905393481255, -0.022912517189979553, 0.0273533146828413, -1.9652019739151, 0.15735888481140137, -0.36100539565086365, -1.677393913269043, 0.05976545065641403, -0.20974001288414001, -0.36142754554748535, 0.19782058894634247, -1.9763338565826416, 0.29737651348114014, -0.527823269367218, -0.09810014069080353, -0.09781671315431595, 0.021846283227205276, -0.07900802791118622, 0.09349527955055237, -1.377065658569336, 0.1240515187382698, -0.290362149477005, -0.057970765978097916, -0.026976613327860832, 0.013221903704106808, -0.007385288830846548, 0.017584392800927162, -0.3063448965549469, -0.09622126817703247, -0.10703031718730927, -0.05637218430638313, -0.004591186065226793, 0.014407280832529068, -0.02101130783557892, -0.030367277562618256, 1.626777172088623, 0.4447120130062103, -0.002818852663040161, -0.018219877034425735, 0.05290334299206734, 0.07084423303604126, 0.0243346206843853, -0.006240531336516142, 1.707521915435791, 0.3672769069671631, -0.17631542682647705, -0.06350114941596985, 0.03973012790083885, 0.043554190546274185, 0.0018773275660350919, 0.017639344558119774, 0.0322185643017292, 0.027107764035463333, -0.014692690223455429, -0.01717682182788849, -0.03088011033833027, -0.017806369811296463, -0.016552191227674484, -0.0339033417403698, -0.8633829951286316, -0.3568248152732849, -0.5685067176818848, -0.5319926738739014, -0.502509355545044, -0.6689242124557495, -0.6520439982414246, -0.7138500213623047, -0.32207438349723816, -0.5790331959724426, -0.45568281412124634, -0.5692808628082275, -0.2597692310810089, -0.5427510738372803, -0.28330662846565247, -0.5008037686347961, -0.5725711584091187, -0.35343870520591736, -0.3488747775554657, -0.511935830116272, -0.3842269480228424, -0.49572110176086426, -0.35594820976257324, -0.5131223201751709, -0.363524466753006, -0.0033429318573325872, -0.36382099986076355, -0.2631721794605255, -0.29322296380996704, -0.34158942103385925, -0.37025266885757446, -0.3275143504142761, -0.36165255308151245, -0.4591393768787384, -0.3123302459716797, -0.27765852212905884, -0.22959086298942566, -0.35451632738113403, -0.3465329110622406, -0.33873966336250305, -0.5398213267326355, -0.31215235590934753, -0.05249549075961113, -0.29133692383766174, -0.32015982270240784, -0.2599796652793884, -0.3167877793312073, -0.3307036757469177, -0.7517800331115723, -0.2840765714645386, -0.24312832951545715, -0.3426966965198517, -0.26889264583587646, -0.16675002872943878, -0.30253833532333374, -0.3435973525047302, -0.49210307002067566, -0.20645290613174438, -0.21080754697322845, -0.3127981126308441, -0.3136450946331024, -0.365511417388916, -0.2972395420074463, -0.3168870806694031, -0.4480150640010834, -0.30093634128570557, -0.44848477840423584, -0.3090240955352783, -0.5276734232902527, -0.328472763299942, -0.5134785771369934, -0.5277374982833862, -0.42992669343948364, -0.2823595702648163, -0.43683531880378723, -0.6219668984413147, -0.3491341173648834, -0.5580883026123047, -0.2978619337081909, -0.30139660835266113, -0.4462687373161316, -0.4947364926338196, -0.3886711299419403, -0.4237249195575714, -0.37409403920173645, -0.33691897988319397, -0.40526914596557617, -0.2957751452922821, -0.2569611370563507, 0.07633456587791443, -0.22665096819400787, -0.3676013946533203, -0.22019514441490173, -0.33702683448791504, -0.31637200713157654, -0.31556594371795654, -0.5454062223434448, -1.3082078695297241, -0.354023814201355, -0.21206793189048767, -0.26815447211265564, -0.2738974392414093, -0.3854241371154785, -0.372568815946579, -0.47357872128486633, 0.03396929055452347, -0.36718136072158813, -0.23603270947933197, -0.23563134670257568, -0.21394629776477814, -0.2864152193069458, -0.45075723528862, -0.5432924032211304, -0.16544124484062195, -0.10062215477228165, -0.2737172544002533, -0.2510022521018982, -0.2865910530090332, -0.2657731771469116, -0.3540703058242798, -0.3859715461730957, -0.10490173101425171, -0.33853378891944885, -0.27997806668281555, -0.3865995407104492, -0.24689558148384094, -0.39436134696006775, -0.34385207295417786, -0.26463058590888977, -0.19113188982009888, -0.3175961375236511, -0.3774775564670563, -0.2623519003391266, -0.3032541275024414, -0.282944917678833, -0.32025742530822754, -0.3004733920097351, -0.14134562015533447, -0.2480216920375824, -0.22857795655727386, -0.22062262892723083, -0.2913772761821747, -0.3433404862880707, -0.2562960982322693, -0.18871018290519714, -0.18083490431308746, -0.2770434617996216, -0.2640427350997925, -0.11500439047813416, -0.14290423691272736, -0.23328164219856262, -0.3238566517829895, -0.08673511445522308, -0.24261493980884552, -0.19933801889419556, -0.27711793780326843, -0.15264548361301422, -0.20890526473522186, -0.19205424189567566, -0.19155146181583405, -0.34081462025642395, -0.2598115801811218, -0.14793646335601807, -0.21391239762306213, -0.21068108081817627, -0.15981602668762207, -0.25751179456710815, -0.19382387399673462, 0.056743741035461426, -0.15773989260196686, -0.3125932812690735, -0.15711240470409393, -0.16157205402851105, -0.12155421078205109, -0.2885791063308716, -0.3043213486671448, -0.10462159663438797, -0.2306888997554779, -0.21172212064266205, -0.1535402089357376, -0.25993257761001587, -0.10983967781066895, -0.3075547516345978, -0.2810399532318115, -0.2469983994960785, -0.23395122587680817, -0.2776682376861572, -0.2812313139438629, -0.24441733956336975, -0.2573185861110687, -0.3382400572299957, -0.379774808883667, -0.4343467950820923, -0.3300340175628662, -0.39223039150238037, -0.30351680517196655, -0.3742929995059967, -0.2392803281545639, -0.2390562742948532, -0.648428201675415, -0.6237043738365173, -0.6011976599693298, -0.3834586441516876, -0.474488765001297, -0.24329774081707, -0.4870491623878479, -0.36864322423934937, -0.35453733801841736, -0.641161322593689, -0.46464312076568604, -0.47362077236175537, -0.44935342669487, -0.34678754210472107, -0.302415132522583, -0.32640472054481506, -0.4028823971748352, -0.24782238900661469, -0.42511358857154846, -0.3585226833820343, -0.44100242853164673, -0.24918679893016815, -0.3019539713859558, -0.48344290256500244, -0.5229812860488892, -0.4981829822063446, -0.34680429100990295, -0.3032504618167877, -0.3191346228122711, -0.3976612389087677, -0.39278486371040344, -0.4747088551521301, -0.5464840531349182, -0.6029776930809021, -0.5108058452606201, -0.4774360656738281, -0.31443047523498535, -0.4468539357185364, -0.46237674355506897, -0.4044448137283325, -0.4477756917476654, -0.5603849291801453, -0.3222569227218628, -0.425476610660553, -0.31722915172576904, -0.347197562456131, -0.37543272972106934, -0.4675110876560211, -0.5750608444213867, -0.4587880074977875, -0.4813600778579712, -0.34514525532722473, -0.40656575560569763, -0.5775762796401978, -0.4999569058418274, -0.5826062560081482, -0.5365275144577026, 0.9696416258811951, -1.5526572465896606, 0.8892346620559692, -0.8706684708595276, -0.04407201707363129, 0.2961992621421814, 0.2954801917076111, 0.27819064259529114, 0.8867353200912476, 1.3264377117156982, 1.0727964639663696, -0.1354924589395523, -0.07304836809635162, 0.19460715353488922, 0.09949614107608795, 0.25547707080841064, 0.8884111046791077, 1.0464762449264526, 1.1120469570159912, 0.5466277599334717, 0.394828200340271, 0.27025851607322693, 0.2674866020679474, 0.34995919466018677, 0.8862054944038391, 0.9930959939956665, 0.955437183380127, 0.823639452457428, 0.7903574109077454, 0.7348887920379639, 0.5413485169410706, 0.807087242603302, 0.9693743586540222, 1.036842703819275, 0.882237434387207, 0.8283020853996277, 0.763709306716919, 0.6669352054595947, 0.6965497136116028, 0.6472970843315125, 1.2132869958877563, 1.063204288482666, 0.9157805442810059, 0.8009912967681885, 0.7433274388313293, 0.7083845138549805, 0.7180452346801758, 0.6369877457618713, 1.6975750923156738, 1.2961509227752686, 0.8847414255142212, 0.8416655659675598, 0.6977649331092834, 0.6404588222503662, 0.698378324508667, 0.6598724126815796, -1.7874020338058472, 0.755029022693634, 0.6367297172546387, 0.5808125138282776, 0.7308347225189209, 0.577268123626709, 0.7243705987930298, 0.7299453616142273], [0.019179929047822952, -0.005550738889724016, 0.032414037734270096, 0.02142026275396347, -0.017382051795721054, 0.03446192294359207, 0.0002728630497585982, -0.005332260858267546, -0.00536729721352458, -0.029925545677542686, -0.13794857263565063, 0.431963175535202, -0.15695920586585999, 0.03141231834888458, -0.0031606012489646673, -0.06356853991746902, -0.0718248263001442, 0.004197095055133104, -0.09097933024168015, 1.9800000190734863, -0.027208657935261726, 0.022180747240781784, -0.06102168187499046, -0.05223274603486061, 0.010460997931659222, 0.009763137437403202, -0.1403435468673706, -0.13189604878425598, -0.10732930153608322, -0.028145642951130867, -0.07434780895709991, -0.05716503784060478, -0.028269076719880104, -0.006862182170152664, -0.029596956446766853, -0.08053916692733765, 0.008553080260753632, -0.06742188334465027, -0.06916945427656174, -0.029466964304447174, -0.05141948163509369, 0.12483539432287216, -0.08569449931383133, -0.023688850924372673, 0.017020324245095253, -0.012964763678610325, -0.05730258300900459, -0.0415327213704586, -0.06110449880361557, -0.101686030626297, -0.16577713191509247, -0.3527360260486603, 0.0731930360198021, -0.26537084579467773, -1.9535009860992432, -0.21965532004833221, 0.012341529130935669, 0.006723723839968443, -0.027722720056772232, 0.03087080642580986, 0.013036955147981644, 0.009652468375861645, 0.006692532915621996, 0.009435616433620453, -0.35638460516929626, -0.347154825925827, 0.021579934284090996, -0.26246294379234314, -0.06771554797887802, -0.26334792375564575, -0.33867356181144714, -0.21231232583522797, -0.1794930249452591, 0.03330213949084282, -0.32295265793800354, -0.32805335521698, -0.27912425994873047, 0.028154103085398674, -0.2836367189884186, -0.353523850440979, -0.346346914768219, -0.21526360511779785, -0.3161136507987976, 0.2656398415565491, -0.2324485033750534, -0.2600516676902771, -0.25438183546066284, -0.20037104189395905, -0.1759510338306427, -0.08553260564804077, -0.35960641503334045, -0.2524402439594269, -0.3178084194660187, -0.09421730041503906, -0.2269839197397232, -0.32984501123428345, -0.2172679603099823, -0.2852601706981659, -0.1289331167936325, -0.32714298367500305, -0.149888277053833, -0.20497944951057434, -0.2475249022245407, -0.2338433563709259, -0.23254896700382233, -0.4109363555908203, -0.24228435754776, -0.30719438195228577, -0.18817518651485443, -0.2529803216457367, -0.2654508054256439, -0.2661227285861969, -0.2717418074607849, -0.2738851010799408, -0.3798668682575226, -0.25277993083000183, -0.220991313457489, -0.26371195912361145, -0.2184840440750122, -0.2613752782344818, -0.19832341372966766, -0.20834031701087952, -0.2954080402851105, -0.16380749642848969, -0.25800448656082153, -0.20900601148605347, -0.3324297070503235, -0.23592311143875122, -0.21893085539340973, 0.18237817287445068, -0.3648456633090973, -0.12847045063972473, -0.34631606936454773, 0.061152759939432144, 