{"ft.weight": [[0.0044424161314964294, -0.01784137636423111, -0.018911052495241165, 0.025536635890603065, 0.030620893463492393, -0.0016128700226545334, 0.009891018271446228, 0.02501397579908371, 0.10934124886989594, 0.125311940908432, 0.10475148260593414, 0.25126221776008606, 0.1946364790201187, 0.10059657692909241, 0.07370593398809433, 0.042809270322322845, 0.10018453001976013, 0.09017758816480637, 0.13845165073871613, 0.13706348836421967, 0.13441511988639832, 0.1114351898431778, 0.03753148391842842, 0.03173620253801346, 0.12001834809780121, 0.05637791007757187, 0.09293653070926666, 0.052362408488988876, 0.09831899404525757, 0.09676439315080643, 0.05498990789055824, 0.025186000391840935, 0.2211291342973709, 0.05627500265836716, 0.0035611288622021675, -0.09488167613744736, 0.06352778524160385, 0.11595604568719864, 0.06890473514795303, 0.028713185340166092, 0.3119426667690277, -1.1200313568115234, -1.5638458728790283, -1.9754376411437988, 0.04556044936180115, 0.17034679651260376, 0.17040178179740906, 0.24709562957286835, 0.725641667842865, 1.1874182224273682, -1.9507906436920166, 1.0066254138946533, 0.13196882605552673, 0.012136012315750122, 0.042891331017017365, 0.055510807782411575, -0.024322429671883583, 0.03370162472128868, -0.0050591398030519485, -0.0010109392460435629, 0.014030502177774906, 0.003981031011790037, 0.031886257231235504, -0.007925133220851421, 0.035826630890369415, 0.10731474310159683, 0.10068019479513168, 0.01798316463828087, 0.10762917995452881, 0.03618061542510986, 0.061702001839876175, 0.21028147637844086, 0.09823537617921829, 0.06850539892911911, 0.14902213215827942, 0.13815465569496155, 0.16087287664413452, 0.09100953489542007, 0.21632258594036102, 0.0934530720114708, 0.0591043196618557, 0.08895403891801834, 0.11346416175365448, 0.18504199385643005, 0.18982425332069397, 0.19471968710422516, 0.20943640172481537, 0.1839100420475006, 0.07285598665475845, 0.12017562240362167, 0.281302273273468, 0.2484775185585022, 0.18549911677837372, 0.2989664077758789, 0.1444910168647766, 0.24162209033966064, 0.26332733035087585, -0.03156127780675888, 0.10010290145874023, 0.23264455795288086, 0.30759701132774353, 0.3628217875957489, 0.2782897353172302, 0.2858675420284271, 0.002953161485493183, 0.3419373035430908, 0.21740980446338654, 0.31412824988365173, 0.31382042169570923, 0.26662012934684753, 0.1640884131193161, 0.35809606313705444, -0.024269308894872665, 0.291323184967041, 0.4828889071941376, 0.40458551049232483, 0.07524711638689041, 0.37521377205848694, 0.11876434832811356, 0.19769784808158875, 0.5634452700614929, 0.13664798438549042, 0.516587495803833, 0.23442457616329193, 0.15880420804023743, -0.693877637386322, 0.1478894203901291, 0.2804975211620331, 0.0569903738796711, 0.22963684797286987, 0.059975042939186096, 0.13232630491256714, -0.05475558340549469, 0.22420121729373932, -0.013356726616621017, 0.2118094116449356, 0.3306593596935272, 0.01608838327229023, 0.13785390555858612, 0.02604667842388153, 0.2060215324163437, -0.017280755564570427, 0.2036280483007431, -0.10059762746095657, 0.07881993055343628, 0.23178917169570923, -0.0380900502204895, 0.22868937253952026, 0.046087633818387985, 0.15633825957775116, -0.11759443581104279, 0.054969869554042816, 0.1678258627653122, 0.1067599356174469, 0.30329111218452454, 0.11624451726675034, 0.1891741305589676, -0.10588336735963821, 0.11886666715145111, 0.0265787523239851, 0.012775237672030926, 0.10158640891313553, 0.1108107939362526, 0.30695632100105286, -0.04743916168808937, 0.06630689650774002, 0.0017822933150455356, 0.32225969433784485, 0.18666747212409973, -0.028232896700501442, 0.1748853176832199, -0.029441433027386665, 0.11181148141622543, 0.1310611367225647, 0.18538029491901398, 0.03026154637336731, 0.3002004325389862, 0.3220098316669464, -0.10408010333776474, 0.21137650310993195, -0.005383115261793137, 0.24840374290943146, -0.17201188206672668, 0.13134251534938812, 0.1964411586523056, 0.3824753761291504, 0.09203357249498367, 0.055876582860946655, 0.18169379234313965, -0.07499795407056808, 0.3011975586414337, -0.4709565043449402, 0.2869209051132202, 0.3345572352409363, 0.23309190571308136, 0.2414674311876297, 0.2548392415046692, 0.26586660742759705, 0.24605920910835266, 0.17230327427387238, 0.2277490645647049, 0.2641664743423462, 0.1745716631412506, 0.23483358323574066, 0.21514396369457245, 0.22070543467998505, 0.22929038107395172, 0.21326841413974762, 0.2255588173866272, 0.3268834352493286, 0.19408828020095825, 0.22538428008556366, 0.2670610845088959, 0.17765431106090546, 0.12368319183588028, 0.25712746381759644, 0.2616826891899109, 0.41369539499282837, 0.2863517701625824, 0.2826208770275116, 0.29441577196121216, 0.18491016328334808, 0.2133427858352661, 0.18470118939876556, 0.41876527667045593, 0.4832783639431, 0.4561013877391815, 0.38443395495414734, 0.39358651638031006, 0.2898501753807068, 0.34265103936195374, 0.3296733498573303, 0.46233364939689636, 0.5938596129417419, 0.40944644808769226, 0.48253706097602844, 0.41150426864624023, 0.32753393054008484, 0.2702656686306, 0.24597376585006714, 0.43910449743270874, 0.5502467155456543, 0.42257964611053467, 0.34916362166404724, 0.1852467656135559, 0.12294069677591324, 0.08151289075613022, 0.19254963099956512, 0.2717425227165222, 0.46384933590888977, 0.3819711208343506, 0.3338507115840912, 0.3221423625946045, 0.21878193318843842, 0.30610573291778564, 0.33718329668045044, 0.7474112510681152, 0.7142230272293091, 0.614426851272583, 0.6074894070625305, 0.5542775988578796, 0.5874799489974976, 0.570641279220581, 0.5962181091308594, 0.643932044506073, 0.6583704352378845, 0.5483896732330322, 0.5900055170059204, 0.6534264087677002, 0.6101993322372437, 0.564907431602478, 0.7069136500358582, 0.6277413964271545, 0.6281577944755554, 0.5298798084259033, 0.5953671932220459, 0.6011843085289001, 0.6242711544036865, 0.7168763279914856, 0.5985333919525146, 0.6013535857200623, 0.6646049618721008, 0.5859856605529785, 0.5981541275978088, 0.6260336637496948, 0.646273672580719, 0.6447954773902893, 0.6383218169212341, 0.621092677116394, 0.6242347955703735, 0.564686119556427, 0.6967794895172119, 0.6953077912330627, 0.6006466150283813, 0.5959494709968567, 0.6379571557044983, 0.7709344029426575, 0.7458953857421875, 0.645370602607727, 0.6588745713233948, 0.7263290286064148, 0.9019724726676941, 0.8268303871154785, 0.7014603018760681, 0.811883807182312, 0.8162321448326111, 0.685912549495697, 0.6134965419769287, 0.6636987328529358, 0.7813488841056824, 0.9770920872688293, 0.8526136875152588, 0.7855541706085205, 0.6253530383110046, 0.5976419448852539, 0.5192816257476807, 0.6827120184898376, 0.7089450359344482, 0.7786693572998047, 0.714671790599823, 0.08290106803178787, 0.018802346661686897, -0.03332273289561272, -0.06754548847675323, -0.07404690235853195, -0.0037886195350438356, 0.050532035529613495, 0.042859964072704315, -0.004043783526867628, 0.05336984992027283, -0.09057212620973587, -0.028445569798350334, -0.011070877313613892, 0.07277258485555649, 0.040978074073791504, 0.049808528274297714, -0.01472100242972374, 0.05316657945513725, 0.06423242390155792, -0.0166774895042181, 0.011740338057279587, 0.010515032336115837, 0.03568887338042259, -0.026824306696653366, 0.15589068830013275, 0.14642973244190216, 0.1256422996520996, 0.11565239727497101, 0.0906297117471695, -0.023346908390522003, -0.023099878802895546, -0.04016805812716484, 0.10526642203330994, -0.006215030327439308, 0.12514431774616241, 0.12683789432048798, 0.15460634231567383, 0.07399741560220718, 0.09762627631425858, 0.0787079781293869, -0.6771361827850342, -0.024031825363636017, 0.04046522453427315, 0.1280246376991272, 0.17295846343040466, 0.3093809187412262, 0.1409142166376114, 0.005523557309061289, -1.2617768049240112, -1.9703023433685303, 0.034403808414936066, -0.000866530230268836, -0.04568593204021454, 0.1806231588125229, 0.27319851517677307, -0.15139687061309814, -1.7043317556381226, -0.3895705044269562, -0.38265013694763184, -0.21448084712028503, -0.054290685802698135, 0.19937358796596527, 0.1815844625234604, -0.20638789236545563, 0.03601941838860512, -0.013815908692777157, 0.024418814107775688, 0.026958776637911797, -0.005429838318377733, 0.006179803982377052, 0.005693100392818451, -0.004817244131118059, -0.23753054440021515, 0.016965389251708984, -0.2510753571987152, -0.08419400453567505, -0.270456463098526, -0.055021628737449646, -0.039900343865156174, 0.018726561218500137, -0.09858576208353043, 0.05458679050207138, -0.08557411283254623, 0.0043167416006326675, -0.09385178983211517, 0.06036403775215149, -0.10438229888677597, 0.027249135076999664, -0.052855733782052994, 0.0987061858177185, 0.09271173924207687, 0.07762324810028076, 0.08535586297512054, -0.018827127292752266, -0.03175688162446022, -0.030433375388383865, -0.041596420109272, 0.18376386165618896, 0.062397390604019165, 0.25456979870796204, 0.0703323557972908, 0.012932679615914822, 0.019853277131915092, 0.012144790962338448, -0.05475902557373047, 0.20161448419094086, 0.32249853014945984, 0.2427329570055008, 0.06588923931121826, -0.019708938896656036, -0.02525932900607586, 0.026627246290445328, -0.07439280301332474, 0.20652085542678833, 1.1937017440795898, 1.909054160118103, -0.018055833876132965, -0.025967048481106758, 0.03613629937171936, 0.07961409538984299, -0.00029944689595140517, -0.011740983463823795, -0.03341297060251236, -0.005614832974970341, 0.0017907796427607536, 0.030322693288326263, 0.029786929488182068, -0.003582836827263236, -0.12321168184280396, -0.09675053507089615, -0.2339552342891693, -0.18428677320480347, -0.21700425446033478, -0.19883595407009125, -0.1387661099433899, -0.02199617400765419, -0.1390639990568161, -0.0641673356294632, -0.16029003262519836, -0.1348879635334015, -0.09424615651369095, -0.2640688717365265, -0.07176274806261063, -0.14397360384464264, -0.00697167357429862, -0.047213103622198105, -0.07925368845462799, -0.11617453396320343, -0.051185011863708496, -0.1789804846048355, -0.10366160422563553, -0.21819894015789032, 0.0950864851474762, -0.060243792831897736, -0.0036978046409785748, -0.029807502403855324, -0.08183835446834564, -0.1044379398226738, -0.09951592981815338, -0.03966096043586731, 0.06225879490375519, 0.10752002894878387, -0.02005540020763874, -0.013719846494495869, -0.0736195296049118, -0.10746753215789795, -0.09337490797042847, -0.03002770058810711, 0.3918716013431549, 0.046332817524671555, 0.20894531905651093, 0.09307623654603958, 0.002525177551433444, 0.038241349160671234, -0.04900006204843521, -0.014115308411419392, 0.2836945652961731, 0.34747952222824097, 0.6108266711235046, 0.24276506900787354, 0.0017324878135696054, -0.016265276819467545, -0.0018103226320818067, -0.029405279085040092, 0.3882352411746979, 0.2855983078479767, 0.4477391242980957, 0.45988643169403076, 0.10404513776302338, -0.11548731476068497, -0.026705197989940643, 0.025730593129992485, -0.13158118724822998, -0.03134392574429512, -0.16791632771492004, -0.016935674473643303, -0.10284104198217392, -0.1388734132051468, -0.21950027346611023, -0.13468223810195923, -0.0006513072876259685, -0.12275771051645279, -0.165999174118042, -0.1621730625629425, -0.12519262731075287, -0.176148921251297, -0.10616312175989151, -0.08838914334774017, -0.015292210504412651, -0.020588018000125885, -0.0326259583234787, -0.17290326952934265, -0.19072915613651276, -0.10750138014554977, -0.1662602424621582, -0.12406354397535324, 0.03349931538105011, 0.017700830474495888, -0.105710968375206, -0.12787309288978577, -0.18198831379413605, -0.13572178781032562, -0.07821718603372574, -0.2273765206336975, -0.03241556137800217, -0.038209427148103714, -0.12208256125450134, -0.06899012625217438, -0.13187091052532196, -0.12481395900249481, -0.16367484629154205, -0.06444275379180908, 0.054136212915182114, -0.04104416444897652, 0.17916713654994965, 0.2984328269958496, -0.00874568521976471, -0.11135589331388474, -0.12209542840719223, -0.05592184513807297, 0.0092392573133111, 0.014500150457024574, 0.9087542295455933, 0.05108628049492836, -0.004800903610885143, -0.02998954802751541, -0.07739070802927017, -0.09120304882526398, 0.1373303085565567, -0.05080203339457512, -0.0012428021291270852, -0.06197463721036911, -0.0635642409324646, -0.050644587725400925, -0.054596319794654846, -0.1033954918384552, -0.21806614100933075, -0.21759620308876038, -0.25887513160705566, -0.322287917137146, -0.31425726413726807, -0.27998989820480347, -0.285390704870224, -0.32824429869651794, -0.2515275776386261, -0.17556022107601166, -0.3152133822441101, -0.2700883448123932, -0.2771099805831909, -0.2050463855266571, -0.28390252590179443, -0.2425307035446167, -0.202248677611351, -0.14351584017276764, -0.25043147802352905, -0.23666681349277496, -0.24069899320602417, -0.28539174795150757, -0.2424859255552292, -0.25145071744918823, -0.0986899733543396, -0.09607972204685211, -0.10006272047758102, -0.19433006644248962, -0.29487600922584534, -0.21369251608848572, -0.2362419217824936, -0.16500580310821533, -0.10570696741342545, -0.0376276895403862, -0.15768979489803314, -0.20713475346565247, -0.17504668235778809, -0.18638309836387634, -0.22308477759361267, -0.20468071103096008, -0.05747077241539955, -0.06070640683174133, 0.023626012727618217, -0.14655323326587677, -0.23982886970043182, -0.18185578286647797, -0.24271425604820251, -0.1669325977563858, -0.334850013256073, -0.3113202750682831, -0.19594624638557434, -0.22201547026634216, -0.1638006716966629, -0.17381800711154938, -0.16592662036418915, -0.15186342597007751, -0.18048866093158722, -0.09768162667751312, -0.2902677357196808, -0.23310281336307526, -0.1732873022556305, -0.20797288417816162, -0.16425611078739166, -0.11393193155527115, -0.43439266085624695, -0.5602374076843262, -0.6974628567695618, -0.6816304326057434, -0.6877625584602356, -0.7328316569328308, -0.9173266887664795, -0.6852627992630005, -0.35936862230300903, -0.4979187250137329, -0.5891895890235901, -0.6838642358779907, -0.5863687992095947, -0.7174968719482422, -0.682022213935852, -0.7128735184669495, -0.37887662649154663, -0.4629732668399811, -0.48969587683677673, -0.541657567024231, -0.5466902852058411, -0.6996132135391235, -0.6830811500549316, -0.6236991882324219, -0.4139038920402527, -0.5233650207519531, -0.5135902762413025, -0.5852283239364624, -0.605848491191864, -0.5997519493103027, -0.6932087540626526, -0.6184362769126892, -0.40661755204200745, -0.5011561512947083, -0.5384404063224792, -0.5784469842910767, -0.5463058352470398, -0.6314795017242432, -0.6363450884819031, -0.7268033027648926, -0.41958343982696533, -0.5693917274475098, -0.3564481735229492, -0.43019381165504456, -0.6225112080574036, -0.6320704817771912, -0.6461811661720276, -0.5596769452095032, -0.6266807317733765, -0.6424745321273804, -0.4645383059978485, -0.4929651916027069, -0.5970682501792908, -0.538573145866394, -0.5326804518699646, -0.4768997132778168, -0.47908011078834534, -0.5371842384338379, -0.6580440998077393, -0.5389483571052551, -0.6103073954582214, -0.5187936425209045, -0.4836725890636444, -0.5438955426216125, -0.3425414264202118, -0.22909507155418396, -0.3841712176799774, -0.056447867304086685, -0.31702113151550293, -0.26916006207466125, -0.4212227165699005, -0.3153441250324249, -0.22927793860435486, -0.10698100924491882, -0.15194843709468842, 0.021757282316684723, -0.13879132270812988, -0.3578457832336426, -0.9900422692298889, -0.41450923681259155, -0.12539415061473846, -0.1071285828948021, -0.26751965284347534, -0.18183931708335876, -0.2622257471084595, -0.3831586539745331, -0.5409027338027954, -0.34253227710723877, -0.11039712280035019, -0.12859702110290527, -0.0433100201189518, -0.2610892057418823, -0.2337130606174469, -0.3273908495903015, -0.28601691126823425, -0.32807865738868713, -0.19357745349407196, -0.011771433986723423, 0.0006077322759665549, -0.2104831337928772, -0.25962474942207336, -0.3069162964820862, -0.3378344178199768, -0.2600470185279846, 0.04785006865859032, 0.14853090047836304, 0.23738858103752136, 0.17969198524951935, -0.14462949335575104, -0.2431623786687851, -0.2523643672466278, -0.267892062664032, 0.8400297164916992, 0.6690654158592224, 0.7444462776184082, 0.5414217710494995, -0.05838838964700699, -0.226674884557724, -0.2380727082490921, -0.3069706857204437, 1.9782023429870605, 1.9771203994750977, 1.2345927953720093, 0.6465233564376831, -0.06098330020904541, -0.2609529495239258, -0.30185121297836304, -0.28546369075775146], [0.01907488889992237, -0.03350945934653282, -0.030630184337496758, 0.036014966666698456, 0.0023600440472364426, 0.0023071817122399807, 0.0015884627355262637, -0.032436881214380264, 0.03254503384232521, 0.05734429880976677, 0.050082311034202576, 0.05900261923670769, -0.20649805665016174, -0.14053785800933838, -0.2182532697916031, 0.04034474864602089, 0.05825195834040642, 0.04825545474886894, 0.00694755744189024, 0.01129859033972025, 0.010309872217476368, -0.4241432845592499, -0.0789947584271431, 0.010267594829201698, 0.031184785068035126, 0.04673607647418976, 0.060937732458114624, 0.051023032516241074, 0.012786551378667355, -0.9614324569702148, 0.0432572141289711, 0.014982791617512703, 0.03893762454390526, 0.07171126455068588, 0.05364714190363884, 0.06670915335416794, -0.008765798062086105, -0.9149895906448364, 0.16610866785049438, 0.025047555565834045, -0.007422846741974354, 0.0823090523481369, 0.056846734136343, 0.06985560804605484, -0.10545341670513153, -0.7260616421699524, 0.00808689370751381, 0.02913052774965763, 0.04124108701944351, -0.025313813239336014, -0.045221079140901566, 0.09086914360523224, -0.2379179149866104, -0.5380364060401917, -0.13249360024929047, 0.2618057429790497, -0.015021314844489098, -0.024156060069799423, -0.023126184940338135, -0.024933479726314545, 0.029391704127192497, 0.0032774752471596003, -0.010035043582320213, 0.02113656885921955, 0.24454829096794128, 0.20792587101459503, 0.16049258410930634, 0.03511160612106323, 0.1293773055076599, 0.15829870104789734, 0.14093372225761414, 0.027399877086281776, 0.1306193470954895, 0.09519941359758377, 0.12812568247318268, 0.01205994002521038, 0.08624965697526932, 0.16576454043388367, 0.12551163136959076, -0.07340820133686066, 0.20996537804603577, 0.1366427093744278, 0.1083991751074791, -0.06911049783229828, 0.11810984462499619, 0.08307114988565445, 0.03917061910033226, -0.11702825874090195, 0.21080568432807922, 0.23605476319789886, 0.11472730338573456, 0.015798453241586685, -0.09536957740783691, -0.006723266560584307, -0.017714479938149452, 0.04735720902681351, 0.2759654223918915, 0.21306441724300385, 0.06998482346534729, 0.14428363740444183, -0.06043126806616783, -0.042445991188287735, -0.09218451380729675, 0.19670020043849945, 0.256911963224411, 0.21931755542755127, 0.1609703004360199, 0.18525578081607819, -0.21042023599147797, -0.06164203956723213, -0.3960343897342682, 0.13332711160182953, 0.2757205367088318, 0.2613763213157654, 0.16270840167999268, -0.1663195937871933, 0.20268405973911285, 0.15051913261413574, 0.087948739528656, -0.5508764386177063, 0.2591340243816376, 0.09225230664014816, 0.17779402434825897, 0.1809578388929367, 0.2659796476364136, -0.43696171045303345, 0.17100784182548523, 0.028788719326257706, 0.22866320610046387, 0.05946509912610054, 0.17329353094100952, 0.05724000558257103, -0.010857313871383667, 0.09725087881088257, -0.19771230220794678, -0.041805706918239594, 0.21690624952316284, 0.14583832025527954, 0.11767945438623428, 0.09918910264968872, 0.02763328328728676, 0.17534835636615753, -0.09778732806444168, 0.07455448806285858, 0.09706764668226242, 0.18029449880123138, 0.14456787705421448, -0.02176673524081707, -0.16603818535804749, 0.15561959147453308, -0.16731326282024384, -0.033516623079776764, 0.2016451060771942, 0.1164325699210167, 0.13609039783477783, 0.015161584131419659, -0.15978895127773285, 0.015801113098859787, -0.10739630460739136, -0.02283450961112976, 0.18287035822868347, 0.15905722975730896, -0.07892704010009766, 0.12254343181848526, 0.009551174938678741, -0.09709510207176208, 0.09417595714330673, 0.03843548521399498, 0.11014272272586823, 0.07905817031860352, 0.15184451639652252, -0.179975226521492, 0.08149663358926773, 0.01111295260488987, 0.11301324516534805, -0.05347380414605141, 0.04865849018096924, 0.020661987364292145, 0.10100560635328293, 0.1707492619752884, -0.13323982059955597, -0.06364152580499649, -0.22321274876594543, 0.11875452846288681, 0.24408991634845734, 0.14165283739566803, 0.24613310396671295, 0.20386335253715515, 0.11757416278123856, -0.005036912392824888, 0.16789710521697998, 0.15494896471500397, 0.12042730301618576, 0.1177065521478653, 0.12009669095277786, 0.07778570055961609, 0.08566296100616455, -0.13660584390163422, 0.08770641684532166, 0.1296170949935913, 0.1178215742111206, 0.07780156284570694, 0.04532443359494209, 0.029988322407007217, -0.08209685236215591, 0.011675981804728508, 0.016146689653396606, -0.031179845333099365, 0.06509491801261902, 0.10291849821805954, 0.1283809095621109, 0.11530960351228714, 0.022180866450071335, -0.19887804985046387, 0.010304038412868977, 0.13553014397621155, 0.20621177554130554, 0.2051960527896881, 0.07380945235490799, 0.09792374074459076, -0.0073575712740421295, -0.42445823550224304, 0.06211939826607704, 0.055804576724767685, 0.14979515969753265, 0.14527015388011932, 0.19944524765014648, 0.13797467947006226, -0.051481202244758606, -0.44619643688201904, 0.09466139227151871, 0.09967172145843506, 0.16376711428165436, 0.13931681215763092, 0.14516791701316833, 0.11628273129463196, 0.08608777821063995, -0.44057267904281616, 0.08166582882404327, 0.06411480158567429, 0.15160535275936127, 0.16292543709278107, 0.15659676492214203, 0.06445282697677612, -0.07434876263141632, -0.42599987983703613, 0.009565621614456177, 0.060359444469213486, 0.09641344845294952, 0.08288745582103729, 0.1341308057308197, -0.003674112493172288, -0.21431009471416473, -0.5952785611152649, -0.38021087646484375, 0.03835205361247063, 0.4253719747066498, 0.37349003553390503, 0.40293002128601074, 0.3518374264240265, 0.24222210049629211, 0.5353765487670898, 0.26914265751838684, 0.3873746693134308, 0.38712379336357117, 0.3704266846179962, 0.28004518151283264, 0.28315311670303345, 0.20331254601478577, 0.6032736301422119, 0.23058713972568512, 0.35009893774986267, 0.43869924545288086, 0.3657756447792053, 0.3320232629776001, 0.2801741361618042, 0.2038835734128952, 0.6277945041656494, 0.2138504683971405, 0.37530195713043213, 0.4348042607307434, 0.42847707867622375, 0.35402485728263855, 0.25463277101516724, 0.11341620981693268, 0.6224895119667053, 0.230938121676445, 0.35387513041496277, 0.41746169328689575, 0.40613114833831787, 0.3351578712463379, 0.3225598931312561, 0.1559150665998459, 0.5441762804985046, 0.338309109210968, 0.24831248819828033, 0.42963001132011414, 0.4220578074455261, 0.38897836208343506, 0.2681474983692169, 0.30619579553604126, 0.5030868053436279, 0.419046550989151, 0.38876840472221375, 0.5141355991363525, 0.5259922742843628, 0.40460044145584106, 0.45101720094680786, 0.30693620443344116, 0.41684195399284363, 0.4387347102165222, 0.43819472193717957, 0.4596189856529236, 0.5045912265777588, 0.45006874203681946, 0.47794753313064575, 0.4478137791156769, -0.9335117340087891, 0.26740020513534546, 0.40266114473342896, -0.2885076701641083, -0.2861309349536896, -0.07186760753393173, 0.1932077556848526, 0.31568554043769836, 0.5882726311683655, 0.2817508578300476, 0.28610509634017944, -0.7278686165809631, -0.31254062056541443, 0.014313099905848503, 0.27976933121681213, 0.31001633405685425, 0.7651140093803406, 0.33488383889198303, 0.29594889283180237, -0.8331313729286194, -0.8714256882667542, -0.30620571970939636, 0.16189061105251312, 0.39400067925453186, 0.7205628752708435, 0.4001568853855133, 0.22941143810749054, -0.7921398878097534, -0.6868568062782288, -0.24783895909786224, 0.2553350329399109, 0.3816209137439728, 0.5854360461235046, 0.3769068121910095, 0.22489066421985626, -0.6268876194953918, -0.4270728528499603, -0.031399451196193695, -0.36726152896881104, 0.3656191825866699, 0.5559167861938477, 0.24898599088191986, -0.08945085853338242, -0.5813674330711365, -0.08568007498979568, -0.42626112699508667, 0.22028911113739014, 0.23752324283123016, 0.155053049325943, 0.10003992170095444, -0.5217882394790649, -0.27989283204078674, 0.22068823873996735, 0.10466864705085754, 0.06749413162469864, 0.05817267671227455, 0.4499756097793579, 0.1508711576461792, 0.39862027764320374, 0.021456483751535416, 0.24128614366054535, 0.2378934919834137, -0.7060184478759766, 0.5499677062034607, 0.5938304662704468, -0.5682754516601562, -0.9197997450828552, 0.007579990662634373, -0.026723023504018784, -0.022922491654753685, 0.01991354487836361, 0.024131128564476967, -0.03041425347328186, 0.016447000205516815, -0.025189775973558426, 0.11176887899637222, -0.009450548328459263, 0.04427759721875191, 0.21888330578804016, 0.22885259985923767, 0.24839657545089722, 0.28584930300712585, 0.14940547943115234, 0.022874386981129646, 0.07181951403617859, 0.1320040374994278, 0.2053210288286209, 0.32725146412849426, -0.983208179473877, 0.22058045864105225, 0.17485098540782928, -0.018343418836593628, 0.02118346281349659, -0.0028224100824445486, 0.04382063075900078, 0.053943391889333725, -0.9143902063369751, 0.027648678049445152, 0.1406487375497818, 0.007044052239507437, -0.014964551664888859, -0.010886069387197495, 0.021370600908994675, -0.07929902523756027, -1.010153889656067, 0.012300417758524418, 0.09464380890130997, 0.02298029139637947, -0.015548025257885456, -0.019788024947047234, 0.0018815419171005487, -0.016721367835998535, -1.3918933868408203, -0.02629815973341465, 0.0006289693992584944, 0.009276236407458782, -0.02726220153272152, -0.018604572862386703, 0.04163656011223793, -0.03741581365466118, -1.4788503646850586, 0.01877756044268608, 0.0374329574406147, 0.016738761216402054, -0.007521712686866522, 0.029941193759441376, -0.0008751293062232435, -0.011370504274964333, -0.03260651230812073, 0.02501765638589859, -0.008310035802423954, 0.02503339573740959, 0.07256220281124115, 0.074360191822052, 0.2707516551017761, 0.2940659821033478, 0.3579079210758209, 0.4090399742126465, 0.19754022359848022, -0.03342190384864807, 0.076163150370121, 0.16618184745311737, 0.12681032717227936, 0.09828559309244156, 0.09951117634773254, 0.13757450878620148, 0.29276710748672485, -0.14787033200263977, -0.02753148227930069, 0.08418575674295425, 0.1467040777206421, 0.13295425474643707, -0.07093825191259384, 0.10981979966163635, 0.3133563697338104, -0.12238815426826477, -0.07306358218193054, 0.0038922710809856653, 0.1250682771205902, 0.13099078834056854, -0.06440938264131546, 0.15885484218597412, 0.1572268158197403, -0.15068389475345612, -0.10704022645950317, -0.050890617072582245, -0.05230732262134552, 0.08824081718921661, -0.2148231714963913, 0.14024464786052704, -0.07285130769014359, -0.18020980060100555, -0.14355620741844177, -0.13829706609249115, -0.14088302850723267, -0.004945617169141769, -0.3502871096134186, -0.04109255596995354, -0.09282165765762329, -0.11947187036275864, -0.16928842663764954, -0.11962861567735672, -0.1637357920408249, -0.13127943873405457, -0.5277385115623474, -0.09201816469430923, -0.15984871983528137, -0.1475103497505188, -0.23366563022136688, -0.1246073991060257, -0.18362149596214294, -0.19336776435375214, -0.12142083048820496, -0.3226587474346161, -0.12626628577709198, -0.13333849608898163, -0.13613641262054443, 0.06594668328762054, -0.07483983039855957, 0.14614464342594147, 0.23363569378852844, 0.002377299126237631, 0.09518725425004959, -0.1198466494679451, -0.035875942558050156, 0.058372244238853455, -0.04270955175161362, 0.16527089476585388, 0.011918270960450172, 0.028127167373895645, 0.08716218173503876, -0.07673615217208862, -0.03841801732778549, -0.02397852949798107, 0.0885433778166771, 0.18135949969291687, -0.07699674367904663, 0.15756501257419586, 0.10022962838411331, -0.10594548285007477, 0.009159469045698643, 0.05817210301756859, 0.20046895742416382, 0.06871187686920166, -0.22557823359966278, 0.09157361835241318, 0.11488590389490128, -0.07346416264772415, -0.052934885025024414, 0.08141708374023438, 0.08881688117980957, -0.008437896147370338, -0.29563653469085693, 0.11619874089956284, 0.07966528832912445, -0.025218484923243523, 0.06212591752409935, -0.04450042173266411, -0.03441522270441055, -0.0638580396771431, -0.3352012634277344, -0.06983587145805359, 0.020674318075180054, -0.0574435219168663, -0.06275004893541336, -0.022439491003751755, -0.14962446689605713, -0.07236400246620178, -0.39620786905288696, -0.12347374111413956, -0.06816334277391434, -0.018349910154938698, -0.02205701358616352, -0.17351800203323364, -0.021980665624141693, -0.12996691465377808, -0.3458588123321533, -0.06633594632148743, -0.13732905685901642, 0.16760961711406708, 0.13336579501628876, 0.1043771281838417, 0.06688376516103745, 0.09945009648799896, 0.39982059597969055, 0.08121945708990097, 0.07006224244832993, 0.07075733691453934, 0.23627151548862457, 0.18966853618621826, 0.11796911060810089, 0.1836705058813095, 0.32238414883613586, 0.24209612607955933, 0.1344059705734253, 0.010815322399139404, 0.0739026814699173, 0.07505263388156891, 0.07431640475988388, 0.1619393676519394, 0.28533223271369934, 0.1494162380695343, 0.11462022364139557, -0.0058851102367043495, -0.015083502046763897, 0.022818492725491524, 0.077438123524189, 0.16395987570285797, 0.31355521082878113, 0.1845748871564865, 0.14963525533676147, -0.03577829524874687, -0.07706122100353241, -0.0706055536866188, 0.07114260643720627, 0.08674173802137375, 0.37194401025772095, 0.14154259860515594, 0.05006719380617142, 0.01518033817410469, 0.05263606086373329, 0.06866694986820221, 0.013438344933092594, 0.15813633799552917, 0.43878650665283203, 0.1272619664669037, 0.06528735160827637, 0.030772008001804352, 0.04736848175525665, 0.1136474683880806, 0.07263559103012085, 0.1094655692577362, 0.5977575182914734, 0.18854060769081116, 0.1571846604347229, 0.09725984185934067, 0.06194721534848213, 0.038063012063503265, 0.10949451476335526, 0.08718151599168777, 0.7300733327865601, 0.09981617331504822, 0.09464731812477112, 0.10971201211214066, 0.1341579705476761, 0.2399900108575821, 0.32687026262283325, 0.38096579909324646, 0.3675374686717987, 0.3577558398246765, 0.33829841017723083, 0.17867325246334076, 0.22726301848888397, 0.25652533769607544, 0.280597448348999, 0.44250473380088806, 0.07759662717580795, 0.35304775834083557, 0.3511902391910553, 0.10449427366256714, 0.18386153876781464, 0.19323036074638367, 0.21722456812858582, 0.38250070810317993, 0.181532621383667, 0.38832905888557434, 0.28018447756767273, 0.009841288439929485, 0.12469859421253204, 0.17116348445415497, 0.23865436017513275, 0.2852502465248108, 0.1793563961982727, 0.2693312168121338, 0.2675741910934448, -0.009305041283369064, 0.10634566098451614, 0.14728020131587982, 0.1371912658214569, 0.15537124872207642, 0.130897656083107, 0.19571354985237122, 0.17046938836574554, 0.08281263709068298, 0.07680784165859222, 0.11040656268596649, 0.11475156247615814, 0.09670372307300568, 0.17301246523857117, 0.0914374366402626, 0.16198578476905823, 0.0921815037727356, 0.10531767457723618, 0.06820765882730484, 0.011523163877427578, 0.03348032385110855, 0.25708702206611633, 0.0831492617726326, 0.0356193482875824, 0.12136884033679962, 0.023852873593568802, 0.04125490412116051, -0.027964672073721886, 0.021219853311777115, 0.5138488411903381, 0.05515476316213608, -0.003231941256672144, 0.405319482088089, 0.2986668348312378, 0.056188736110925674, 0.4797341525554657, 0.652026355266571, -0.5973271727561951, -0.6925317049026489, -0.47151193022727966, 0.2724834978580475, 0.2940950393676758, 0.38428932428359985, 0.229202002286911, 0.39114952087402344, -0.3908156752586365, 0.42475026845932007, -0.12650327384471893, 0.5403379797935486, 0.33290350437164307, 0.3153781592845917, 0.3605048954486847, 0.4250599145889282, -1.2240015268325806, -0.9948992133140564, 0.2712004780769348, 0.39788818359375, 0.41631796956062317, 0.3122260570526123, 0.44260427355766296, 0.22596310079097748, -1.0083281993865967, 0.38542526960372925, 0.3843865990638733, 0.5654358267784119, 0.4270818829536438, 0.37866073846817017, 0.4199342131614685, 0.2934775650501251, -1.2452242374420166, 0.4120495021343231, 0.41717270016670227, 0.4656490087509155, 0.49778321385383606, 0.4533224105834961, 0.38534995913505554, 0.3380885720252991, -0.15329524874687195, 0.2874290347099304, 0.499153196811676, 0.4877331554889679, 0.46321117877960205, 0.43799883127212524, 0.4792594015598297, 0.4451952874660492, -0.06045563146471977, 0.39590245485305786, 0.37531429529190063, 0.38935586810112, 0.5093715786933899, 0.4077528417110443, 0.41676458716392517, 0.4185187816619873, 0.19236712157726288, 0.3960054814815521, 0.3928734362125397], [-0.0070964265614748, 0.03535696119070053, 0.016793029382824898, -0.030782727524638176, 0.033866845071315765, 0.007574066985398531, -0.03435709327459335, 0.032629817724227905, 0.06863126903772354, 0.0722249299287796, -0.00649368716403842, 0.003831186331808567, -0.01280211005359888, -0.06629205495119095, -0.038685742765665054, 0.008148139342665672, 0.052530061453580856, 0.16420704126358032, -0.06143161281943321, 0.17279420793056488, -0.0776260644197464, -0.06804236769676208, -0.04768141731619835, -0.027932288125157356, -0.06897836178541183, 0.2425762265920639, -0.4003908634185791, 0.13830696046352386, -0.0670563280582428, -0.044729821383953094, -0.034634169191122055, -0.03910532966256142, -0.11139621585607529, 0.20242293179035187, -0.3885439932346344, 0.04871830344200134, -0.057409849017858505, -0.02275944873690605, -0.010168877430260181, -0.008517620153725147, -0.03833496943116188, 0.25748276710510254, -0.34337207674980164, 0.064907506108284, 0.03934556618332863, 0.024167640134692192, 0.16139939427375793, -0.06088161841034889, -0.23866888880729675, 0.11872435361146927, -0.557360827922821, 0.1360265463590622, 0.0715102106332779, 0.04406080022454262, 0.2504248321056366, 1.9800000190734863, -0.001312472391873598, -0.02851446159183979, -0.03166527301073074, 0.02346702665090561, 0.007232077419757843, -0.03090735711157322, -0.01603817380964756, -0.0062967645935714245, -0.23750068247318268, -0.16976171731948853, -0.2746707797050476, -0.14443260431289673, -0.11863929778337479, -0.1096462607383728, -0.15654386579990387, -0.06836411356925964, -0.34706398844718933, -0.21072381734848022, -0.2815902829170227, -0.14540864527225494, -0.16693192720413208, -0.10998094826936722, -0.18870781362056732, -0.0408027358353138, -0.17371420562267303, -0.164657324552536, -0.2876397967338562, -0.16068726778030396, -0.2269386202096939, -0.16334347426891327, -0.11150694638490677, -0.21341250836849213, -0.19995109736919403, -0.4118579030036926, -0.26705244183540344, -0.3423115313053131, -0.15732483565807343, -0.2135419249534607, -0.23346537351608276, -0.09400775283575058, -0.2960072457790375, -0.11046762019395828, -0.16106551885604858, -0.3376343548297882, -0.227740079164505, -0.207919180393219, -0.18492254614830017, -0.11464627087116241, -0.6335878372192383, -0.11640718579292297, -0.2671194076538086, -0.13274721801280975, -0.34388643503189087, -0.2699577212333679, -0.11360495537519455, -0.2238539755344391, 0.09323623776435852, -0.18962548673152924, -0.34988272190093994, -0.2691568434238434, -0.1454644352197647, -0.17970217764377594, -0.13024815917015076, -0.14790594577789307, 0.2824009954929352, -0.07892599701881409, -0.3758982717990875, -0.2973466217517853, -0.2683168351650238, -0.3415589928627014, 0.021810175850987434, -0.10435347259044647, -0.2809401750564575, -0.2992101311683655, -0.2825966775417328, -0.3915352523326874, -0.2921654284000397, -0.31862086057662964, -0.226274773478508, -0.33432966470718384, -0.5194158554077148, -0.24809090793132782, -0.2763350307941437, -0.23553866147994995, -0.30637142062187195, -0.23080489039421082, -0.2827173173427582, -0.20395557582378387, -0.3778958320617676, -0.45679327845573425, -0.16049475967884064, -0.3881532549858093, -0.2811353802680969, -0.2530706822872162, -0.20493684709072113, -0.17476846277713776, -0.5475162863731384, -0.4222574532032013, -0.25655874609947205, -0.31866058707237244, -0.3787122368812561, -0.27887481451034546, -0.2865056097507477, -0.10826168209314346, -0.4364613890647888, -0.2940613627433777, -0.28750288486480713, -0.38573479652404785, -0.3485720753669739, -0.2543942332267761, -0.20100611448287964, -0.19223463535308838, -0.1296042948961258, -0.5139631628990173, -0.5049703121185303, -0.40270867943763733, -0.25115156173706055, -0.3018074333667755, -0.294840544462204, -0.24459408223628998, -0.13613320887088776, -0.2733098268508911, -0.3457396328449249, -0.2979785203933716, -0.25419777631759644, -0.28123345971107483, -0.1403554528951645, -0.35353410243988037, -0.5168676376342773, -0.3014371395111084, -0.22998344898223877, -0.4342441260814667, -0.45630574226379395, -0.2780771255493164, -0.12186342477798462, -0.10003885626792908, -0.35796600580215454, -0.3287832736968994, -0.4129207730293274, -0.334256112575531, -0.3242011070251465, -0.31684866547584534, -0.27829429507255554, -0.36691245436668396, -0.3703645169734955, -0.3916141986846924, -0.48831236362457275, -0.4012223184108734, -0.2982718050479889, -0.3701169490814209, -0.33668407797813416, -0.28835469484329224, -0.3517509698867798, -0.453158974647522, -0.5392633676528931, -0.3846479654312134, -0.38862165808677673, -0.33747145533561707, -0.33116111159324646, -0.42511051893234253, -0.39538323879241943, -0.4110341966152191, -0.5580208897590637, -0.41619646549224854, -0.386132150888443, -0.40499627590179443, -0.39752432703971863, -0.3818569481372833, -0.35823026299476624, -0.3909781575202942, -0.44521012902259827, -0.37200111150741577, -0.3449053466320038, -0.40738651156425476, -0.3623158931732178, -0.4505220949649811, -0.39292487502098083, -0.42363712191581726, -0.335116446018219, -0.37929707765579224, -0.35917866230010986, -0.3159639537334442, -0.27435678243637085, -0.34669139981269836, -0.3007917106151581, -0.3946182429790497, -0.4668128192424774, -0.34975871443748474, -0.3654029071331024, -0.3356623351573944, -0.31428804993629456, -0.4801987409591675, -0.43797266483306885, -0.4392065703868866, -0.45708921551704407, -0.361007422208786, -0.30836156010627747, -0.3680022954940796, -0.36188042163848877, -0.5540235638618469, -0.7350585460662842, -0.7191088795661926, -0.8030779957771301, -0.8551710844039917, -0.806341826915741, -0.7720407247543335, -0.7992456555366516, -0.6746467351913452, -0.8972542881965637, -0.7720470428466797, -0.8067792654037476, -0.8024788498878479, -0.7832589745521545, -0.8349188566207886, -0.7518666386604309, -0.7754227519035339, -0.9785805940628052, -0.9328528046607971, -0.9184406995773315, -0.8440191745758057, -0.8366649150848389, -0.818868100643158, -0.7689642906188965, -0.72869873046875, -0.9485198855400085, -0.9355898499488831, -1.0545804500579834, -0.8570411801338196, -0.8276461362838745, -0.7980886101722717, -0.7682636380195618, -0.7616181373596191, -0.9238865375518799, -0.8539696931838989, -0.9638779759407043, -0.8677400350570679, -0.7327864170074463, -0.7168442606925964, -0.7114182710647583, -0.8003320097923279, -0.6539685130119324, -0.8871521949768066, -1.0986464023590088, -0.7853026390075684, -0.6301151514053345, -0.7066194415092468, -0.667133092880249, -0.7486408948898315, -0.8994627594947815, -0.7340514659881592, -1.0433670282363892, -0.6652129292488098, -0.7492519021034241, -0.6384775042533875, -0.5876027941703796, -0.6320205330848694, -0.8004234433174133, -0.8793007731437683, -0.8450524210929871, -0.8001776933670044, -0.717224657535553, -0.8604151606559753, -0.8659006953239441, -0.7151423692703247, 0.10480952262878418, -0.001522325212135911, 0.21049901843070984, 0.13434313237667084, 0.16201147437095642, 0.1690470576286316, 0.11355321854352951, 0.027845129370689392, -0.024732524529099464, 0.04282312095165253, 0.1325570046901703, 0.1449773758649826, 0.1675516813993454, 0.15101897716522217, 0.1125182956457138, 0.04751912131905556, 0.003718458814546466, 0.09165813773870468, 0.23184850811958313, 0.1567855030298233, 0.12790237367153168, 0.09997197985649109, 0.12715233862400055, 0.11281338334083557, -0.028048114851117134, 0.16697286069393158, 0.2566007971763611, 0.18647584319114685, 0.048692263662815094, 0.0792943462729454, 0.0945105031132698, 0.12431037425994873, 0.09451322257518768, 0.35218480229377747, 0.07712337374687195, 0.2369116246700287, 0.06734417378902435, 0.09366428852081299, 0.07199499756097794, 0.09013182669878006, 0.25435563921928406, 0.2014085054397583, 0.22539478540420532, 0.30372026562690735, -0.02581212669610977, -0.07029876857995987, 0.08354547619819641, 0.1914767026901245, 0.23002713918685913, 0.061847981065511703, 0.11354704946279526, 0.32817354798316956, -0.00993751734495163, -0.05190127342939377, 0.06041932851076126, 0.12347555160522461, 0.25779131054878235, 0.39122965931892395, 0.20099669694900513, 0.30977317690849304, 0.015239514410495758, -0.08012416213750839, 0.08980033546686172, 0.6378263831138611, -0.013033900409936905, 0.022017380222678185, 0.011808659881353378, 0.03492899239063263, -0.004340721759945154, 0.0015766334254294634, -0.0316997729241848, 0.009062513709068298, 0.3821372091770172, 0.21773719787597656, 0.22848062217235565, 0.0400579497218132, 0.14164364337921143, 1.8578962087631226, -0.01292551402002573, 0.4806407690048218, 0.14252980053424835, 0.18702304363250732, 0.3842293322086334, -0.006672918330878019, 0.2077644169330597, 0.15354320406913757, 0.16224405169487, 0.04795272648334503, 0.27657487988471985, 0.08955278992652893, 1.545706033706665, -0.0662369653582573, 0.15165553987026215, 0.13346849381923676, 0.08277863264083862, 0.0409674271941185, 0.17622706294059753, 0.05619104951620102, 1.9800000190734863, -0.051805149763822556, 0.14292080700397491, 0.10886263102293015, 0.11982879787683487, 0.07651358842849731, 0.25293684005737305, -0.08157805353403091, 1.9800000190734863, 0.0021088137291371822, 0.1693233847618103, 0.10367127507925034, 0.06683755666017532, 0.05777721852064133, 0.23928475379943848, 0.030941370874643326, 1.944564938545227, 0.04298655688762665, 0.14412753283977509, 0.0935659110546112, 0.07376416027545929, 0.052857231348752975, 0.025021962821483612, -0.0031031575053930283, -0.020144203677773476, -0.010293741710484028, -0.009980994276702404, -0.013128613121807575, -0.02159082144498825, -0.017950385808944702, 0.039479538798332214, 0.2841101586818695, -0.042686156928539276, -0.0010203089332208037, 0.2976450026035309, 0.15902888774871826, 0.02586628496646881, 0.4458819031715393, 0.11116545647382736, 0.04027717188000679, 0.2848869264125824, 0.14338858425617218, 0.03400706499814987, 0.026310302317142487, 0.16170358657836914, 0.28321006894111633, 0.21478137373924255, 0.08760711550712585, 0.40151458978652954, 0.04395786300301552, 0.1435270607471466, 0.2375781387090683, 0.10083425790071487, 0.05819312855601311, 0.1016392931342125, 0.2477433979511261, 0.3124724328517914, 0.22115784883499146, 0.22403296828269958, 0.2128894031047821, 0.25543200969696045, 0.20344388484954834, 0.16505718231201172, 0.18381758034229279, 0.07664848119020462, 0.19353747367858887, 0.15278537571430206, 0.30815768241882324, 0.13844113051891327, 0.19054244458675385, -0.004221793729811907, 0.11651885509490967, 0.19386929273605347, 0.17831704020500183, 0.165891632437706, 0.24225974082946777, 0.17914529144763947, 0.11351322382688522, 0.09228645265102386, 0.07773245871067047, 0.26645439863204956, 0.11959709227085114, 0.22590123116970062, 0.18136854469776154, 0.1377524733543396, 0.17259956896305084, 0.22006957232952118, 0.00443296367302537, 0.14378045499324799, 0.1674545258283615, 0.2322370409965515, 0.17910262942314148, 0.1433631330728531, -0.08416372537612915, 0.30166658759117126, 0.12430734932422638, 0.20777155458927155, 0.23294447362422943, 0.3213164210319519, 0.2454063892364502, 0.23765705525875092, 0.12130923569202423, 0.2767074406147003, 0.23959298431873322, 0.20763005316257477, 0.1993769109249115, 0.33537155389785767, 0.12011633068323135, 1.973888874053955, 0.1757957488298416, 0.27669593691825867, 0.4539346694946289, 0.38102880120277405, 0.260799378156662, 0.3210296332836151, 0.1459318995475769, 0.17227816581726074, 0.28370794653892517, 0.2724105417728424, 0.33441051840782166, 0.42422568798065186, 0.15984413027763367, 0.253203809261322, 0.18904618918895721, 0.22688822448253632, 0.2231416553258896, 0.20496731996536255, 0.3846803903579712, 0.0461604930460453, 0.26109063625335693, 0.20528362691402435, 0.19319584965705872, 0.2768367528915405, 0.22318372130393982, 0.26037952303886414, 0.204038605093956, 0.2957296073436737, 0.3007522225379944, 0.28914207220077515, 0.21239937841892242, 0.22477367520332336, 0.2450362741947174, 0.26148760318756104, 0.28034287691116333, 0.2989269495010376, 0.26573023200035095, 0.2344760000705719, 0.2489311844110489, 0.18359291553497314, 0.2627745568752289, 0.5657649040222168, 0.29129135608673096, 0.1748729646205902, 0.3472154140472412, 0.3298724591732025, 0.2234210968017578, 0.1960904896259308, 0.11516112089157104, 0.49241989850997925, 0.5600355863571167, 0.44659823179244995, 0.5705013871192932, 0.527885913848877, 0.5444890260696411, 0.5492273569107056, 0.4982888698577881, 0.5139618515968323, 0.48614442348480225, 0.5272512435913086, 0.5650760531425476, 0.5003333687782288, 0.4717319905757904, 0.565999448299408, 0.521232008934021, 0.47017985582351685, 0.4728136360645294, 0.547484278678894, 0.5532680749893188, 0.46598419547080994, 0.49348825216293335, 0.5290465354919434, 0.4428061842918396, 0.4646490216255188, 0.5134595632553101, 0.5506805181503296, 0.4669068157672882, 0.4826298952102661, 0.4581776559352875, 0.453062504529953, 0.45050138235092163, 0.5072688460350037, 0.45820900797843933, 0.6327054500579834, 0.475738525390625, 0.5123648047447205, 0.5073283314704895, 0.5229311585426331, 0.5111902952194214, 0.4950295090675354, 0.4396265149116516, 0.733501672744751, 0.5080249905586243, 0.4763602018356323, 0.47127899527549744, 0.4408818185329437, 0.47965696454048157, 0.49700596928596497, 0.5351512432098389, 0.8352486491203308, 0.5197815895080566, 0.43187621235847473, 0.47494056820869446, 0.4951942265033722, 0.4103887379169464, 0.5883496999740601, 0.5325015187263489, 1.969296932220459, 0.5363410711288452, 0.5199032425880432, 0.47041821479797363, 0.5303546786308289, 0.4875377118587494, 0.7501852512359619, 0.708882212638855, 0.7095490097999573, 0.7184039354324341, 0.7140410542488098, 0.7675406336784363, 0.6787608861923218, 0.8020086288452148, 0.8154699206352234, 0.9301202297210693, 1.0245112180709839, 0.7878446578979492, 0.8247354626655579, 0.7943952083587646, 0.7534913420677185, 0.8463150858879089, 0.9148482084274292, 0.9650557637214661, 1.3039454221725464, 0.9108505249023438, 0.7251197099685669, 0.7501645684242249, 0.8243067860603333, 0.8343018293380737, 0.9004456996917725, 0.9503554105758667, 0.9699837565422058, 0.8344510793685913, 0.8524854779243469, 0.8093132376670837, 0.8786801099777222, 0.9262528419494629, 0.832298219203949, 0.8964584469795227, 1.043745756149292, 0.8844513893127441, 0.8332745432853699, 0.8641811609268188, 0.9070091247558594, 0.8664812445640564, 0.9464900493621826, 0.8908247351646423, 1.0739666223526, 0.8848826289176941, 0.8939760327339172, 0.8621139526367188, 0.8070038557052612, 0.823904275894165, 0.9305837750434875, 1.0094664096832275, 1.2257810831069946, 0.9009642601013184, 0.8206049203872681, 0.8318220376968384, 0.8521372675895691, 0.79389488697052, 1.0615957975387573, 1.0460249185562134, 1.5864804983139038, 1.018261432647705, 0.8912929892539978, 0.9509940147399902, 0.9210761189460754, 0.9103254079818726, -1.3194221258163452, -1.104249119758606, 0.0277665127068758, 0.0020596953108906746, -0.735846757888794, -0.4423695206642151, -1.0497589111328125, -0.21065308153629303, -0.6809638738632202, -0.0328877754509449, -0.08906064182519913, 0.07126342505216599, 0.0891888216137886, 0.4411120116710663, 0.1734328716993332, -0.4722121059894562, 0.17361170053482056, 0.0156713780015707, -0.06308010220527649, 0.04163726046681404, 0.2581340968608856, 0.39641883969306946, 0.23154579102993011, 0.1214132085442543, 0.3059070110321045, 0.10899998992681503, 0.08398906886577606, 0.1586960256099701, 0.1975351870059967, 0.25582537055015564, 0.28882431983947754, 0.24065253138542175, 0.3263750672340393, 0.09876085072755814, 0.06057769060134888, 0.1688307672739029, 0.16999474167823792, 0.2208011895418167, 0.24011600017547607, 0.19205234944820404, 0.25999966263771057, 0.16932088136672974, 0.09856345504522324, 0.09401274472475052, 0.17983296513557434, 0.12613749504089355, 0.15388493239879608, 0.10697393864393234, 0.15455563366413116, 0.10403618961572647, -0.07565106451511383, 0.0415506437420845, 0.12618906795978546, 0.12999936938285828, 0.16489769518375397, 0.19649375975131989, 0.22519755363464355, 0.11864642798900604, -0.25723832845687866, 0.06517551094293594, 0.0215456523001194, 0.1576845347881317, 0.2009284347295761, 0.16009868681430817], [0.034213755279779434, -0.02086133509874344, -0.005491454619914293, 0.017715200781822205, 0.028704330325126648, 0.014762057922780514, -0.024557923898100853, -0.00409581046551466, 0.4073393642902374, 0.16255953907966614, 0.16770394146442413, 0.151292622089386, 0.15910659730434418, 0.15981745719909668, 0.15224279463291168, 0.23444531857967377, 0.37328049540519714, 0.08532389998435974, 0.06293132901191711, 0.039213668555021286, 0.039812006056308746, 0.028290584683418274, 0.10533333569765091, 0.1437920778989792, 0.43260571360588074, 0.16287024319171906, 0.049349475651979446, 0.06160815432667732, 0.08862695097923279, 0.0966835469007492, 0.10560748726129532, 0.08213098347187042, 0.584053635597229, 0.26157450675964355, 0.0763312578201294, 0.055616091936826706, 0.06222068890929222, 0.11653130501508713, 0.07847651839256287, 0.005186696071177721, 0.8059945106506348, 0.651559054851532, 0.2801129221916199, 0.1368447244167328, 0.09501731395721436, 0.09556476771831512, -0.005406989715993404, -0.09041991829872131, 0.8918858766555786, 0.9005908370018005, 0.601294755935669, 0.238734170794487, 0.26430732011795044, 0.134463369846344, 0.12274631857872009, -0.10264081507921219, 0.0028620660305023193, -0.0336209312081337, 0.004428719636052847, -0.0200953371822834, 0.03448034077882767, 0.008328025229275227, 0.02506769821047783, 0.024843154475092888, 0.2444014549255371, 0.16133877635002136, 0.1653323769569397, 0.2243533432483673, 0.13662482798099518, 0.2198500782251358, 0.15667149424552917, -0.5146114230155945, 0.2768453359603882, 0.2325039654970169, 0.24727363884449005, 0.22482800483703613, 0.2802729904651642, 0.20764338970184326, 0.1542450189590454, 0.17889367043972015, 0.1990431547164917, 0.24497810006141663, 0.2480274736881256, 0.2398679554462433, 0.19945909082889557, 0.227341428399086, 0.16868431866168976, 0.13124030828475952, 0.21033884584903717, 0.2821160554885864, 0.23412679135799408, 0.22699487209320068, 0.23170600831508636, 0.23465003073215485, 0.14279228448867798, 0.07873694598674774, 0.31671807169914246, 0.28017884492874146, 0.31680431962013245, 0.2667314112186432, 0.2935781478881836, 0.21113666892051697, 0.1565660983324051, 0.07856658846139908, 0.4391162395477295, 0.3612772822380066, 0.36163732409477234, 0.3776364028453827, 0.2703540027141571, 0.19206106662750244, 0.12097878009080887, 0.016836758702993393, 0.43094462156295776, 0.4083276689052582, 0.2841341197490692, 0.33348536491394043, 0.25029003620147705, 0.16183771193027496, 0.12586364150047302, 0.14227062463760376, 0.6365123987197876, 0.40811967849731445, 0.39622417092323303, 0.3484041690826416, 0.2513265311717987, 0.20480626821517944, 0.010777810588479042, 0.22917383909225464, 0.24957618117332458, 0.27100661396980286, 0.26205864548683167, 0.22472518682479858, 0.2535894811153412, 0.24186642467975616, 0.21731694042682648, 0.1182781532406807, 0.20404593646526337, 0.24655531346797943, 0.17046402394771576, 0.2137828916311264, 0.20207375288009644, 0.2565481960773468, 0.19441868364810944, 0.22948352992534637, 0.29004934430122375, 0.15615813434123993, 0.22319281101226807, 0.16962380707263947, 0.19031836092472076, 0.10474931448698044, 0.268000066280365, 0.2789289355278015, 0.1876882165670395, 0.1333727389574051, 0.138876274228096, 0.2050505131483078, 0.11011382192373276, 0.2461479753255844, 0.14961136877536774, 0.24744386970996857, 0.21792809665203094, 0.10911846160888672, 0.2251061648130417, 0.15648087859153748, 0.20125797390937805, 0.1930035501718521, 0.2356395572423935, 0.19132350385189056, 0.24823246896266937, 0.1802845150232315, 0.16864944994449615, 0.22951653599739075, 0.23153415322303772, 0.2111881822347641, 0.1655944287776947, 0.2647758424282074, 0.266446977853775, 0.20812582969665527, 0.23853516578674316, 0.19668269157409668, 0.22848515212535858, 0.2014484405517578, 0.26287180185317993, 0.2566568851470947, 0.09041665494441986, 0.22870919108390808, 0.25235065817832947, 0.1893215924501419, 0.15994270145893097, 0.19760218262672424, 0.10768594592809677, 0.21479849517345428, 0.3548673391342163, 0.4733521640300751, 0.46024563908576965, 0.43792659044265747, 0.33170852065086365, 0.2880120277404785, 0.38263916969299316, 0.2668663263320923, 0.399025022983551, 0.36967167258262634, 0.4160968065261841, 0.3803080916404724, 0.3363410234451294, 0.07701493054628372, 0.3295474946498871, 0.031632766127586365, 0.44209763407707214, 0.5406374931335449, 0.5170774459838867, 0.4936806261539459, 0.42052629590034485, 0.39911600947380066, 0.4937831163406372, 0.3129674196243286, 0.507144033908844, 0.5428256392478943, 0.6174144744873047, 0.465525358915329, 0.5003122091293335, 0.40088993310928345, 0.47335779666900635, 0.2683519721031189, 0.5648737549781799, 0.5641323924064636, 0.5406928062438965, 0.584347128868103, 0.5534055233001709, 0.4803995192050934, 0.48743873834609985, 0.3354569375514984, 0.5763595104217529, 0.6638771295547485, 0.704116940498352, 0.6952676177024841, 0.6745403409004211, 0.5429301857948303, 0.5281498432159424, 0.45247212052345276, 0.6722421646118164, 0.6993300318717957, 0.7798255085945129, 0.6883543133735657, 0.6586465239524841, 0.52516770362854, 0.5127395987510681, 0.4727858603000641, 0.6812669634819031, 0.670644998550415, 0.6643509268760681, 0.622494637966156, 0.5915793776512146, 0.4704560935497284, 0.43738940358161926, 0.5215995907783508, 0.9279720783233643, 0.8579126596450806, 0.7280170917510986, 0.5862395167350769, 0.6075671911239624, 0.6808508038520813, 1.106647253036499, 0.7433329820632935, 0.9866476655006409, 0.9491128921508789, 0.7020301818847656, 0.6000622510910034, 0.5924059152603149, 0.5255149006843567, 0.5421581864356995, 1.0692209005355835, 1.0616179704666138, 1.002984642982483, 0.9212901592254639, 0.7458592653274536, 0.7555170655250549, 0.6539774537086487, 0.8437067270278931, 1.0021733045578003, 1.0218605995178223, 1.0467866659164429, 0.9035190343856812, 1.0131407976150513, 0.94422447681427, 1.0026066303253174, 0.8187797665596008, 0.7572640180587769, 1.0610756874084473, 1.1839148998260498, 1.2371926307678223, 1.1010414361953735, 0.8871191143989563, 0.9903494119644165, 0.8570184111595154, 0.7348281145095825, 1.1682791709899902, 1.3074584007263184, 1.2176181077957153, 1.1948189735412598, 1.0647592544555664, 1.1281002759933472, 0.9328716993331909, 0.9115726947784424, 1.325095295906067, 1.3091524839401245, 1.3090248107910156, 1.279291033744812, 1.2449548244476318, 1.20443594455719, 1.1776397228240967, 0.8934674263000488, 1.5639451742172241, 1.2654411792755127, 1.0959678888320923, 1.0028553009033203, -0.2358226627111435, 0.5223894119262695, 0.5793230533599854, 0.9840843677520752, -0.19152216613292694, -1.7723791599273682, 0.16069693863391876, 0.22571508586406708, 0.38150978088378906, 0.30339106917381287, 0.3363097608089447, 0.3497551679611206, -0.5822396874427795, -1.104811191558838, 0.16944266855716705, 0.2592020332813263, 0.2995694875717163, 0.30639252066612244, 0.22266769409179688, 0.2803744375705719, -0.8769643306732178, 0.030605463311076164, 0.26986637711524963, 0.35206207633018494, 0.34234562516212463, 0.2997537851333618, 0.22128145396709442, 0.2472507357597351, -0.16916972398757935, 0.21043725311756134, 0.267096608877182, 0.40507781505584717, 0.41167202591896057, 0.3231416344642639, 0.2928958237171173, 0.28877678513526917, -0.3732052147388458, 0.32231125235557556, 0.26908066868782043, 0.3924607038497925, 0.38682740926742554, 0.3894714415073395, 0.36133384704589844, 0.29948776960372925, 0.06270764023065567, 0.30184924602508545, 0.3982473611831665, 0.3532932996749878, 0.43740957975387573, 0.37897640466690063, 0.2317698746919632, 0.3632645905017853, -0.1378258913755417, 0.12474030256271362, 0.17454558610916138, 0.35347414016723633, 0.4100198745727539, 0.3937850594520569, 0.2370833158493042, 0.463777095079422, 0.10520343482494354, -0.05591317638754845, 0.09283208847045898, 0.2043106108903885, 0.24040378630161285, 0.3466474413871765, 0.30185621976852417, -0.16920210421085358, 0.01752922683954239, -0.0206418689340353, 0.02959938533604145, 0.02988041192293167, -0.020717201754450798, -0.027109354734420776, -0.010316217318177223, -0.01968758925795555, -0.19341813027858734, -0.22634603083133698, -0.04081423580646515, -0.12677189707756042, -0.2689957618713379, 0.05217548832297325, 0.11003000289201736, -1.7990460395812988, -0.12593954801559448, -0.024357464164495468, -0.001259885262697935, -0.07125631719827652, 0.0002205306082032621, 0.013675990514457226, 0.11889909207820892, -0.052984900772571564, -0.17780935764312744, -0.0776374563574791, -0.021208545193076134, -0.011996850371360779, -0.029421154409646988, 0.07333705574274063, 0.080158531665802, -0.03066527098417282, -0.16193750500679016, -0.18460029363632202, -0.0763024091720581, -0.01346629112958908, 0.032552316784858704, 0.012677033431828022, 0.04158961772918701, -0.0341990664601326, -0.18027161061763763, -0.17837193608283997, -0.019146887585520744, -0.01748955063521862, 0.036664821207523346, 0.03352190554141998, -0.005112249869853258, -0.061243608593940735, -0.2610631585121155, -0.19868126511573792, -0.08955158293247223, -0.01490280032157898, 0.1125325933098793, 0.09825066477060318, 8.9872075477615e-05, -0.027669046074151993, 0.005312000401318073, 0.02477707341313362, 0.005484408233314753, 0.02364286407828331, 0.0007331380038522184, 0.0059986598789691925, 0.02115396410226822, -0.029492180794477463, -0.12068019062280655, -0.22161765396595, -0.2895858883857727, -0.3298439383506775, -0.30028966069221497, -0.11104896664619446, -0.20912951231002808, -0.2951472997665405, -0.21922633051872253, -0.2629622220993042, -0.16821880638599396, -0.24185524880886078, -0.3185313940048218, -0.2151300460100174, -0.19013261795043945, -0.1556614190340042, -0.20973826944828033, -0.23020222783088684, -0.25377577543258667, -0.231541246175766, -0.1431482583284378, -0.16652941703796387, -0.20894552767276764, -0.14411313831806183, -0.2794297933578491, -0.21622416377067566, -0.2697334289550781, -0.1815124750137329, -0.20995530486106873, -0.19779352843761444, -0.16493946313858032, -0.1661228984594345, -0.32192307710647583, -0.28404784202575684, -0.3066210150718689, -0.24377229809761047, -0.15532314777374268, -0.17795148491859436, -0.23593555390834808, -0.23971369862556458, -0.2223028987646103, -0.2585124671459198, -0.2763864994049072, -0.27211833000183105, -0.24882559478282928, -0.1862027943134308, -0.22185514867305756, -0.19363558292388916, -0.24903158843517303, -0.33109742403030396, -0.2315465807914734, -0.25698134303092957, -0.1605197638273239, -0.14651678502559662, -0.2768024802207947, -0.1562456339597702, -0.1697079986333847, -0.24510402977466583, -0.26154816150665283, -0.22720567882061005, -0.16427575051784515, -0.1313544362783432, -0.09907393157482147, -0.23549038171768188, -0.5628506541252136, -0.5520326495170593, -0.4855177402496338, -0.45438680052757263, -0.46606776118278503, -0.4751202166080475, -0.3782786428928375, -0.4104520082473755, -0.5122590661048889, -0.5338484644889832, -0.4575112760066986, -0.5055100321769714, -0.4340530037879944, -0.4111281931400299, -0.45903268456459045, -0.46730685234069824, -0.48427554965019226, -0.4333858788013458, -0.4985371530056, -0.4730296730995178, -0.41113561391830444, -0.3183012902736664, -0.42214661836624146, -0.41605904698371887, -0.4458354413509369, -0.4896436333656311, -0.4886842668056488, -0.4552832543849945, -0.4023524522781372, -0.405790776014328, -0.2773553729057312, -0.37086907029151917, -0.41045621037483215, -0.4729488492012024, -0.4913037121295929, -0.4127737581729889, -0.47624319791793823, -0.33668282628059387, -0.39464130997657776, -0.38624054193496704, -0.505564272403717, -0.48143669962882996, -0.45651084184646606, -0.5008853077888489, -0.38385096192359924, -0.3916848599910736, -0.38775932788848877, -0.2779793441295624, -0.4175213873386383, -0.46464502811431885, -0.5429933071136475, -0.3656035363674164, -0.3653906285762787, -0.36518147587776184, -0.3775947093963623, -0.402526319026947, -0.43360742926597595, -0.5605613589286804, -0.3209092617034912, -0.4850597381591797, -0.37128946185112, -0.325469046831131, -0.4227489233016968, -0.4851117432117462, -1.9723433256149292, -1.836359977722168, -1.5947309732437134, -1.7699214220046997, -1.97691810131073, -1.785625696182251, -1.8827948570251465, -1.9684979915618896, -1.8725268840789795, -1.7800829410552979, -1.8395452499389648, -1.7865694761276245, -1.9760351181030273, -1.9615323543548584, -1.597894549369812, -1.5369110107421875, -1.906138300895691, -1.67177152633667, -1.63857901096344, -1.3780758380889893, -1.4030429124832153, -1.7444441318511963, -1.6714622974395752, -1.4613837003707886, -1.8960986137390137, -1.6644883155822754, -1.8107224702835083, -1.749199628829956, -1.7116219997406006, -1.5865999460220337, -1.4281070232391357, -1.1602879762649536, -1.7437942028045654, -1.7881850004196167, -1.910718560218811, -1.3749215602874756, -1.2397195100784302, -1.2854026556015015, -0.9709590077400208, -0.977215588092804, -1.139715552330017, -1.7133064270019531, -1.7133722305297852, -1.1558953523635864, -1.0952682495117188, -0.9739802479743958, -0.9095295667648315, -0.8207846879959106, -0.9054493308067322, -1.1376867294311523, -1.2212721109390259, -1.0867446660995483, -0.9849424958229065, -1.0295822620391846, -0.9089369773864746, -0.8699419498443604, -1.0807973146438599, -1.1705214977264404, -1.3245632648468018, -1.0556162595748901, -1.0066287517547607, -0.9729060530662537, -0.9111663699150085, -0.8779978156089783, -1.7636988162994385, -1.9395420551300049, -1.960011601448059, -1.9800000190734863, -1.9754106998443604, -1.9745712280273438, -1.9678407907485962, -1.971859335899353, -1.8885101079940796, -1.95616614818573, -1.9680734872817993, -1.9783616065979004, -1.9793646335601807, -1.9306734800338745, -1.9757070541381836, -1.6006786823272705, -1.8193106651306152, -1.7174549102783203, -1.9752603769302368, -1.9697909355163574, -1.9799138307571411, -1.9677081108093262, -1.9791306257247925, -1.8424052000045776, -1.7672760486602783, -1.923756718635559, -1.8311476707458496, -1.9328134059906006, -1.9242891073226929, -1.9598162174224854, -1.9744445085525513, -1.9029756784439087, -1.6104711294174194, -1.61479914188385, -1.6877037286758423, -1.7366150617599487, -1.9086745977401733, -1.9589122533798218, -1.9272170066833496, -1.9751120805740356, -1.5496569871902466, -1.8558895587921143, -1.7076876163482666, -1.504217267036438, -1.8048226833343506, -1.6301003694534302, -1.9114093780517578, -1.80221426486969, -1.3622794151306152, -1.607951045036316, -1.8849906921386719, -1.557259440422058, -1.4576342105865479, -1.404691457748413, -1.3984911441802979, -1.607343316078186, -1.3946871757507324, -1.289860486984253, -1.4759647846221924, -1.22664213180542, -1.3222088813781738, -1.2833032608032227, -1.425904631614685, -1.489723563194275, 0.40370649099349976, 0.194911926984787, 0.3074113726615906, 0.2643413543701172, 0.261260986328125, 0.24628205597400665, 0.3184080123901367, -0.45400041341781616, 0.3263545632362366, 0.1327764242887497, 0.2732125520706177, 0.32963407039642334, 0.3275076150894165, 0.32047444581985474, 0.3156270682811737, 0.15353859961032867, 0.165396586060524, 0.21357452869415283, 0.30151423811912537, 0.3769955635070801, 0.4573288559913635, 0.4304077625274658, 0.4263541102409363, 0.4067269563674927, -0.252763569355011, 0.061593424528837204, 0.23435112833976746, 0.3893764913082123, 0.43164822459220886, 0.4638877213001251, 0.4615790843963623, 0.5119252800941467, -0.44277048110961914, -1.596726894378662, -0.08116044104099274, 0.27176210284233093, 0.40427669882774353, 0.42826083302497864, 0.5029330253601074, 0.48892486095428467, -1.2012392282485962, -0.8360012769699097, -1.0851260423660278, 0.1597842127084732, 0.36867013573646545, 0.45618966221809387, 0.4767885208129883, 0.4856136739253998, -1.9800000190734863, -1.6676483154296875, -1.9799907207489014, -1.123225212097168, 0.3063168525695801, 0.40824973583221436, 0.48860764503479004, 0.5635790824890137, -1.949358582496643, -1.9800000190734863, -1.2747551202774048, 0.12013766914606094, 0.3664170503616333, 0.4592779874801636, 0.5005804896354675, 0.6302586197853088], [0.02576136775314808, -0.024323685094714165, 0.00679361168295145, -0.02536669373512268, -0.020949935540556908, -0.02826549857854843, -0.014745655469596386, -0.004582222085446119, 0.025087011978030205, 0.014413706958293915, 0.055246029049158096, -0.0034838446881622076, 0.04600878059864044, -0.1115262508392334, -0.10762917250394821, -0.05243353918194771, 0.014619449153542519, 0.034307561814785004, -0.014278870075941086, -0.0662800669670105, 0.012708227150142193, -0.053646836429834366, -0.08208735287189484, -0.09567562490701675, -0.009337199851870537, 0.04975532367825508, -0.08818510919809341, -0.1384017914533615, 0.012132096104323864, -0.11125769466161728, 0.0017016454366967082, -0.035929400473833084, -0.07119550555944443, 0.008940206840634346, 0.11402706056833267, -0.7555108666419983, 0.2855379283428192, -0.9743574857711792, 0.12511225044727325, 0.035759203135967255, -0.07655198127031326, 0.014516598545014858, -1.9675004482269287, -1.9783365726470947, 0.6434333920478821, 1.4424035549163818, -1.9658995866775513, -0.05374808982014656, 0.05329648777842522, -0.15736128389835358, -1.9298036098480225, -1.972979187965393, 0.6455272436141968, 0.6239346861839294, 1.422512412071228, -1.920026183128357, -0.029660088941454887, -0.009298666380345821, -0.011537078768014908, 0.004867861047387123, -0.002990584820508957, -0.023234736174345016, 0.005361494608223438, -0.022913914173841476, -0.3015245199203491, -0.029520712792873383, -0.124606192111969, -0.04865570738911629, 0.007792920805513859, -0.17143213748931885, -0.07565105706453323, -0.2622479498386383, -0.08351462334394455, -0.0020545916631817818, -0.15853042900562286, -0.0678076222538948, -0.16105541586875916, -0.1779254525899887, -0.2175792157649994, -0.0975632518529892, -0.056906189769506454, -0.03129875287413597, -0.11195453256368637, -0.05015149712562561, -0.21071963012218475, -0.12081899493932724, -0.3071984648704529, -0.18292368948459625, -0.07365700602531433, -0.2279345691204071, 0.09792493283748627, -0.2970733940601349, -0.007001667283475399, -0.2832588851451874, 0.060917001217603683, -0.27471116185188293, -0.3736197352409363, -0.17938484251499176, 0.13084545731544495, -0.24993741512298584, 0.1890488862991333, -0.21988710761070251, -0.11122624576091766, -0.13497664034366608, -0.1967315673828125, -0.07957643270492554, -0.00729246623814106, -0.010990126989781857, 0.47612231969833374, 0.38750818371772766, 0.03472059220075607, 0.1619952768087387, -0.39112600684165955, 0.1701192408800125, -0.5121461749076843, 0.10696146637201309, -0.0073051066137850285, 0.283005028963089, -0.027805009856820107, 0.07343470305204391, -0.3776928186416626, -0.017505614086985588, -1.9225798845291138, -0.013521065004169941, 0.1357787847518921, 0.8227386474609375, 1.0044351816177368, 1.0397539138793945, -0.27341344952583313, -0.3204543888568878, -0.10066663473844528, -0.3105432391166687, -0.10361725091934204, -0.2148723155260086, -0.10051745921373367, -0.200883150100708, -0.5990881323814392, -0.23020608723163605, -0.2597709000110626, -0.07925542443990707, -0.31253644824028015, -0.12752869725227356, -0.31126436591148376, 0.15204493701457977, -0.09527616202831268, -0.584589958190918, -0.037009868770837784, -0.2510092854499817, -0.08862756937742233, -0.3617188334465027, -0.03311201557517052, -0.27647629380226135, -0.46709704399108887, 0.0022144087124615908, -0.5048953294754028, -0.04445371404290199, -0.3718132972717285, 0.05497372895479202, -0.34992697834968567, -0.18829363584518433, 0.05921955779194832, -0.3323832154273987, -0.2771272361278534, -0.5654799342155457, 0.16299492120742798, -0.2795003354549408, -0.22159352898597717, -0.64886474609375, -0.2675400376319885, -0.038567908108234406, -1.9168206453323364, -0.050645578652620316, 0.38141581416130066, 0.3047378361225128, -1.9628198146820068, -0.011852765455842018, -0.3513103127479553, -0.49220582842826843, -0.2353242188692093, -0.6102475523948669, 0.5090029239654541, 0.19778521358966827, 0.3727341890335083, -0.09980203956365585, -1.6794403791427612, -1.7570860385894775, -0.7444602847099304, 0.18574072420597076, 0.4729878306388855, 0.5666994452476501, -0.197228342294693, -0.04233577102422714, -0.16226007044315338, -0.1672922819852829, -0.16874001920223236, -0.20076751708984375, -0.30354228615760803, -0.19852964580059052, -0.15772943198680878, -0.15721681714057922, -0.02024482935667038, -0.18331700563430786, -0.11907301098108292, -0.16436533629894257, -0.16522356867790222, -0.18401268124580383, -0.103856161236763, -0.14197875559329987, -0.10633447021245956, -0.07172567397356033, -0.03793719783425331, -0.11040028184652328, -0.27753207087516785, -0.09789517521858215, -0.001424940419383347, -0.05859003961086273, -0.15784451365470886, -0.11126403510570526, -0.1243552416563034, -0.06406263262033463, -0.07962793856859207, -0.2031095325946808, -0.08308589458465576, 0.05789272114634514, -0.18390296399593353, -0.17270269989967346, -0.2656674385070801, -0.05992737412452698, -0.20207488536834717, 0.1025094985961914, -0.15475432574748993, 0.054285928606987, -0.23984533548355103, -0.24059349298477173, -0.2292652726173401, -0.1909283995628357, 0.15687917172908783, 0.04552228003740311, 0.0030082659795880318, -0.11477366834878922, -0.17066730558872223, -0.08252561837434769, -0.25987404584884644, -0.03848268836736679, 0.26092490553855896, 0.3500362038612366, 0.29953089356422424, 0.07588442414999008, -0.1610404998064041, -0.17778156697750092, -0.27090370655059814, -0.057264529168605804, -0.004026663955301046, -0.09749063104391098, -0.04437240958213806, -0.09095713496208191, -0.6667168140411377, -0.587257981300354, -0.5823752880096436, -0.6402372717857361, -0.5722367167472839, -0.6389036178588867, -0.5667216181755066, -0.711677610874176, -0.5696150064468384, -0.6849972009658813, -0.7358572483062744, -0.6916833519935608, -0.6455981731414795, -0.7289261817932129, -0.5601566433906555, -0.5068026781082153, -0.5578234791755676, -0.6311897039413452, -0.6359423398971558, -0.7375054359436035, -0.632193922996521, -0.688000500202179, -0.5804660320281982, -0.5168532133102417, -0.6111781597137451, -0.5621015429496765, -0.6360340714454651, -0.5912457704544067, -0.6701098680496216, -0.506050169467926, -0.6130092740058899, -0.5970739126205444, -0.5041574835777283, -0.60914146900177, -0.5405815243721008, -0.4698790907859802, -0.5190783739089966, -0.44623863697052, -0.41646602749824524, -0.56988126039505, -0.5640295743942261, -0.5487947463989258, -0.729767382144928, -0.4418599009513855, -0.41185230016708374, -0.5794031023979187, -0.9364546537399292, -0.42716658115386963, -0.3540680706501007, -0.5406935811042786, -0.501409649848938, -0.5890970826148987, -0.3840627670288086, -0.4225107729434967, -0.5472652912139893, -1.97793447971344, -0.35782667994499207, -0.4938434958457947, -0.6993387937545776, -0.4985259473323822, -0.5735294818878174, -0.589374840259552, 0.5181527137756348, -1.9574633836746216, -0.10956202447414398, -0.08695299178361893, -0.17299342155456543, -0.104220911860466, -0.1452004760503769, -0.19367462396621704, -0.26928865909576416, -0.3088347017765045, 0.045525822788476944, -0.05529922619462013, -0.05361589044332504, -0.06122243031859398, -0.025567492470145226, -0.15828758478164673, -0.21333548426628113, -0.3229844570159912, 0.09198684245347977, 0.017046499997377396, 0.009144152514636517, -0.11380554735660553, -0.07430589199066162, -0.16038404405117035, -0.17641259729862213, -0.2219478040933609, 0.017484944313764572, 0.09524545818567276, 0.04295003041625023, -0.0043944017961621284, -0.1465817242860794, -0.1304597407579422, -0.21469150483608246, -0.06520509719848633, 0.18971149623394012, 0.16693855822086334, 0.21236245334148407, 0.13730528950691223, 0.00985473021864891, 0.1466861218214035, 0.0901787281036377, 0.3019913136959076, 0.19966290891170502, 0.19239379465579987, 0.2538648545742035, 0.1737535446882248, 0.2906961143016815, 0.35213541984558105, 0.07233511656522751, 0.4718320071697235, 0.11583752185106277, 0.21891973912715912, 0.08122389018535614, -0.961919903755188, 0.49737080931663513, 0.5761736631393433, 0.5762141942977905, 0.4515877366065979, -0.10654027760028839, 0.15203975141048431, 0.12438094615936279, -1.9213248491287231, -1.3770639896392822, 1.17714262008667, -1.4315030574798584, 0.5168924331665039, 0.028446964919567108, 0.011531362310051918, 0.018327459692955017, 0.03496551886200905, 0.0277919489890337, 0.02921845205128193, 0.02677949145436287, 0.028253063559532166, 0.2354382872581482, 1.547914743423462, 0.43722495436668396, 1.1237456798553467, 0.7677778601646423, 0.35565418004989624, 0.24452199041843414, 0.31292852759361267, 0.0553157739341259, 0.07044491171836853, 0.20265039801597595, 0.21282930672168732, 0.4299072325229645, 0.3700772821903229, 0.22071503102779388, 0.3204796612262726, 0.06597331911325455, 0.004688749555498362, -0.011280986480414867, 0.07494692504405975, 0.19676584005355835, 0.14104655385017395, 0.11134407669305801, 0.1599227637052536, 0.000911957526113838, 0.035808805376291275, 0.06951607763767242, -0.005747267045080662, 0.4901345372200012, 0.09563250839710236, 0.16377794742584229, 0.1398407220840454, 0.002399104880169034, -0.02083747833967209, 0.1420498937368393, -0.18677249550819397, 1.169385552406311, -0.072908416390419, 0.36940711736679077, 0.15515699982643127, -0.006070196628570557, 0.1519135683774948, 0.014109060168266296, -0.0571230985224247, 1.2500399351119995, 0.2598879635334015, 0.2383149415254593, 0.1480930745601654, 0.004262888804078102, -0.0063730147667229176, -0.031108444556593895, 0.006600521504878998, -0.020337801426649094, 0.00968809425830841, -0.0026101344265043736, -0.03500847890973091, 0.15256789326667786, -0.018504370003938675, 0.09703953564167023, 0.053966086357831955, 0.12415758520364761, 0.11264369636774063, 0.2591697573661804, 0.18243131041526794, 0.13355013728141785, 0.02762947790324688, 0.270155668258667, 0.11674359440803528, 0.24898812174797058, -0.039839401841163635, 0.02604966051876545, 0.12044363468885422, 0.23228150606155396, 0.21945062279701233, 0.2505532503128052, 0.23645785450935364, 0.39255204796791077, 0.14166343212127686, 0.3839082419872284, 0.2244107872247696, 0.014634920284152031, -0.011967606842517853, -0.00014190909860190004, 0.2519327700138092, 0.18250200152397156, 0.1516478955745697, 0.14082320034503937, 0.36256396770477295, -0.005391615908592939, 0.2095693051815033, 0.18895946443080902, 0.06207837909460068, 0.07886753231287003, 0.16292214393615723, 0.28606516122817993, 0.23542100191116333, 0.1364716738462448, 0.03039105236530304, -0.0313846729695797, 0.19076840579509735, 0.1866038739681244, 0.12058868259191513, -0.015310393646359444, 0.07429565489292145, -0.011010692454874516, 0.10803773254156113, 0.36077818274497986, -0.07385130226612091, 0.022330481559038162, 0.025588223710656166, 0.523564875125885, 0.29124489426612854, 0.26401039958000183, -0.043147746473550797, -0.1266307532787323, 0.3139585852622986, 0.23783688247203827, 0.21345123648643494, -0.021480511873960495, 0.15777742862701416, 0.14675505459308624, 0.3555864691734314, -0.04289219155907631, 0.21996910870075226, 0.10248205065727234, 0.2654847800731659, 0.004775242414325476, 0.3389715254306793, -0.37597087025642395, 0.17050547897815704, 0.3022242784500122, 0.08012004941701889, 0.42233794927597046, 0.059553347527980804, 0.2498854100704193, 0.34718188643455505, 0.03317786008119583, 0.22536765038967133, 0.19140563905239105, 0.37071049213409424, 0.13465632498264313, 0.17145183682441711, 0.1707170307636261, 0.4406130909919739, 0.24271108210086823, 0.17720627784729004, 0.19949452579021454, 0.10209169238805771, 0.13455083966255188, 0.13860580325126648, 0.29356035590171814, 0.27998003363609314, 0.14366939663887024, 0.3677784204483032, 0.15455293655395508, 0.18878357112407684, 0.16816282272338867, 0.18344952166080475, 0.15139275789260864, 0.07982727140188217, 0.3727647066116333, 0.10604670643806458, 0.2266201227903366, 0.195115327835083, 0.22340746223926544, 0.26608583331108093, 0.16787169873714447, 0.14524461328983307, 0.15044207870960236, 0.41871336102485657, 0.16283144056797028, 0.33913102746009827, 0.24734900891780853, 0.24548204243183136, 0.31051644682884216, 0.3993927836418152, 0.5177876353263855, 0.23760466277599335, 0.41106948256492615, 0.16571326553821564, 0.3201392889022827, 0.176680326461792, 0.5510646104812622, 0.33172687888145447, 0.19165407121181488, 0.17993858456611633, 0.045667942613363266, 0.20481182634830475, 0.28491416573524475, 0.2737843096256256, 0.22692115604877472, 0.3352660536766052, 0.23846220970153809, 0.2215297669172287, 0.23407836258411407, 0.163202166557312, 0.23814120888710022, 0.24545377492904663, 0.22188928723335266, 0.26780596375465393, 0.14014635980129242, 0.20937766134738922, 0.10680960863828659, 0.17381654679775238, 0.2155303806066513, 0.23971602320671082, 0.262276291847229, 0.1312684416770935, 0.1369754821062088, 0.30633777379989624, 0.11700551211833954, 0.23267528414726257, 0.24623942375183105, 0.15958675742149353, 0.2583910822868347, 0.2007984071969986, 0.08316335827112198, 0.22928966581821442, 0.15466894209384918, 0.1278528869152069, 0.25703299045562744, -0.03241498023271561, 0.24944031238555908, 0.11247017979621887, 0.2725929021835327, 0.301970511674881, 0.16606979072093964, 0.2291852980852127, 0.018822239711880684, 0.22108779847621918, 0.6050236821174622, 0.4895328879356384, 0.18911908566951752, 0.21863281726837158, 0.17368286848068237, 0.1743965744972229, 0.34661296010017395, 0.10906310379505157, 0.21269352734088898, 0.10421212762594223, 0.1413070261478424, 0.20451676845550537, 0.11131614446640015, 0.12213995307683945, 0.24798399209976196, 0.07332915812730789, 0.15208253264427185, 0.01902938261628151, 0.34549784660339355, 0.34746190905570984, 0.4828597903251648, 0.5392085909843445, 0.6414409279823303, 0.5518353581428528, 0.49824029207229614, 0.746477484703064, 0.4716319739818573, 0.39886367321014404, 0.5614013075828552, 0.4521788954734802, 0.7080044150352478, 0.5103657245635986, 0.4101414084434509, 0.7630872130393982, 0.6666058301925659, 0.5672325491905212, 0.4616742730140686, 0.4780814051628113, 0.4032611846923828, 0.5933585166931152, 0.7698045969009399, 0.8422843813896179, 0.48003095388412476, 0.5626636743545532, 0.5102154612541199, 0.46751368045806885, 0.5076385736465454, 0.5413012504577637, 0.7268979549407959, 0.6215664744377136, 0.48836761713027954, 0.45343706011772156, 0.4811175465583801, 0.41846710443496704, 0.5685442090034485, 0.5392470955848694, 0.5708712339401245, 0.4875500202178955, 0.6026845574378967, 0.5216034650802612, 0.5140781402587891, 0.543440043926239, 0.43960168957710266, 0.6453326940536499, 0.7572224736213684, 0.718542754650116, 0.5261105298995972, 0.6046279072761536, 0.4811871349811554, 0.5436676144599915, 0.6282839775085449, 0.5948206186294556, 0.5555891394615173, 0.6508823037147522, 0.5372685790061951, 0.5199118852615356, 0.48213687539100647, 0.5547198057174683, 0.6595584750175476, 0.5216045379638672, 0.24986334145069122, 0.661809504032135, 0.5860275626182556, 0.43785029649734497, -0.18118849396705627, -0.05201399698853493, 0.939260721206665, 1.6938308477401733, 1.2645384073257446, 0.9691498279571533, 0.33741021156311035, 0.3787192404270172, 0.42092251777648926, 1.022647738456726, 0.8805684447288513, 1.2416136264801025, 1.4710134267807007, 1.307612657546997, -0.3285832107067108, 0.34849458932876587, -0.004560177214443684, 0.9194050431251526, 0.9686763286590576, 1.3958418369293213, 1.1167372465133667, 1.0837390422821045, 0.2994135320186615, 0.11040747165679932, 0.0634869635105133, 0.8940414190292358, 1.009387493133545, 1.0475492477416992, 1.1554585695266724, 1.1970869302749634, -1.5229064226150513, -0.1551496684551239, -1.9491376876831055, 0.8111636638641357, 0.985101044178009, 1.0470836162567139, 1.0740106105804443, 1.0857077836990356, -1.960493803024292, -1.9509942531585693, -1.9739590883255005, -1.9780100584030151, 0.9488821029663086, 0.9633703231811523, 0.986217737197876, 1.062577247619629, 1.9650079011917114, -1.9726972579956055, -1.9800000190734863, -1.9562065601348877, 1.0131076574325562, 1.0684505701065063, 0.9941518902778625, 1.0481263399124146, 1.966963291168213, -1.9732143878936768, -1.9659945964813232, -1.9800000190734863, 1.0531353950500488, 1.004774570465088, 1.0742613077163696, 0.9490327835083008], [0.002800437156111002, 0.013459444046020508, -0.0347164124250412, -0.001305237179622054, -0.029597083106637, 0.028160952031612396, -0.032804518938064575, -0.011592134833335876, 0.03376862406730652, -0.11626621335744858, -0.11665109544992447, -0.1798851042985916, 0.006722511723637581, -0.025001147761940956, 0.040220338851213455, 0.03882887586951256, 0.05450593680143356, 0.03597475588321686, -0.420886367559433, 0.00982215441763401, 0.04516435042023659, -0.01885661855340004, 0.0015015203971415758, 0.021886583417654037, -0.005988462828099728, 0.09323801100254059, -0.8244426250457764, 0.04003211110830307, 0.045569222420454025, 0.03693770617246628, 0.043018534779548645, -0.003201092593371868, -0.032303858548402786, 0.11796314269304276, -1.2115768194198608, 0.08319341391324997, 0.052341483533382416, 0.06854616850614548, 0.03932103142142296, 0.018849611282348633, 0.10002865642309189, -0.01823165826499462, -0.7808356285095215, -0.04542103409767151, 0.08008868992328644, 0.10501952469348907, 0.03198837488889694, 0.008172644302248955, -0.1336384266614914, -0.3092047870159149, -1.7418643236160278, -0.599299967288971, -0.2163906842470169, 0.08746980130672455, 0.11671473830938339, 0.2017034888267517, -0.0029464545659720898, -0.024394286796450615, 0.020626313984394073, 0.024522263556718826, -0.010126960463821888, -0.004198984242975712, -0.03543323278427124, -0.025664888322353363, -0.15816618502140045, 0.10535012930631638, 0.08668601512908936, 0.04524179920554161, -0.045325249433517456, 0.016199642792344093, 0.03951546549797058, 0.0915248766541481, -0.08754680305719376, 0.047591354697942734, 0.18033239245414734, 0.11227113008499146, -0.05587009713053703, 0.03681962564587593, 0.0376925989985466, 0.026133127510547638, -0.024660535156726837, 0.05693736672401428, 0.001985314302146435, -0.009185953065752983, -0.1780921369791031, -0.016114279627799988, 0.04767557978630066, 0.06574496626853943, 0.001705307513475418, -0.08430451899766922, -0.0720956027507782, -0.14896619319915771, 0.0032479732763022184, 0.04516168311238289, 0.11865368485450745, 0.10920420289039612, 0.02144004963338375, -0.040057625621557236, -0.08285892754793167, -0.09049335867166519, 0.04500437527894974, -0.01933697797358036, 0.12288213521242142, 0.09603756666183472, 0.16920091211795807, -0.5464164018630981, -0.14411522448062897, -0.5060025453567505, 0.14444036781787872, 0.0681362897157669, 0.07123411446809769, 0.059819549322128296, -0.7462335824966431, -0.04401930794119835, 0.09050092846155167, 0.08242825418710709, -1.0312700271606445, 0.1599404364824295, 0.1907050609588623, 0.10125359892845154, 0.08470461517572403, 0.2710173428058624, -1.112526297569275, 0.16247297823429108, 0.149515300989151, 0.2009182572364807, 0.10699629783630371, 0.3134746849536896, -0.057930901646614075, -0.12024355679750443, 0.08940917253494263, -0.08772672712802887, 0.0024557921569794416, 0.020236412063241005, 0.08089590072631836, 0.10624821484088898, -0.11875452101230621, -0.018732234835624695, 0.1898915022611618, -0.10118432343006134, -0.011094683781266212, 0.044777605682611465, 0.03701905533671379, 0.10254473984241486, -0.05402158573269844, -0.1969948261976242, 0.07269071787595749, -0.18875432014465332, -0.025146950036287308, 0.04893045872449875, 0.13130924105644226, 0.022862397134304047, -0.07973120361566544, -0.10963702946901321, 0.06668354570865631, -0.049213867634534836, -0.06504601985216141, 0.06383252888917923, -0.04913324862718582, 0.10661344975233078, -0.018909797072410583, -0.0097970524802804, 0.03974565118551254, 0.028469497337937355, -0.039574120193719864, -0.24838393926620483, 0.06676036864519119, 0.0730002298951149, -0.38552454113960266, 0.03434811532497406, 0.053504832088947296, 0.08363261073827744, -0.2174401730298996, 0.04866304248571396, 0.052854087203741074, -0.03632177785038948, 0.07635748386383057, -0.3724428713321686, 0.022250482812523842, -0.4624411463737488, 0.06303808093070984, 0.11517220735549927, 0.003464407054707408, 0.028801891952753067, 0.21215802431106567, 0.014112264849245548, -0.11715111881494522, 0.10306911170482635, 0.15292362868785858, 0.14269496500492096, -0.15864278376102448, 0.006842487957328558, -0.11382674425840378, -0.056825172156095505, -0.011086051352322102, -0.05294318124651909, -0.014407751150429249, -0.054922763258218765, 0.01876618154346943, 0.04014497622847557, -0.09927543997764587, -0.04213665425777435, -0.06855127960443497, -0.04401228576898575, -0.0306473970413208, -0.099031001329422, -0.0498962365090847, 0.03815978392958641, -0.010747511871159077, 0.01874258928000927, -0.18193230032920837, 0.023927219212055206, -0.021761737763881683, 0.019552627578377724, -0.020889107137918472, 0.046141184866428375, -0.04876438528299332, -0.04327106848359108, -0.30934441089630127, 0.002091849921271205, -0.05452760308980942, 0.011263874359428883, -0.024594023823738098, 0.0692652016878128, -0.03815341740846634, 0.014177029021084309, -0.3153184652328491, 0.02802048996090889, 0.017199253663420677, 0.05224079638719559, 0.03217005729675293, 0.10559412091970444, -0.07336705178022385, -0.06605852395296097, -0.21473850309848785, -6.652775482507423e-05, 0.03727081045508385, 0.0013292392250150442, -0.02878410555422306, -0.009384660981595516, -0.0938057005405426, -0.051771726459264755, -0.2966042757034302, -0.11477652937173843, 0.0029621676076203585, -0.0009518381557427347, -0.0034119992051273584, -0.06616294384002686, -0.039604302495718, -0.06835144758224487, -0.4918932616710663, -0.0947023257613182, 0.010900728404521942, 0.028676042333245277, -0.06918761134147644, -0.03898640349507332, 0.012527248822152615, 0.04735821485519409, 0.3646143674850464, -0.09570061415433884, 0.03978751599788666, 0.006375685799866915, 0.0324743390083313, 0.09539644420146942, 0.0674780011177063, 0.020867614075541496, 0.4094386100769043, -0.013809891417622566, -0.0036804291885346174, -0.027246957644820213, 0.05835513025522232, 0.07598291337490082, 0.009308903478085995, -0.0236781258136034, 0.40337249636650085, 0.0006785456207580864, 0.004559062421321869, 0.04417165741324425, 0.09179578721523285, 0.11057969182729721, -0.011838380247354507, 0.06124895066022873, 0.3875718116760254, -0.01751420460641384, 0.007779845502227545, 0.045283008366823196, -0.030322372913360596, -0.017111606895923615, 0.12508907914161682, 0.02802051417529583, 0.3980046808719635, 0.05059553310275078, 0.03245155140757561, -0.027937110513448715, 0.02087051048874855, 0.049365367740392685, -0.0545792281627655, 0.0774003267288208, 0.3542919456958771, 0.16956575214862823, 0.05749208480119705, -0.06639964133501053, 0.05130467191338539, 0.04769451916217804, 0.11828529834747314, 0.08496879041194916, 0.18127772212028503, -0.06401825696229935, 0.03954126313328743, 0.11519178003072739, -0.09799516201019287, 0.11737709492444992, 0.0494009405374527, 0.09873224049806595, 0.05663130059838295, 0.11712140589952469, -0.019670942798256874, 0.15870895981788635, 0.12556660175323486, 0.15878859162330627, 0.2172459065914154, 0.12600141763687134, 0.5850679874420166, 0.3581852614879608, 0.42119768261909485, 0.38529813289642334, 0.25239992141723633, 0.2673766016960144, 0.10343481600284576, 0.17024081945419312, 0.6996920108795166, 0.3525890111923218, 0.35452017188072205, 0.318254292011261, 0.2284158319234848, 0.2187276929616928, 0.07553308457136154, 0.28137123584747314, 0.6695253252983093, 0.30734512209892273, 0.3627265989780426, 0.2434021532535553, 0.12191728502511978, 0.17421980202198029, 0.055007122457027435, 0.4835916757583618, 0.6157083511352539, 0.4717586040496826, 0.2577207386493683, 0.15769191086292267, 0.1542370319366455, 0.019107140600681305, 0.11818669736385345, 0.5138057470321655, 0.6040226817131042, 0.28945353627204895, 0.11373662203550339, -0.0655582919716835, -0.1547519713640213, -0.22698894143104553, 0.42410004138946533, 0.27863365411758423, 0.3503495752811432, 0.06863923370838165, -0.07684265822172165, -0.7716959118843079, -0.1721731275320053, -0.2849953770637512, -0.012545492500066757, -1.1009445190429688, -1.498234748840332, -0.29255664348602295, -0.7353761792182922, -0.26630353927612305, -1.5861839056015015, -1.3296927213668823, -0.02526049129664898, -0.0648297443985939, -1.626441478729248, -0.10292117297649384, -1.050548791885376, 0.07938001304864883, -1.20714271068573, -1.060261607170105, 0.035128526389598846, 0.00016231636982411146, -0.026068540289998055, 0.00606438796967268, 0.002923862775787711, -0.013931109569966793, 0.022392433136701584, -0.02598569728434086, 0.37560710310935974, 0.4481440782546997, 0.14581388235092163, 0.19676341116428375, 0.046960074454545975, 0.07316194474697113, 0.14752817153930664, 0.23192614316940308, 0.27775415778160095, 0.3647606670856476, -0.4905227720737457, 0.06854992359876633, 0.19185680150985718, 0.16258318722248077, 0.07698550820350647, 0.1585160493850708, 0.17053061723709106, 0.10238714516162872, -0.8004463315010071, 0.10360908508300781, 0.046826887875795364, 0.019017960876226425, 0.0816531702876091, 0.08283228427171707, 0.12354109436273575, 0.022503241896629333, -0.7776209712028503, -0.01778029091656208, 0.09282863885164261, 0.01800696738064289, 0.03431272134184837, 0.02588389813899994, 0.09819621592760086, -0.008043031208217144, -1.0739561319351196, -0.023109195753932, 0.0345073826611042, 0.03737770393490791, 0.023153429850935936, 0.04712974652647972, 0.11613885313272476, 0.0316879004240036, -1.1276482343673706, 0.057058583945035934, 0.015419584698975086, 0.003163863206282258, -0.01769927330315113, 0.022104859352111816, -0.025238845497369766, 0.025637539103627205, -0.02040090225636959, 0.0179717019200325, -0.025033026933670044, -0.0031761941500008106, -0.027137212455272675, 0.03210301324725151, 0.19535274803638458, 0.2501577138900757, 0.23207831382751465, 0.08983166515827179, 0.06345786154270172, 0.10418318957090378, 0.14821259677410126, 0.19515059888362885, 0.2689010500907898, 0.15155887603759766, 0.01002638228237629, 0.05325576290488243, 0.12494078278541565, -0.021571084856987, 0.05956561490893364, 0.12748639285564423, 0.1383163332939148, 0.13089685142040253, -0.0987805724143982, 0.1463417112827301, 0.11320046335458755, 0.11181797087192535, 0.027327029034495354, -0.028939714655280113, 0.09183195233345032, 0.1723269522190094, -0.28013932704925537, 0.20210492610931396, 0.13895398378372192, 0.11498863995075226, 0.010881822556257248, 0.020547911524772644, 0.01106445211917162, 0.058482591062784195, -0.34127098321914673, 0.08158145099878311, 0.048050906509160995, 0.12017696350812912, 0.006512952037155628, -0.06239849701523781, -0.09966155141592026, -0.0003665463882498443, -0.2981114089488983, 0.023968150839209557, -0.060994647443294525, -0.0335271991789341, -0.07484018057584763, -0.09755672514438629, -0.13743475079536438, -0.08398623019456863, -0.5558286905288696, -0.0610404908657074, -0.047945357859134674, -0.03934434801340103, -0.065457284450531, -0.04212065413594246, -0.0936947762966156, -0.23069781064987183, -0.13121995329856873, -0.09398283809423447, -0.10843434184789658, -0.0523366704583168, -0.06489162892103195, -0.03684823215007782, 0.04813040792942047, -0.049544189125299454, 0.028177065774798393, -0.018860438838601112, 0.07071961462497711, 0.04420965909957886, -0.23336255550384521, -0.08739209920167923, 0.06427302211523056, 0.1401744782924652, 0.04218609258532524, 0.06271085143089294, 0.08952648937702179, 0.0019391524838283658, 0.03721434250473976, -0.08580116182565689, 0.1517772376537323, 0.13961975276470184, -0.07328885048627853, 0.17866180837154388, 0.1437855213880539, 0.06540559977293015, 0.05996653437614441, 0.06277424097061157, 0.13680802285671234, 0.12433565407991409, -0.338237464427948, 0.0807245597243309, 0.1920604258775711, 0.14764651656150818, 0.10484752804040909, 0.08534099906682968, 0.14742057025432587, 0.17815399169921875, -0.3487895131111145, 0.08852778375148773, 0.03971909359097481, 0.14287303388118744, 0.13961052894592285, -0.030415864661335945, 0.06062731146812439, 0.047912709414958954, -0.3484897017478943, -0.017278192564845085, 0.07590461522340775, -0.02985483780503273, 0.07494405657052994, 0.06096401810646057, 0.03659500926733017, 0.009362790733575821, -0.4828656315803528, 0.07218940556049347, -0.04855528473854065, 0.008357723243534565, -0.07921750843524933, 0.07321435958147049, 0.07871808856725693, 0.06063855066895485, -0.2560272812843323, -0.03050367347896099, -0.008071805350482464, -0.04092434421181679, -0.016429949551820755, -0.009854276664555073, 0.22117362916469574, 0.15087410807609558, 0.44271320104599, 0.27003276348114014, 0.10401815176010132, 0.10388122498989105, 0.1619875431060791, 0.22267769277095795, 0.25118333101272583, 0.21611039340496063, 0.3360264301300049, 0.21801361441612244, 0.18410561978816986, 0.18641014397144318, 0.23167413473129272, 0.19614985585212708, 0.142320454120636, 0.18124066293239594, 0.35014232993125916, 0.15602053701877594, 0.15282411873340607, 0.1565423458814621, 0.08050138503313065, 0.2518060505390167, 0.11198512464761734, 0.1381489634513855, 0.2816777527332306, 0.1434919834136963, 0.06497668474912643, 0.03942999616265297, 0.0340997613966465, 0.1216549351811409, 0.09746008366346359, 0.20042145252227783, 0.4628399908542633, 0.1636279821395874, 0.16561546921730042, 0.10690920054912567, 0.023871026933193207, 0.04836437106132507, 0.08652427047491074, 0.19671623408794403, 0.5988550782203674, 0.16854561865329742, 0.14641173183918, 0.11148417741060257, 0.049906034022569656, 0.08527782559394836, 0.16879583895206451, 0.24001196026802063, 0.6563982963562012, 0.19856712222099304, 0.09721635282039642, 0.1230873391032219, 0.11473626643419266, 0.0850481316447258, 0.24077868461608887, 0.2505171597003937, 0.8310799598693848, 0.23490236699581146, 0.19378003478050232, 0.17225699126720428, 0.12952832877635956, 0.11472862213850021, 0.16273023188114166, 0.24030905961990356, 0.2040804624557495, 0.10500159114599228, 0.17697453498840332, 0.19766180217266083, 0.23077420890331268, 0.1418677121400833, 0.16781972348690033, 0.2505735158920288, 0.14241290092468262, 0.2714478373527527, 0.1227894201874733, 0.3319132924079895, 0.27484092116355896, 0.1975170224905014, 0.17456230521202087, 0.2268790751695633, 0.2556230425834656, 0.2510617673397064, 0.24807193875312805, 0.24645830690860748, 0.28292715549468994, 0.26102760434150696, 0.1884952336549759, 0.19408652186393738, 0.04529137909412384, 0.1395953744649887, 0.22338469326496124, 0.1863279938697815, 0.10453838855028152, 0.11140037328004837, 0.14126530289649963, 0.1595456302165985, 0.03382695093750954, 0.14624448120594025, 0.13577789068222046, 0.20416897535324097, 0.11528385430574417, 0.10819723457098007, 0.14906112849712372, 0.06630929559469223, 0.1252591907978058, 0.014053286984562874, 0.0856505036354065, 0.04097114875912666, 0.10698016732931137, 0.1211359053850174, 0.1211247444152832, 0.1316392719745636, 0.15351903438568115, 0.045494552701711655, 0.03486543521285057, 0.06536051630973816, 0.029898596927523613, 0.089407779276371, 0.09810682386159897, 0.05526895821094513, 0.45727992057800293, 0.09708191454410553, 0.06499682366847992, 0.15152201056480408, 0.11238908767700195, 0.07131350785493851, -0.5437626838684082, 0.7064611315727234, 0.47827622294425964, -0.5434059500694275, 0.6195146441459656, 0.030305083841085434, 0.14645537734031677, 0.5164864659309387, 0.6758385896682739, 0.7023252248764038, -0.8424225449562073, 0.3654630482196808, 0.1622222363948822, 0.41182515025138855, 0.3400249183177948, 0.7432832717895508, 0.7247487902641296, 0.4982805550098419, -0.8386785984039307, -1.0125806331634521, 0.15804095566272736, 0.43596041202545166, 0.27596569061279297, 0.4604252874851227, 0.27719882130622864, 0.17903141677379608, -1.2953072786331177, 0.14544399082660675, 0.3842836022377014, 0.33941254019737244, 0.286231130361557, 0.18865467607975006, 0.36715635657310486, 0.024341050535440445, -1.43985915184021, 0.2647012770175934, 0.3579138517379761, 0.3459189236164093, 0.34576770663261414, 0.39706307649612427, 0.29648372530937195, 0.17580565810203552, -1.7222752571105957, 0.3399064540863037, 0.4720839262008667, 0.3230908215045929, 0.3094945251941681, 0.3637375235557556, 0.4847690761089325, 0.33873966336250305, -0.4016888439655304, 0.3455199599266052, 0.39449188113212585, 0.36134612560272217, 0.34566158056259155, 0.3152002990245819, 0.43713000416755676, 0.4625702202320099, 0.06676512211561203, 0.29645857214927673, 0.3259604871273041, 0.32584869861602783, 0.3209255039691925, 0.34344327449798584], [0.006848904304206371, -0.019849471747875214, -0.035457588732242584, -0.022200031206011772, -0.01668373867869377, -0.03256162628531456, -0.028036417439579964, 0.01957470364868641, -0.15124914050102234, -0.15222400426864624, -0.171975776553154, -0.045419469475746155, -0.019973861053586006, -0.12849874794483185, -0.14021795988082886, -0.2057027816772461, -0.14328481256961823, -0.18902209401130676, -0.14602777361869812, -0.12710075080394745, -0.1304951310157776, -0.16510601341724396, -0.17116238176822662, -0.16922160983085632, -0.07512043416500092, -0.22855240106582642, -0.26280397176742554, -0.2392732948064804, -0.1659235954284668, -0.1724071204662323, -0.2188107967376709, -0.13188284635543823, -0.004754146561026573, -0.2541085183620453, -0.2116646021604538, -0.27604174613952637, -0.28735896944999695, -0.22241050004959106, -0.1717320829629898, -0.15626423060894012, 0.21164944767951965, 0.3499234914779663, 0.49460285902023315, 0.43364158272743225, 0.39014098048210144, 0.16641807556152344, 0.1157374158501625, 0.16149064898490906, 0.5217435359954834, 1.6073797941207886, 1.2442444562911987, 1.1870554685592651, 1.1437972784042358, 1.1050841808319092, 0.34047240018844604, 0.28146329522132874, 0.02594798058271408, 0.01952778548002243, 0.027390288189053535, -0.014270213432610035, 0.024111486971378326, 0.01903391443192959, 0.0003542965278029442, 0.02854565717279911, -0.7512030005455017, -0.46477264165878296, -0.5545706748962402, -0.4317071735858917, -0.4797986149787903, -0.5000389814376831, -0.4447113871574402, -0.5464850068092346, -0.4411008059978485, -0.47786566615104675, -0.49459558725357056, -0.418535441160202, -0.3707411587238312, -0.4638124108314514, -0.46794605255126953, -0.5319330096244812, -0.49706828594207764, -0.4602454900741577, -0.3995799720287323, -0.4370942711830139, -0.46223074197769165, -0.41932061314582825, -0.45151859521865845, -0.41699841618537903, -0.4340684413909912, -0.5554376244544983, -0.4768112301826477, -0.4303203523159027, -0.5107713937759399, -0.3286244869232178, -0.29869985580444336, -0.38274121284484863, -0.19238734245300293, -0.41322067379951477, -0.26770883798599243, -0.42894354462623596, -0.2755807340145111, -0.3168752193450928, -0.27905967831611633, -0.354606032371521, -0.19632558524608612, -0.269156277179718, -0.25580301880836487, -0.18941056728363037, -0.263822466135025, -0.13676278293132782, -0.039780277758836746, -0.20409247279167175, 0.005008076783269644, -0.3075466454029083, 1.4464584589004517, -0.34961190819740295, -0.3845587372779846, -0.43524423241615295, -0.34802332520484924, -0.08480436354875565, 1.0467287302017212, -0.2500803470611572, -0.45670661330223083, -0.3514353930950165, -0.4044768810272217, 1.313692569732666, -0.3261224031448364, -0.10236810147762299, -0.41246142983436584, -0.3120573163032532, -0.4458048939704895, -0.35701993107795715, -0.3427252769470215, -0.3224875032901764, -0.39122992753982544, -0.21828529238700867, 